the -0.075646 -1.095756 -0.257066 -0.076300 1.360915 -0.765874 -0.152041 0.303711 1.639702 0.269302 0.134528 0.223815 0.757746 0.740993 -0.285957 -1.076079 -0.229500 1.061059 1.016049 0.468607 1.454606 1.235415 0.143623 0.765883 0.743054 0.250690 0.596574 0.097686 -0.689118 0.987594 -0.913113 0.440644 -0.485583 0.268879 -0.724835 0.317426 -0.668650 0.561714 -0.039781 0.821553 -0.989246 0.642341 -0.580150 0.352697 -0.193546 -0.567299 -0.720887 -0.822137 -0.330677 1.089900 0.139466 -0.842304 0.879504 -0.712840 -0.294745 -0.065349 -0.541279 -0.372166 0.032233 -0.493429 2.100856 -0.712898 0.057843 -0.244452 0.621712 0.504784 -0.417576 -0.289294 -0.222907 -0.022623 0.264395 -0.010388 -0.974433 -0.169357 -0.409319 1.028961 -0.547315 0.836928 -0.428410 -0.485395 -0.633530 0.103862 1.435788 0.990427 0.471437 -0.463295 -0.001041 -1.671876 0.348850 -0.068173 0.210405 -0.061351 -0.548653 0.753744 -0.706760 0.230798 0.390635 -0.353149 -0.644578 -0.498028
of -1.190147 -1.173163 -0.021454 1.570531 1.377210 0.843888 0.563537 -0.127109 0.206216 0.100411 -0.910482 0.145539 0.486116 0.949005 -0.542282 0.045532 0.162684 -0.662901 1.062295 0.137263 0.744216 0.480876 -0.317495 1.513092 0.542916 0.367958 0.494691 0.278591 -0.707736 0.711850 -0.097850 1.029084 -0.456079 -0.129843 -1.057469 0.040685 -0.219052 -0.064089 -0.511012 -0.383204 -0.980037 1.072886 -0.633049 0.681046 -1.074623 -0.857615 0.007637 -0.505431 -0.382009 -0.239874 -0.683921 -0.930673 1.481563 0.139654 -0.134412 -0.933923 -0.422743 0.298748 -0.026965 0.459295 0.783139 -0.781179 -0.044313 -0.803581 0.013213 1.256012 0.069612 0.774031 -0.132374 0.547053 0.515027 -1.404300 -0.704726 -0.333156 -0.155242 0.390196 0.132044 -0.046512 -0.756468 -0.370074 -0.959912 0.556927 1.316021 1.373508 -0.604004 -1.272882 0.352043 -0.603408 -0.719780 -0.093805 0.724816 0.568641 0.465055 0.250280 0.344944 -0.517713 0.470139 0.471603 -0.707320 -0.259512
a -0.195839 -0.931174 -1.106174 1.023334 1.150633 1.219448 0.721008 -0.211379 0.719866 1.084864 -0.568826 0.215068 0.312299 -0.113202 -1.088827 0.782618 0.670324 -0.623965 1.483192 -0.927410 0.179200 0.717351 0.524715 0.565212 1.026298 0.656288 0.259885 1.506805 0.530417 0.592980 -0.345871 -0.005692 -0.513612 0.500542 -0.773086 -0.022832 -0.079523 0.717256 -0.499114 -0.431774 -0.686964 0.930208 -0.594703 0.574798 0.030608 -0.170440 -1.008753 -0.336406 0.217307 0.676084 -0.058162 -0.019194 0.653749 -0.310338 -0.615111 -0.142675 0.177437 -0.372730 0.800957 -1.070712 1.066591 -0.681388 -2.020143 0.052933 -0.014320 0.193083 -1.148803 0.411676 -0.912852 0.816500 1.369164 -0.821308 0.484281 -0.281102 0.353652 0.784794 -0.123124 0.199953 0.847486 0.503258 -0.832398 0.072338 -0.214291 -0.540965 0.222008 -0.972108 0.333622 -1.509935 -0.077697 -0.390172 1.107839 -0.837441 -1.018825 -0.648547 0.612520 -0.099741 0.035426 1.045427 0.004824 0.494794
to -0.973309 -1.390671 -1.522905 0.383161 1.883534 0.093086 -0.055594 -0.077549 1.051410 0.484576 -1.026906 -0.191642 0.916578 1.776166 -0.873085 -0.567489 0.440211 0.217502 1.398436 -0.359027 0.552416 -0.242983 0.371963 0.057770 0.614185 0.324204 0.794638 0.866284 -1.752620 0.737347 -1.118536 0.250433 -0.808493 0.074555 -0.059453 0.907174 -0.150682 -0.498053 0.400606 0.486767 0.079121 0.418910 0.135747 0.505671 0.132052 -0.400796 -0.010510 -0.816316 0.402380 0.102477 -0.056768 -0.587567 1.158335 -0.237480 -1.315282 -0.734824 0.504281 0.574438 0.307414 0.380957 1.277706 -0.389420 0.328774 -0.008866 1.300223 0.228020 -0.689890 -0.449816 -1.061677 1.434541 0.836990 1.504678 1.337266 0.544207 0.843622 -0.479861 0.332855 0.697931 -1.170726 0.670837 -0.232840 -0.221570 0.414495 0.729175 0.783605 0.196735 0.485973 -0.617384 -0.560546 -0.411638 0.322550 -1.421921 0.050881 -0.354509 0.243981 -0.151348 0.107126 -0.922217 1.180529 -0.614040
in 0.092790 -0.777075 -1.122791 1.084975 0.740336 0.927806 1.080489 1.043436 1.556858 -0.713192 0.802869 0.719353 0.143353 0.362124 -0.517368 0.163869 -0.170565 0.130584 0.857102 0.015347 0.762457 0.214004 -0.594282 1.017816 0.855672 0.774451 0.570559 0.597128 -0.463579 2.011971 0.091592 1.256025 -0.479953 -0.363864 -0.682104 0.269801 -0.439634 -0.230622 -0.907223 0.313541 -0.975892 0.633078 0.333938 1.478594 0.480840 0.693784 -0.093267 -0.103025 -1.436312 0.419010 -0.631789 -0.313808 -0.508034 0.471883 -0.185837 0.231019 -0.545676 -0.733762 -0.079596 -0.431416 1.476318 -0.523284 -0.501403 -0.171552 -0.275197 -0.133246 -0.331196 0.506939 -0.646000 1.422210 0.551894 0.017653 -0.596609 0.089895 0.043382 0.528493 0.262824 -0.185448 -1.486565 0.360992 -0.626915 0.774299 0.683910 0.413664 -1.049097 0.649575 -0.397792 -0.840014 -0.038852 -0.847131 -0.824128 -0.809812 -0.207450 0.461091 -0.037910 0.835085 -0.830924 0.261260 0.223485 -0.614099
is 0.170588 -0.104153 -0.463722 0.098765 0.259889 1.995817 0.612812 0.547689 0.766649 -0.466924 -0.644036 -0.698240 0.988398 0.600015 -0.170004 -1.000880 -0.562358 -1.087177 1.535526 0.060818 0.480100 0.826327 0.134060 0.602272 0.431263 -0.121051 -0.010630 1.109071 -0.313772 0.745981 -0.194094 1.185526 -1.027737 -0.255255 -0.774573 0.104418 -0.442016 0.567231 1.041378 0.926304 0.189273 0.897132 0.269254 0.811401 -0.500481 -1.286937 0.326542 -0.035042 1.143372 1.351589 -0.146813 -1.114772 0.474398 0.558686 0.153481 -1.431840 0.004536 -0.726332 0.051535 -0.130689 1.074136 -0.872810 -0.344071 -0.137849 0.819900 -0.167862 -0.982902 0.597949 -0.050000 -0.347320 1.772116 0.581032 -0.225410 0.072265 -0.116044 -0.277071 0.026610 1.220419 -0.258011 1.044969 -0.500645 0.379158 0.002275 0.302439 0.002668 -0.287100 -0.042239 -0.975614 -0.329791 -0.571185 -0.470880 -0.406157 -0.585709 0.024552 -0.893182 0.647975 0.535664 0.845066 0.069271 0.405336
and 0.791702 -1.455514 -0.158258 1.335381 0.531420 -0.220122 0.014178 2.182723 0.210819 -0.193321 -0.672973 0.718822 -0.312442 0.155977 0.299966 -0.618901 0.274888 -0.230935 0.579998 -0.481124 0.585700 0.930323 -0.791918 -0.253662 0.756908 -0.130326 0.257076 -0.026200 -0.793885 1.490534 -0.473661 1.555268 -1.192998 0.953631 0.042105 -0.511652 0.040512 0.558820 0.372692 -0.019266 -0.825415 0.730087 -2.281596 0.760805 -0.236740 0.958431 -1.063749 -0.523702 0.287171 0.748671 -0.861506 -0.428770 0.027249 0.463867 0.483152 -0.028753 0.038304 0.450042 0.363870 0.837069 0.914365 -0.307157 -0.987171 -0.314905 0.233549 1.242003 -0.620114 -0.050668 -1.209072 0.350715 0.926576 0.819483 0.328110 0.701385 -0.014277 0.061454 0.494325 0.962972 -0.516906 0.865628 -1.377233 1.162944 0.593651 0.935839 -0.067459 -0.465059 0.384467 -0.447266 0.238477 -0.525836 0.985497 0.457722 -0.439569 -0.570278 1.073021 0.065270 -0.175145 -0.663136 -1.171008 0.289978
for 1.031559 -0.741417 -0.029495 1.678257 0.706115 -0.502473 0.409452 0.695340 0.907526 0.296971 -0.226964 0.736237 0.266782 0.487327 -0.784230 -0.913105 1.016346 -0.894331 0.301943 0.039005 1.386510 0.026942 0.431195 0.141903 0.301929 -0.528652 1.134744 1.212953 -0.197966 1.063403 -0.291973 1.169542 0.144519 -0.334235 0.321170 0.280952 -0.716773 -0.641929 -0.427061 0.588263 -1.713337 0.826631 -0.321823 0.326669 0.836444 -0.972015 0.306027 -0.632669 -0.313828 -0.057668 -1.043597 -1.192106 0.735059 -0.821578 -1.016369 -0.014432 0.444769 -0.378259 -0.071395 -1.424865 0.867808 -1.120575 -0.306226 -0.255872 -0.207967 -0.383729 -0.222139 0.114941 -1.325885 -0.030546 1.182528 -0.167540 0.463007 0.394738 -0.794489 0.513722 0.966502 0.437777 0.245179 0.560464 -0.638436 0.511735 -0.446597 0.646965 0.749061 0.175402 1.403939 0.396502 -0.890290 -0.718013 -0.914308 -0.008510 -0.075396 0.088743 0.290542 0.231885 0.197461 0.702103 -0.566146 1.065340
n -0.254624 -1.004572 0.171694 0.721888 1.130383 0.166906 0.325014 1.557988 0.438568 0.227553 0.750928 0.082915 1.706305 0.467164 -0.443826 0.930201 -0.191784 -0.578667 -0.228821 -0.678398 1.180793 1.193524 -0.005278 1.675044 0.111868 -0.701180 0.605514 0.908174 -0.552975 -0.063628 1.172088 0.946210 -1.234287 0.431323 0.289413 0.038904 0.169331 1.117848 0.046447 0.161475 -0.358152 -0.215558 0.195722 0.366696 0.595831 -0.329345 1.071220 -0.866053 0.052849 0.934910 -0.508155 -0.641285 -0.917080 -0.366436 -0.165557 -0.858270 -0.499403 -0.661269 0.416740 0.010138 1.174630 0.001585 0.517911 -0.798051 -0.756212 -0.135325 -0.322532 0.171059 -0.877435 -0.456107 1.012409 0.643186 1.369757 0.643961 0.159056 0.219373 0.546203 -0.410180 -0.074807 -0.027085 -1.582301 0.624686 0.484160 0.187463 -0.132872 -1.376247 0.928398 -0.511107 -0.730146 -0.511793 0.459246 -0.823576 -0.461223 -0.936206 -0.335692 0.298426 -0.098349 -0.442555 0.391312 -0.935720
algorithm 0.067518 -1.472221 -0.690455 0.921301 0.554869 1.101882 -1.197217 0.993313 1.161695 0.755066 -0.244040 0.104365 0.877106 0.285680 -0.445754 0.066561 -1.403588 0.451512 0.567144 0.508766 1.636356 -1.522252 -0.625474 -0.054019 -0.097467 -0.045676 0.636388 1.170292 0.734204 0.290654 -0.297471 0.957808 0.504033 0.150365 0.067308 0.367423 -0.255281 0.399968 -0.407857 0.045926 -0.716085 0.956877 -0.593243 0.554023 -0.914868 -0.620816 0.300666 -1.394994 -0.476363 0.845975 -0.150516 -0.925111 0.007110 0.356528 -0.295456 -0.109802 0.042978 0.245567 -0.396807 -0.764304 0.943558 -0.507674 0.274372 0.549597 -0.508140 0.752162 0.066141 -0.021789 -0.317176 0.135788 1.344066 0.008617 0.193248 0.632569 -0.572329 -0.205804 -0.317081 0.014322 -0.089864 0.517128 -1.028708 -0.085983 0.857259 0.793850 -0.344897 -0.941750 0.257258 -1.167242 -0.591225 0.241383 -0.541914 -0.117843 -0.791075 0.316776 -0.440158 -0.118040 1.016009 -0.469922 -0.390784 0.578545
that -0.226167 -0.075771 -0.185139 1.983913 1.238451 -0.230403 -0.046692 0.517578 0.084829 0.993318 -0.127670 0.274587 0.772498 0.635922 -1.439742 -0.024993 -0.099741 0.084498 0.928037 -0.130911 1.329188 0.626576 0.007861 -0.589497 0.459597 1.054807 -0.230641 -0.244407 0.638326 1.194680 -1.429264 1.423248 0.735517 0.025373 -1.029969 0.417819 -0.807441 0.812507 -0.201580 0.674850 0.536996 0.557544 -0.623971 0.665931 0.250402 -0.723915 0.827191 -0.266400 0.368348 0.258103 -0.437527 -1.215628 -0.228437 -0.012736 0.637860 -1.016015 0.190865 -1.171299 1.040812 0.033184 1.104103 -0.026560 0.928937 0.144914 -0.714129 0.194136 -0.044219 -0.644674 -0.190807 0.677576 1.535162 0.551427 -0.308665 -0.635948 -0.285112 0.659073 -0.522894 0.125932 -0.903715 0.625353 -0.915244 0.006374 0.479689 0.028691 -0.120053 -0.474623 0.578292 -0.344844 0.414386 0.903363 -0.764313 -0.484641 -0.433991 -0.361691 0.329598 0.180424 0.148069 0.533074 1.343294 -0.334686
an 0.492344 -1.075400 -0.022558 1.016399 -0.138241 1.100200 0.172757 0.304445 1.739844 0.692950 -0.114032 -0.866893 0.727271 0.652128 -1.228840 0.879088 -0.166559 -0.724934 0.709003 -0.233519 1.504418 -0.293523 1.032924 -0.476922 0.113704 -0.096731 0.079681 1.469655 -0.057857 0.853242 -0.276498 0.443069 -1.218510 0.039873 0.136882 -0.150070 -0.524260 0.512773 -0.875842 0.055912 -0.443193 1.195759 -0.876915 0.744553 -0.391274 -1.166331 -0.282146 -0.796546 -0.665922 -0.199275 -0.066605 -1.124015 0.626680 -0.155797 1.047284 -0.115152 0.139880 -0.656753 -0.235309 0.164839 0.572466 0.785424 0.035191 -0.820414 1.236092 0.776933 0.308165 0.949930 -0.493538 -0.462410 0.028984 0.273654 0.684800 0.229723 -1.191956 -0.203426 -0.137861 -0.695711 -0.418849 0.692054 -1.225342 0.529268 1.031669 -0.005812 0.177097 0.321732 0.035846 -0.539147 -1.023642 -0.020837 0.513527 0.594985 -0.360929 -0.303871 0.890398 0.074975 0.029678 0.100274 0.789883 -0.758111
by 0.815156 -0.299628 -0.974921 0.088116 -0.055527 -0.058454 -0.822606 0.621737 0.280500 0.490513 -0.200016 -0.268407 1.727659 0.910317 0.251826 0.247533 -0.284523 -1.325579 -0.515497 -0.548283 0.052537 0.345635 -0.226609 0.370463 0.004579 -0.009779 0.192662 1.027604 -0.051266 -0.254245 -1.039113 -0.118976 -0.425042 -0.754736 -0.095309 -0.934016 -1.106862 0.301638 -0.522842 -0.970168 -1.110938 -0.465610 -0.984671 0.507510 0.217817 0.521918 -0.479930 -0.757897 -0.320258 -0.055025 -0.979663 -1.228662 0.431133 -0.167728 0.592316 -1.058045 -0.709636 -0.721645 -0.154981 -0.810810 2.747993 -0.415483 0.455464 -0.549446 0.095350 0.708092 -0.571311 0.682925 0.112215 0.552159 1.770191 -0.523948 -0.469858 -0.239984 -0.466312 -0.363956 -0.836288 0.034442 -0.946671 0.045395 -0.445171 -0.551130 1.326182 1.282467 0.213244 0.511026 -0.307989 -0.883696 -0.103777 -0.539030 -0.140182 0.042432 -1.329952 -0.265203 1.438179 0.539389 -0.321103 0.196925 -0.283551 0.639458
this -0.655187 -0.745734 -0.743012 0.396467 0.403845 1.410461 -0.086170 1.618510 1.145742 0.057925 -0.719909 0.768604 1.453001 1.200931 -0.233947 0.068861 0.316449 -0.444800 0.997494 1.480712 -0.245920 0.655975 0.222314 0.118666 0.478669 -0.311883 0.162665 1.266564 0.191512 0.888165 -0.874406 1.000931 0.381023 0.594290 -0.821877 0.994795 -0.624897 -0.087048 -0.557946 -0.533837 0.262597 0.065161 -0.577080 0.660524 -0.009947 -0.016404 0.537197 -1.123297 -0.248728 0.027476 -0.574988 -0.845978 0.867273 -0.928013 0.072538 -0.323251 0.360942 -0.032294 -0.072510 0.275870 0.658457 -0.096431 0.656453 -0.172803 0.177922 -0.421130 0.307025 0.232660 -0.436227 -0.092497 1.438564 -0.404769 0.077144 0.687662 -0.495394 -0.304910 -0.598240 0.554546 -0.437320 0.086367 -0.355931 -0.426725 -0.026590 0.016707 -1.183138 -0.672447 0.414504 -0.783340 -0.019575 -1.080501 -0.254063 -0.682865 -0.004793 0.486971 0.245720 0.712122 -0.764134 0.299653 -0.180477 -0.046334
be -0.534208 -1.551885 -0.914296 0.842349 -0.221046 0.774074 0.764359 0.500719 0.449361 0.489587 -0.743806 0.432357 0.108573 0.657185 -0.248873 -0.238450 -0.635094 -1.108839 0.425989 0.118329 1.073142 1.250355 0.738748 -0.122993 -0.639284 0.882987 1.600868 0.147173 -0.301361 -0.797690 -0.798508 1.292787 -1.031042 0.078699 -0.556902 -0.225813 -1.430141 -0.305725 1.130172 -0.025666 -0.559333 0.839143 0.215474 0.085075 0.338252 -0.802473 -0.246474 0.388858 -0.074828 0.143201 -0.943766 0.446118 -0.595855 0.088781 -0.828756 -0.564226 -0.363324 -0.049177 -0.031231 -0.247902 0.997094 0.006640 0.339201 0.263532 0.739683 0.902962 -0.897576 -0.031399 -0.673645 0.477891 0.387135 0.204857 -0.229623 0.357419 -0.530686 -0.512231 0.182781 -0.113225 -0.827682 0.433649 -0.721300 -0.162186 0.235589 1.366470 -0.554338 0.449757 0.297322 -0.812923 -0.460499 -0.840345 -0.924996 -0.399658 -0.515757 -0.141481 0.052680 -0.003140 -0.285924 0.023382 0.842597 0.141006
we -0.880182 -0.937464 -0.443066 0.220761 -0.563798 -0.347450 0.639817 1.081164 0.713526 0.222583 -0.802488 -0.399530 1.259228 1.235211 -1.778665 0.369083 0.465378 0.244079 0.876961 -1.422164 1.538967 1.469350 -0.315589 -0.350536 1.407457 -0.195184 0.946239 1.212102 0.235032 0.394536 0.049121 0.562765 -0.130851 0.051491 0.189234 1.497488 -0.404761 -0.376903 -0.514711 0.437243 -0.095281 0.329568 -0.678253 0.525488 -0.350991 -0.231466 0.381613 -0.703230 0.445949 0.306054 -0.261324 -1.457984 0.932104 0.547051 0.942684 0.062872 -0.077257 -0.050300 -0.216357 -0.434810 0.820184 -0.823422 -0.182361 0.268776 -0.172508 0.499882 -0.432853 -0.452996 0.274231 -0.079807 1.150990 0.454728 -0.102904 0.242753 -0.383486 0.106958 0.265610 0.254314 -0.966026 -0.147755 0.109623 -0.050428 -0.935194 0.488955 -1.222860 -0.193248 -0.278371 -0.124629 -0.194597 -0.125914 0.013182 -0.542222 0.469847 -0.235218 0.880351 0.155545 -0.384523 0.152904 -0.331198 -0.410702
problem -0.058789 -1.121873 -1.520820 0.381976 1.040854 -0.756288 -0.431341 0.423930 0.967693 1.300573 -0.672217 0.035393 0.649906 0.352915 -0.101030 -0.144531 -0.045127 0.627528 1.283982 0.766415 1.166894 0.923449 0.815259 0.096864 0.287291 0.609357 0.818455 0.560235 -0.449901 1.181445 -1.329888 1.409192 -0.189184 0.240351 -0.704316 -0.107687 -0.240612 -0.936652 0.017077 0.096685 -0.040900 0.714959 -0.327995 0.201042 -0.107416 -0.507062 0.247317 -0.500718 -1.165579 0.104835 -0.073075 -0.053317 0.161150 -0.266714 0.090390 0.004104 -1.629259 -0.720997 -0.213924 -0.497092 0.564280 0.055577 0.661788 0.170711 0.198911 0.742814 -1.017639 0.738166 0.132371 0.078326 1.411908 -0.452797 1.169371 0.495077 0.139965 -1.019911 -0.659826 0.246743 -0.068980 0.240317 -0.090986 -0.186731 -0.091947 -0.244364 -0.241334 -0.548548 0.562262 0.455057 -0.084777 -0.933264 -0.068649 0.170575 -0.003727 -0.596215 0.192150 0.960679 -0.483730 1.373906 -0.445553 -0.558697
can -1.077341 -1.737292 -0.763862 0.291940 -0.575124 0.111348 0.352154 0.697765 0.424330 0.100443 -1.105210 0.040510 0.812122 0.366849 -1.153967 0.062513 -0.270689 -0.828719 0.904438 -0.153615 1.263216 1.637723 0.219579 -0.688719 -0.207953 0.333250 1.862341 0.223859 0.410495 -0.452866 -0.304524 1.213952 -0.485869 -0.061934 -0.317866 0.222836 -1.177128 0.497525 0.367245 -0.363719 -0.685578 0.376388 -0.530928 -0.310950 0.003886 -0.164179 -0.229012 -0.180576 -0.413356 -0.050115 -0.812457 -0.219713 0.126730 0.112155 -0.363375 -0.158990 0.274685 -0.194676 0.089270 -0.386472 0.945533 -0.145161 0.502719 0.339462 0.593983 0.671012 -0.925013 -0.289708 -0.096662 0.140784 0.882804 0.274083 -0.275928 -0.219643 -0.323757 -0.067116 0.377838 -0.218932 -0.536774 0.475189 -0.442638 -0.307165 -0.307142 0.715142 -0.784205 0.019286 -0.190815 -1.108561 -0.255204 -0.337542 0.225807 -0.955396 -0.296319 -0.370894 0.742252 0.286020 -0.508840 0.676204 0.405799 -0.081489
are -0.414996 -0.095477 -0.488896 1.359811 0.712919 -0.126143 0.738491 0.568214 0.383634 -0.305669 -0.546409 1.240132 -0.102659 0.932683 0.442248 -0.289616 -0.183921 -0.182238 -0.317885 0.337332 0.971721 0.579707 0.250462 0.596775 -0.229397 1.032357 0.748175 0.586355 -0.230292 0.878902 0.087141 0.791049 -0.698183 0.525281 0.833774 0.134233 0.060040 -0.159770 0.273224 0.082678 -0.965658 0.619548 -0.000857 0.324845 0.077887 0.370826 -0.223567 -0.295123 1.192161 0.872373 0.066093 -1.168966 0.385268 0.557606 0.197654 -1.264200 -1.346165 -0.413132 0.009010 -0.052636 1.029529 -0.715807 0.314672 0.695574 1.553513 0.412134 1.021175 -0.027435 0.823424 0.448041 0.810648 0.358600 0.222850 -0.466349 -0.214611 -0.070582 -0.055031 -0.372855 -0.753859 0.682102 -0.464433 0.934795 0.542346 0.750313 -0.083426 -0.252151 1.118568 -0.725144 -0.480327 0.314140 0.030698 0.471104 -0.379715 -0.477158 0.289531 1.149135 -1.001618 -0.035620 0.295913 0.666084
with -0.904284 0.021142 0.196333 1.422492 1.181807 0.451918 0.457065 1.028445 0.996418 0.413338 -1.655199 0.346214 0.203634 -0.436443 -1.194721 -0.757360 0.902945 0.147040 0.530056 -0.486514 0.471158 0.911395 0.816450 0.338570 0.594746 0.046474 -1.057518 0.431342 0.126709 0.296933 -0.225223 -0.574143 0.209848 0.486218 -0.448134 -0.105932 -0.608805 -0.537394 0.904386 -0.157393 -0.994047 0.648270 -0.540577 0.969278 -0.250227 0.302761 -0.504335 -0.559747 0.262606 1.009874 -0.901696 -1.274937 0.325687 0.388491 -0.564252 -0.347787 -0.043171 -1.183406 -0.274992 -1.146526 1.604491 -0.232378 0.202747 0.822920 0.615354 1.135267 0.180235 0.173512 -0.569680 -0.478721 -0.616271 0.651216 0.558708 -0.076508 -1.377462 -0.609984 -0.254556 0.191029 -0.376810 -0.070670 -0.146291 -0.770207 -0.060554 0.295977 0.153274 0.158030 0.228458 -0.862016 -0.899609 0.250548 1.298804 -0.111458 -0.313231 0.404663 -0.483407 0.400012 -0.782382 0.112084 0.821734 -0.096637
it 0.696867 -2.334845 -0.518679 0.580709 0.696115 1.666467 0.334250 0.386914 0.087221 0.801659 -0.379524 -0.365014 0.325854 0.520307 0.165881 -1.389344 -0.569929 -0.471254 0.374686 -0.025417 0.370191 0.559702 -0.403316 0.547308 0.048083 -0.046057 -0.158629 0.269740 -0.073475 0.268315 -0.425876 1.090024 -0.443966 1.028952 -0.164070 0.845470 -0.294064 0.205732 0.493926 0.415800 0.422336 0.817570 -0.566507 -0.506043 -0.457534 -1.015710 0.439290 -0.594688 -0.453907 -0.177370 -0.120286 -1.424756 -0.131614 -0.168721 0.386509 -1.039978 0.306236 -0.104056 -0.135868 -0.314634 0.843741 -0.992003 -0.036478 0.180778 -0.146766 -0.363922 -0.728369 0.463921 -1.150327 0.310480 0.879555 0.703905 -0.266448 -0.494418 -0.216053 -0.134304 -0.002848 0.626462 -0.197294 0.811560 -0.582852 -0.045256 0.349172 0.038958 0.251364 0.360627 -0.020087 0.147759 -0.050128 -0.287732 -0.055913 0.032377 -0.190013 0.032159 0.355802 1.238718 -0.714293 0.810402 0.539730 0.177791
as 0.201497 -1.837238 -0.563875 0.794252 0.271725 0.352463 0.880550 0.587903 0.027745 0.167491 -1.742753 0.843668 0.753479 0.016332 -1.216903 0.355072 -0.639686 -0.467819 0.529559 0.478323 0.367537 0.381042 0.419348 0.468625 0.271248 -0.470064 0.386678 0.176492 -0.613286 0.169540 -0.429122 -0.097519 -1.160940 0.133783 -0.324906 -0.284751 -0.580354 -0.781121 -0.407031 0.205326 0.102835 1.636624 -1.185854 -0.187025 -0.103566 -1.101540 0.377503 -0.095565 0.392378 0.800981 -0.061020 -0.658561 -0.927780 -0.162632 0.821588 -0.379446 -0.450118 0.225263 -1.010375 -0.525602 0.820172 -0.770892 -0.654623 0.236700 -0.758161 0.499880 0.336331 -0.171303 0.159404 0.155580 1.285628 1.435008 -0.556151 0.940565 0.087426 0.884717 -0.711640 -0.933153 -0.459689 0.299455 0.392271 0.382943 1.107080 0.768029 -0.696979 -0.224286 0.194297 -0.545634 -0.190346 -0.682310 0.136311 0.450205 -1.180954 0.004199 -0.409844 -0.647899 -1.824400 0.519567 0.085371 -0.658964
b -0.184871 0.028498 -0.273177 0.854369 0.773321 -0.368041 0.639008 0.900179 0.267859 0.544184 -0.609993 0.254349 0.573693 -0.323674 -0.784712 -0.434485 -0.797298 0.153762 0.205662 -0.451277 -0.281573 0.937354 -0.280368 -0.129808 0.459841 0.119888 -0.419795 0.927463 0.310166 0.322628 -0.107919 0.620225 -0.210833 0.716643 0.041595 -0.198033 0.733964 0.097598 0.213807 -0.364598 -1.455082 0.469672 -0.716656 -0.327546 -0.159606 -0.153333 1.035615 1.387169 -0.251020 1.044514 -0.700272 0.039292 0.307355 -0.872564 -0.159064 -0.202341 0.162916 -0.311908 0.150281 -1.345849 1.233519 -0.092403 0.256392 -1.010459 0.182015 0.031979 -0.269251 0.500399 -0.464596 0.153183 0.891602 -0.183637 1.232654 0.525052 0.105252 -0.098940 -0.001788 0.106402 0.512231 0.441405 -0.621857 0.315331 1.027450 0.378206 -0.654177 -0.567864 0.180355 -1.096167 -1.243857 0.690966 0.895267 -0.595279 -0.519403 -0.752920 0.681877 0.220133 -0.432855 0.496000 -0.005106 0.261938
on 0.008612 -0.719197 -0.165252 1.464561 0.217122 0.245377 0.498295 0.673229 0.571091 1.167627 0.020188 -0.456928 0.102638 1.791480 -0.477837 -0.491654 -0.736585 -0.316028 0.514450 0.755408 0.901007 0.320132 0.735851 1.216966 0.116587 -0.037324 0.075815 0.561630 0.193070 1.401414 -0.510892 0.624059 0.159835 1.037734 0.629768 -0.027746 0.464950 0.321789 0.509767 -0.328469 -0.879641 -0.492390 0.092715 -0.274774 0.400930 -0.192165 -0.723985 -0.325584 -0.928917 0.938115 -0.442442 -0.211189 0.005995 0.924942 0.327705 -0.550594 1.264554 -0.036185 0.273484 -0.281099 0.289826 -0.628985 0.594687 0.217531 1.515347 0.637041 -0.032366 0.103055 -0.871157 -0.250750 0.798893 0.674825 -0.341666 0.022318 -0.086570 0.413459 -1.324503 -0.567486 -0.804829 -0.858698 -0.856209 0.233299 -0.211522 0.844963 0.102125 -0.644903 -0.864464 -0.449539 0.182397 -0.956458 0.543311 -0.004054 -0.354564 -1.025457 -0.364537 0.745283 -0.390809 0.713028 -0.957353 -0.016379
if 0.243077 -0.091568 -0.053142 -0.154197 0.760352 1.201343 0.594978 1.029455 0.066719 0.975883 -0.371614 -0.321766 0.830057 0.648460 -0.767620 -0.264912 -0.107321 -0.003477 0.291909 -0.495937 0.624433 0.922051 -1.173671 0.138800 -0.143545 0.025502 0.337217 0.556206 -0.826514 0.482826 -0.477536 0.567237 -0.744851 0.745209 -0.321548 0.651894 -0.725089 -0.167169 0.608458 0.247662 -0.092596 -0.169448 -0.142501 0.613988 -0.515147 -0.125395 0.493314 -0.395457 0.171372 0.088983 -0.297510 -1.275830 0.171670 0.153588 0.151862 -0.027131 -0.210622 -0.132070 -0.041029 -1.441742 0.050069 -0.483676 -0.375081 -0.150494 0.965889 -0.818481 -0.185176 0.180605 -0.582564 -0.588249 0.343430 -0.012598 0.852812 -0.782613 -0.046460 0.685286 0.357582 -0.356793 -0.771148 0.672249 -0.963982 0.264420 0.143850 0.556979 -0.372598 0.814507 0.625378 -0.854177 -0.390242 0.469149 0.196889 0.203798 -0.452909 -0.177852 0.052666 0.365477 -0.573552 0.383102 -0.605674 0.005577
not 0.029013 -1.016634 -1.113142 0.765383 0.617755 0.876281 1.249344 0.403884 -0.186274 0.025254 0.187182 -0.306516 1.244468 0.737018 -0.475618 -1.046040 -0.182002 -0.497173 0.207913 0.042398 0.775959 0.518426 0.153330 -0.535826 0.652762 1.164995 0.516922 -0.055921 -0.563245 -0.498057 -0.381121 1.376547 1.007718 -0.381441 -0.836615 0.094381 -0.099328 -0.002668 0.340048 -0.423465 0.016047 0.583772 -0.865371 -0.134634 -0.062528 0.338549 -0.140846 -0.400978 -0.058960 1.156415 -0.285725 -0.583437 0.411420 -0.020378 -0.144025 -0.539973 -0.355951 -0.523917 -0.546972 -1.030004 -0.109199 -0.253760 0.147325 -0.345411 0.955407 0.425999 0.737001 0.134547 -0.415008 -0.448228 1.513017 1.153131 0.275902 0.224660 0.436108 0.852855 -0.272147 -0.055789 -1.142940 0.164131 -0.312270 -0.288564 -0.281095 0.114544 -0.036925 -0.126910 -0.083282 -0.988064 -0.874814 0.103874 0.071139 -0.373589 0.079710 0.861746 0.339692 0.858512 -0.388800 0.120044 -0.035644 0.462835
c -0.223209 -0.092294 -0.779280 0.131017 0.415861 -0.428595 0.540848 0.719857 -0.286870 -0.056481 -0.384288 -0.045758 0.261868 0.493924 -0.790673 -0.900081 -1.086418 0.102981 -0.029464 -0.745911 -0.126980 0.626054 -0.624113 0.501919 0.825782 0.452856 -0.126108 0.647529 1.432781 0.795137 -0.123800 1.051292 -0.775415 0.253642 0.083374 -0.486109 -0.054971 -0.397671 0.069166 -0.197360 -0.393885 0.416909 0.284085 -0.060983 -0.316478 -0.048662 0.477525 1.033293 -0.285009 0.877284 0.187974 0.000871 0.237631 -1.591717 -0.099576 0.559850 0.011979 -0.068652 0.122339 -1.243724 0.985994 0.756958 0.266223 -1.272799 0.387371 0.210605 -0.393121 1.434367 -0.846341 0.036744 0.983221 -0.063048 0.952971 0.345142 -0.152448 0.460930 0.501925 0.082266 0.255521 0.789122 -1.115872 0.456429 0.294278 0.826936 -0.208655 -0.013431 -0.039124 -0.496696 -0.878906 0.922193 0.381170 -0.676088 -0.606699 0.001157 -0.168126 0.383140 -0.825546 -0.255540 -0.084485 -0.087812
its 0.844625 -0.682384 -0.863963 1.330814 0.142200 0.242523 -0.026151 0.335017 0.581250 -0.575156 -1.231158 0.377064 0.539502 0.186497 -0.607232 -0.259494 0.212696 0.177007 -0.664786 0.207221 -0.492534 0.239529 -0.130875 -0.085772 0.549834 0.325201 0.021833 0.572949 -0.448214 0.183347 -0.313064 1.476830 -0.846759 -0.580862 0.141175 0.180084 -1.211466 0.271685 0.915038 -0.545201 -0.449540 0.570766 -0.088500 1.024886 -0.686464 -0.564469 -0.259151 -1.172574 -0.967362 0.219378 -0.974013 -1.040539 -0.000726 -0.271781 1.222954 -0.507783 -0.632001 0.088682 0.077421 -0.136983 0.728700 -0.978277 -0.338097 -0.772648 0.980473 1.250186 -0.338979 0.009302 -1.021291 -0.046493 0.018885 0.115372 0.546566 0.051512 0.169037 0.633705 -0.215432 0.369625 0.547449 -0.028400 -0.344929 -0.701599 0.370098 0.106942 0.350379 0.409263 -0.402747 -0.603688 -0.001589 -0.340105 -0.421920 -0.608162 0.483228 -0.201877 -0.844797 0.282942 0.019552 0.388681 0.135834 -0.038919
i 0.011069 0.168161 1.349427 0.524033 0.393037 -0.224215 1.057631 0.786596 -0.104450 0.826402 -0.003174 0.967022 0.692077 1.145947 -0.404277 0.619493 -0.486509 -0.616059 -0.605252 -1.229816 -0.071090 0.854606 0.781479 -0.661318 -0.142660 -0.703392 0.031618 -0.148725 -0.160651 0.053966 -0.584196 1.193235 -0.106978 0.654471 0.441632 -0.319699 -0.169622 -0.179926 0.401145 0.302503 -0.880832 0.387152 -0.296596 0.049738 -0.192810 -1.027448 0.624416 -0.848505 -0.141322 0.277307 -0.034914 -0.404870 -0.304597 0.457564 -0.294027 -0.986337 -0.590541 -0.053594 -0.058495 -0.937615 1.163953 -0.196859 -0.236448 -1.315819 0.422876 -1.372274 -0.583593 0.433267 -1.061082 0.000784 1.008259 -0.318081 0.769993 0.464010 -0.089409 0.164093 0.064710 -0.422056 -0.117818 0.041717 -0.605393 0.463216 -0.348114 0.467599 0.900469 0.509840 0.813316 -0.547541 -0.553159 0.151070 0.266300 -0.471939 -0.565847 0.189028 -0.407800 0.291081 -0.400199 -0.733585 -0.133879 -1.108763
algorithms 0.224467 -1.647841 0.241364 1.694622 1.226644 0.340361 0.537979 0.331808 0.227469 -0.524950 0.055608 0.038482 0.408670 1.178296 0.042304 0.900089 0.585812 0.313632 0.999288 0.329879 0.202886 -0.423819 0.319869 -0.285271 0.040720 -0.528314 0.065598 1.411708 0.315691 0.144037 -0.300126 0.890116 0.336177 0.079494 0.436892 0.438860 -1.342005 0.381579 -0.009058 0.549837 -0.478550 -0.036543 -0.194703 -0.041093 -0.466210 -0.087089 -0.536263 -0.774017 -0.540564 0.572432 0.034031 -0.468743 -0.098081 0.645545 -0.032260 0.121321 -0.096073 -0.605878 -0.061445 -0.656243 0.544091 -0.697585 -0.193001 0.784094 -0.239827 1.061957 1.320181 -0.316832 0.404047 0.456742 1.044824 0.124182 0.395272 -0.221529 -0.410969 -0.551135 -0.289094 0.079944 -0.245536 0.385397 -0.783324 0.418048 -0.055600 0.746873 -0.500625 -0.072413 -0.224996 -0.172227 0.163335 -0.217625 -0.205728 -0.453892 0.309478 0.287749 0.121451 0.244804 0.183758 0.591178 -0.870573 0.721949
number -0.350872 0.381094 0.382267 0.689277 0.353905 0.350944 0.326585 -0.517742 0.485528 -0.264166 -0.682286 0.719386 0.894535 1.419248 -1.094019 0.218149 0.834112 -0.151378 0.197850 0.245647 0.178145 0.532466 0.139349 1.071718 0.847258 0.488567 0.494560 0.560577 -0.482660 0.572632 -0.206999 0.315116 -0.353018 0.711994 0.700910 0.231628 -0.428869 0.441722 0.255204 -0.109573 -0.807537 -0.015434 0.171556 -0.109093 0.126889 -0.815106 0.605793 -0.611433 -0.096015 0.747504 -1.288643 -0.329220 -0.103753 -0.162044 0.152104 -0.593950 -0.397034 -0.124060 -0.165927 0.180055 1.077811 -0.013651 0.362173 -0.166787 -0.532428 0.415590 0.400561 0.272457 -1.155054 0.292101 0.614864 0.534923 0.170744 -0.284761 0.069557 -0.426584 -0.498321 0.223180 -0.750292 -0.664519 -1.128148 -0.517893 0.549981 0.188945 0.013815 -0.851116 0.038705 -0.494181 -0.895311 -0.591572 -0.619260 0.228982 -0.200696 0.264135 0.392198 -0.277757 -0.203153 0.112737 -0.503278 -0.181858
x -0.397830 -0.671481 -0.679738 -0.446892 0.139251 -0.420370 1.480030 0.564813 -0.050855 0.341117 -0.476407 0.146791 0.492259 -0.066284 -0.238153 -0.824874 -0.450863 -1.064317 0.163535 -0.092958 -0.050388 0.972906 -0.869446 -0.355355 0.282108 -1.040402 0.556753 0.600588 0.381383 0.407559 -0.750746 0.660204 -0.242100 0.204643 -0.766105 -0.344500 0.105320 0.041085 -0.140955 1.099294 -0.739673 -0.484039 -0.962325 0.197233 -0.069785 -0.578874 0.293494 -0.676970 -0.338582 -0.149926 0.198111 0.335139 0.488770 -0.447499 1.215892 -0.345290 -0.026496 0.253558 0.314705 -0.186498 0.864114 -0.468680 0.087617 -0.313310 0.286211 -0.569335 0.172034 -0.106988 -0.137445 -0.946700 -0.402827 -0.390344 0.437298 1.364942 0.934085 -0.179590 -0.626857 0.339305 -0.520249 0.052253 -1.201598 -0.035896 0.274986 0.366621 0.542970 -0.131116 -0.109862 -0.823765 -0.456991 0.583812 0.062892 -0.376746 -0.536770 -1.571019 0.708540 -0.025875 -1.260795 0.208262 0.168051 -0.096167
tree -0.114239 0.038582 -0.233160 0.561580 0.829189 1.714804 -0.314072 -0.585342 0.872702 -0.012392 -0.823455 0.112436 -0.389924 -0.229575 -1.251667 -0.065255 -0.444527 0.669456 -0.145691 -1.018564 0.058257 0.158984 0.371559 -0.151028 0.766891 0.868245 0.624260 0.787575 -0.310675 1.147675 -0.421537 0.234999 -1.258065 1.072921 0.206566 -0.827319 -0.765981 0.624515 0.303177 -0.089742 -0.713679 0.470732 -0.079824 0.362761 0.288408 -0.285942 -0.554565 -0.107074 -0.574609 0.365931 -1.028347 -0.727239 -0.135497 -0.618395 0.467179 -0.393779 0.116319 -0.203379 -0.256031 -0.475268 0.702825 -0.078574 0.071266 0.047183 1.101801 0.052015 -0.217810 -0.607271 0.215660 0.255061 0.852529 -0.042910 0.051976 0.007500 -0.264391 1.063798 -0.377685 0.708620 0.412847 0.457225 -0.368298 -0.181562 0.078984 0.482353 -0.898908 -0.976021 0.651422 0.061865 -0.765652 0.163525 -0.191390 -0.382238 -0.074866 0.470388 0.413089 -0.182225 0.265501 -0.009605 -0.205600 -0.644928
two 0.080994 -0.258262 -0.142200 1.987919 1.375652 -0.384107 0.219925 0.509701 0.293098 -0.201372 -1.150194 0.326695 0.628305 1.135220 0.065657 -0.303477 -0.948626 -0.498625 0.285213 -0.742670 0.853003 1.441296 -0.837408 0.372490 0.200346 -0.251966 0.074405 0.409682 -0.258806 -0.141501 0.516419 0.174960 0.072092 0.248356 0.193582 -0.413760 -0.504274 0.163628 -0.006261 -0.554526 -0.362070 -0.313785 -0.429108 0.154132 0.327330 -0.393887 0.372436 -0.051219 -0.337562 0.183559 -0.387983 -0.733593 0.285804 0.343127 -0.359348 0.345281 -0.077696 0.029959 0.548831 0.201666 0.410442 0.382768 0.194245 0.981398 0.642225 0.780074 0.327884 -0.852279 0.546711 0.063567 1.306670 -0.423242 0.533823 0.239184 -0.676114 0.670734 -0.157157 0.662439 -0.241966 0.011598 -0.614714 0.865838 1.114071 0.530679 -0.029148 -0.037397 0.313717 0.189462 -0.385694 -0.317638 0.554759 0.016598 -0.298209 0.179620 -0.449059 1.300330 -0.295283 0.252746 0.372341 0.243119
all 0.227355 -0.279077 0.023460 1.275077 0.308430 0.395695 -0.422281 0.968754 -0.541080 0.839072 -0.932751 0.070884 1.044874 0.555529 0.244254 -0.678126 0.080873 0.813082 -0.035811 -0.144697 0.487903 1.605201 -0.212899 -0.106469 0.751384 -0.000111 1.628800 -0.106292 -0.292024 0.533478 0.208869 0.694582 0.578728 -0.060813 1.008284 -0.090741 -0.033430 0.907905 0.464363 0.812326 -0.011265 0.437121 0.191073 0.313630 0.173352 0.467250 -0.075913 -1.148946 -0.178426 0.281502 -0.424800 -0.789154 0.354955 -0.244102 -0.467872 -0.467039 -0.504836 -1.070366 0.676886 -0.091235 0.872408 -0.764470 0.038288 -0.339054 -0.089093 0.253196 0.293904 -0.262921 -0.794938 0.213838 0.191652 -0.088414 -0.500218 0.556792 0.062042 0.109960 -0.285341 0.159888 0.140970 -0.391538 -0.767593 0.033286 0.587832 0.167510 -0.765180 -0.252702 0.636705 -0.806324 -1.041746 0.015222 0.211706 -0.137127 0.068120 -0.574786 0.143187 0.207412 -0.253451 0.408959 0.758884 -0.172924
one -0.241669 -1.231700 -0.381582 0.728120 0.731302 0.452072 -0.356306 0.318906 0.472304 0.684499 -0.795677 0.041127 0.752439 0.352659 -0.850819 -0.762414 0.308934 -0.329724 0.030656 -0.311377 0.588599 0.947554 0.042257 0.673367 0.520186 -0.026370 0.064755 0.457911 -0.527886 0.562795 -0.378275 0.290522 -0.142034 0.698752 -0.269085 0.590578 -0.106186 0.046542 0.082232 -0.640002 -0.614281 0.837751 0.625468 -0.610994 0.164005 0.242336 0.176917 -0.274433 -1.187083 0.631076 -0.943930 -0.054073 0.387266 0.847661 0.989566 -0.175581 0.299199 -0.573119 0.358342 -0.100094 0.167143 0.269944 -0.527843 -0.616855 0.655170 0.314696 0.171354 -0.120991 0.404993 0.337748 1.461013 0.385407 -0.054312 0.075278 -0.301659 0.319778 0.094726 -0.128687 -0.346725 -0.092081 -0.407148 0.735786 -0.185642 0.241936 -0.099462 -0.434147 0.030880 -0.062881 -0.803059 -0.185927 0.318835 -0.455204 0.014484 0.584821 -0.514562 1.016987 0.059306 0.299721 0.957991 0.377401
from -0.427896 -1.571727 -0.048092 -0.161924 0.136914 0.674758 -0.621624 0.017452 0.582648 0.000518 -1.198405 0.425332 0.032372 1.451798 0.484098 0.508096 -0.466393 0.099570 -0.177218 -0.286373 1.053813 1.118229 -0.269324 0.617261 1.324772 0.128893 -0.586837 0.675690 -0.208639 -0.331010 -1.272450 0.630033 0.042801 -0.164682 -0.139364 -1.274969 0.105286 -0.511540 0.000785 0.213725 0.102604 0.231917 -0.615505 1.004191 -0.063220 -0.232665 -0.248258 0.171412 0.007998 0.204812 -0.432227 -0.501431 0.041381 0.627601 0.496341 -0.488910 0.405168 0.865798 0.952004 -0.184809 0.875483 -0.087767 -0.198093 -0.545078 0.694334 0.292116 0.314846 0.240641 -0.131078 0.788101 0.519026 0.387014 0.274106 0.090864 -0.049508 0.898062 -0.478386 -0.986430 -0.045035 0.395306 -0.512254 -0.483238 -0.488739 0.758655 0.263352 0.316800 0.888594 -0.261992 -0.437579 0.441354 -0.564935 -1.007644 -0.979564 -0.259864 -0.576877 0.044697 -0.795859 0.296228 0.934901 0.022251
or 0.298981 0.166460 -0.001351 0.543199 -0.102463 0.594588 0.498681 -0.475780 0.450802 -0.570438 -0.334838 0.831247 0.664266 0.689480 -1.158347 -1.107890 0.066844 0.253869 -0.250763 0.439513 -0.174861 1.005063 0.205866 0.322778 -0.369780 -0.624101 0.791852 0.916744 -0.502484 0.277108 -0.995839 0.993309 -0.042118 0.452295 -0.506295 0.150932 -0.650287 0.792459 -0.228401 -0.397462 -0.869013 0.590337 -0.051204 0.397395 -0.140721 0.634509 -0.146918 -0.497376 0.138496 1.188840 -0.134928 0.123215 0.520680 0.612850 0.856697 -0.032958 -0.039574 0.347725 0.043748 -0.626068 0.753793 -0.245445 -0.203374 -0.118900 0.077357 0.658946 -0.377792 -0.350157 -0.621556 0.158127 0.640638 0.189593 0.397453 -0.992629 1.291867 -0.343948 0.217090 -0.296686 -0.567315 0.884309 -0.978881 0.098423 0.142314 0.159417 -0.216749 0.622462 1.048701 0.086869 -0.651077 0.093936 0.552899 0.117559 -0.272549 -1.017484 -0.134642 0.574178 0.389573 1.215574 1.071497 -0.114669
such 0.187389 -0.859833 -0.324895 0.936745 0.464939 0.660227 0.084530 0.270777 0.506873 0.236656 -0.802099 0.360947 0.480292 0.667174 -0.023139 -0.113826 0.593788 -0.338852 0.656574 0.379200 0.341975 -0.289516 0.467776 -0.158002 -0.139208 -0.096769 0.319401 0.641714 0.084300 0.508191 0.137253 0.838283 -0.439149 0.206800 -0.141823 -0.121143 -0.475450 0.366655 -0.552609 0.495193 -0.172492 0.356443 -0.102577 0.269184 0.223824 -0.314266 -0.349515 -0.246795 0.170446 0.158499 -0.389773 -1.248494 -0.013442 0.026917 0.402224 0.467413 -0.044686 -0.388776 -0.446002 -0.162834 0.366995 -0.287989 -0.332091 0.168365 0.056438 0.263869 0.191277 0.254023 -0.775255 0.170493 1.010581 0.357121 -0.179437 0.027206 0.049632 0.416523 -0.456209 -0.999943 -0.540838 0.042244 -0.299276 0.513153 0.036488 0.333323 -0.507504 0.003175 -0.072728 -0.634862 0.325794 0.840190 -0.198996 0.235232 0.190548 -0.524755 0.422284 0.341106 -1.481791 0.885394 0.186839 -0.090579
which 0.268843 -0.539100 0.182931 0.626999 0.597982 0.298405 0.189341 0.094202 0.426791 0.208464 -0.606122 -0.118279 0.209351 0.765239 0.031602 -0.697282 -0.601398 -0.140011 0.258138 0.113121 0.499501 1.137826 0.243099 -0.078398 0.789008 0.118983 -0.152502 0.299446 0.098346 0.552685 -0.359283 1.468299 -0.286672 0.676593 -0.276134 0.566122 0.096461 0.016105 0.151143 0.204360 -0.285023 0.003215 0.056806 -0.393333 0.479149 -0.684003 -0.141529 -0.360187 -0.799078 0.479538 -0.191674 -0.570289 0.301469 0.315854 0.542959 -0.793243 0.013989 -0.346573 -0.460871 0.177652 0.516167 0.058486 0.103326 -0.230486 0.197502 -0.120293 -0.107676 0.242561 -0.294981 0.335336 0.414756 -0.406350 0.263228 0.193195 0.150862 -0.111756 -0.170351 0.287853 -0.106315 -0.118772 -0.190417 0.430243 0.372068 0.639120 -0.517053 -0.599024 0.648329 -0.527988 -0.535161 -0.263947 -0.419263 -0.550298 -0.215752 -0.387701 -0.439736 0.982496 -0.790463 0.449164 0.359105 0.283927
j -0.464373 0.066354 0.812126 -0.643473 0.309472 -0.076789 0.420723 1.071579 0.570066 0.198186 0.013067 0.877692 0.531405 1.069595 -0.387288 0.187249 -0.055389 -1.167335 -0.568146 -0.619868 -0.222041 0.697366 0.277149 -0.660276 -0.141536 -0.390133 -0.132097 -0.181280 -0.311719 0.358182 -0.407555 1.090549 -0.261813 0.287049 -0.099721 -1.007480 0.117301 -0.441963 0.106527 0.444057 0.191416 -0.124490 -0.707232 0.773271 -0.253098 -0.494326 0.643135 -0.677578 0.263042 -0.253000 0.088276 -0.474837 -0.132648 0.629625 -0.275414 -0.247945 -0.663453 0.463132 0.145340 -0.591367 0.504557 -0.253609 0.119081 -1.114854 0.900278 -1.079787 -1.367913 0.509445 -0.793830 -0.892521 1.003882 -0.052431 1.072828 0.320212 -0.251680 -0.219051 0.575223 -0.083733 0.046218 -0.005105 -0.369026 0.111814 -0.298665 0.451490 0.794159 1.058909 0.488424 -0.622066 -0.264013 0.374554 0.022810 -0.546152 -0.554901 0.080917 -0.266326 -0.192362 -0.797255 -0.512803 -0.086784 -1.052879
figure -0.575601 0.192647 -0.891488 0.859121 0.340334 0.906779 0.581643 0.596603 0.208671 0.220339 0.058462 0.695788 0.534126 0.071376 0.114782 -0.101013 -0.692121 0.240938 0.057108 -0.450849 -0.845753 -0.011602 0.253923 -0.186298 0.646041 -0.585118 0.352359 0.395407 0.155623 0.582316 -0.696318 0.176290 -1.004167 -0.038760 -0.682537 -0.024164 0.460944 0.245691 -0.474416 0.019021 -0.668472 0.971041 0.484455 0.800115 -0.052623 -0.833971 0.898821 0.204009 -0.691466 0.592606 -0.144934 -0.365216 0.419201 -1.259561 0.804250 -0.371863 0.266779 -0.425797 0.693390 -0.607458 1.408470 -0.859729 0.502785 0.113596 1.453674 0.400058 0.113624 0.114801 -0.857988 -0.072504 0.545264 -0.429779 0.085575 0.405235 -0.378775 1.003277 -0.689234 0.184886 -0.223811 0.661786 -0.248567 0.309127 0.309506 0.433236 -0.410737 -0.251160 0.077608 0.073590 -1.004145 0.109395 -0.046482 -0.021434 0.055239 0.027715 0.403292 0.237247 -0.172408 -0.128743 0.129258 -0.602818
example 0.264746 -0.932394 -0.604236 0.207288 0.845909 0.218334 0.234735 0.745656 0.428850 0.706394 -0.205683 0.705080 0.671488 0.224543 -0.321358 -0.053550 0.172867 -0.602509 0.422401 -0.529507 0.796765 0.178575 0.356318 -0.100418 0.109914 -0.573681 0.749629 0.885798 -0.584837 0.359147 0.052397 0.209567 -0.012807 -0.032092 -0.245294 0.246608 -0.179795 -0.764398 -0.389157 0.380007 -0.135321 0.665083 -0.205048 0.840609 -0.226935 -0.720687 0.391761 0.311235 -0.399998 0.344740 -0.099725 -0.070221 0.448347 -0.443223 0.403160 0.180124 -0.168916 -0.152000 0.149350 -0.854077 0.838469 -0.449617 0.194746 0.085871 0.232158 0.471448 0.135270 -0.063184 -0.839973 -0.108768 0.433463 0.123314 0.621000 -0.017631 -0.633113 0.571807 0.244668 -0.005724 -0.390690 0.444090 -0.466700 0.565008 0.528311 1.172404 -0.298927 -0.131527 -0.333021 0.252984 -0.810664 -0.607633 0.064934 -0.238613 -0.165186 0.047841 0.266854 0.067645 -0.166301 0.445088 -0.244412 0.303248
m 0.407192 0.733914 0.362043 0.156801 0.444716 0.557725 0.812329 1.525564 0.212278 0.366834 -0.388478 0.250824 0.780534 0.996636 -0.326229 0.554564 -0.306759 -0.416474 -0.810824 -0.205182 0.211090 -0.055152 -0.247505 0.666388 0.420842 -1.120520 0.630499 -0.197498 -0.076311 -0.291307 0.209636 1.072102 -0.016216 1.243679 -0.767818 -0.982447 0.656452 0.204228 0.645331 0.721312 -0.705670 0.752101 -0.702715 -0.202180 -0.059607 0.000880 0.409805 0.362524 -0.669341 0.749878 -0.552658 -0.449974 0.912404 0.493122 -0.481894 0.057354 -0.784950 -0.347007 0.891794 -0.040153 0.750705 -0.011457 -0.645632 -0.570256 0.492071 0.107466 -0.443483 -0.506054 -0.907763 -0.266070 0.103826 0.472204 0.618304 0.093555 0.333973 -0.221584 0.583157 -0.481126 -1.055962 -0.308485 -0.825190 0.020843 0.065546 0.405917 0.034293 -0.576517 -0.498472 -0.134603 -0.595775 0.085195 -0.762168 -0.182548 -0.607547 -0.140126 -0.222065 0.568825 -0.237676 -0.555027 0.904238 -0.025738
d -0.688284 -0.215210 -0.309370 0.354426 0.180110 -0.576050 0.057947 0.602134 -0.719535 -0.105865 -0.369044 0.830429 0.429233 0.439593 -0.385366 -0.884178 -0.801231 0.325766 -0.146550 -0.599239 0.044089 0.238655 -0.432178 0.024334 1.200830 0.706004 -0.484243 0.085214 0.791707 0.422149 -0.564451 1.089950 -0.802893 0.097501 -0.406686 -0.184430 0.126542 -0.062705 0.207058 0.549839 -0.927657 -0.048981 0.271324 0.116100 -0.650906 -0.403454 0.852935 1.079621 0.090918 0.885662 -0.423795 -0.371836 -0.142894 -1.066329 -0.076600 0.190209 -0.564943 0.170209 0.300895 -0.610055 0.847427 1.044421 0.379429 -0.707015 0.505435 0.124792 -0.239056 0.486014 -0.644025 -0.101745 0.783473 -0.127259 1.110964 0.635656 0.446694 0.202907 0.220253 0.251565 0.480033 0.239084 -0.493243 0.081705 -0.585857 0.508722 -0.180751 -0.263776 0.273396 -0.284026 -0.654254 0.950419 -0.414212 -0.685107 -0.473787 -0.353021 0.271199 0.256494 -0.267215 -0.508664 -0.211947 0.283459
f -0.572963 -0.765468 0.368599 -0.284946 0.011271 -1.003297 0.975000 0.588075 0.103008 0.231380 0.060252 0.250847 1.319621 0.740552 -0.097896 0.139498 -0.705005 -0.416776 -0.736942 -0.738483 -0.013344 0.366185 -0.114849 0.407354 0.515049 -0.180606 -0.546494 0.044389 0.818458 0.565521 0.134042 1.323689 -0.719848 -0.027031 -0.270388 0.018650 0.276078 0.750619 0.049842 0.611824 -0.890503 0.014595 -0.198992 -0.558881 -0.964856 -1.269260 0.259693 -0.471754 -0.192060 -0.225120 -0.193961 -0.079494 -0.757867 -1.002070 0.454591 -0.416485 -0.372123 0.437787 0.034771 -0.207232 0.896466 0.266120 0.924836 0.122762 0.743431 -0.867426 0.146170 0.441749 -1.016649 -0.494235 0.264521 -0.315957 1.448376 0.465714 0.302704 0.109070 0.321521 0.146327 -0.009611 0.296726 -0.568922 0.955600 -0.237367 0.528386 0.422214 -0.288788 -0.280194 -0.466470 -0.524124 0.095579 0.294153 -0.925465 -0.927249 0.434716 0.947413 -0.520767 -0.922903 -0.942909 -0.162198 -0.212970
than 0.437796 -0.862364 0.256878 1.082318 1.042237 0.443135 0.506262 0.578286 -0.240712 -0.303389 -0.505416 -0.450419 0.261909 0.814343 -0.897813 -1.368229 0.197593 -0.292315 -0.028552 0.361234 0.380710 0.009228 0.719117 0.236779 0.581804 0.399444 0.837783 1.274079 -0.655110 -0.329741 -0.583573 0.874012 0.071409 -0.018828 -0.992995 0.173404 1.043869 0.202532 -0.632065 -1.142489 -0.208481 0.962366 0.122537 0.275568 0.519255 0.126413 -0.377546 -0.490884 0.679632 1.110734 -0.124616 -0.020807 -0.578187 0.387287 0.846327 -0.393395 -0.355201 0.067984 -0.408298 -0.481018 0.962156 0.418225 -0.092430 0.180235 -0.094908 0.531888 -0.534989 -0.011122 -0.712337 -0.555539 0.914885 0.513666 0.008842 -0.068580 0.571677 0.519200 -0.427289 0.286906 0.159344 -0.389769 0.092811 -0.077173 0.197365 0.698798 -0.366907 0.199727 0.058892 -0.695607 -0.248998 0.356354 0.018412 -0.352931 0.135470 -0.524166 -0.701854 0.697811 0.818012 -0.014619 0.110610 0.465987
search 0.477647 -0.448209 0.244774 0.693361 0.773658 0.937720 -0.485444 -0.693237 0.870012 0.117731 0.307105 0.197246 -0.329116 0.470577 -0.677678 -0.114280 0.375373 0.101993 0.633303 -0.392672 -0.453245 0.802037 0.077049 -0.309333 0.579464 0.183528 0.451334 1.067256 -0.641262 0.032432 -1.116890 0.027109 -0.965905 0.490129 0.303510 0.108048 -0.340454 0.063295 -0.245988 0.087300 0.743243 -0.326114 -0.375578 -0.358828 0.594200 0.009212 -0.087188 0.466660 -0.576112 0.988650 -0.178244 -0.640513 0.918758 0.428992 0.347514 -0.773902 0.068073 -0.710571 -0.954003 -0.621478 0.630072 -0.306955 -0.155099 0.321133 0.306503 0.940697 0.195286 -0.071197 -0.598676 -0.166771 0.500305 0.218970 0.194875 0.203696 -0.959469 0.478056 0.129746 0.426101 0.049322 0.747373 0.066248 -0.048528 0.991704 0.541385 -0.703297 0.052740 1.229688 -0.012190 -0.378791 -0.706126 -0.389442 -0.174447 -1.006565 0.023363 0.773850 0.952038 0.097034 0.158509 -1.283932 0.239283
have -0.366600 -0.797884 -0.101040 0.686100 0.116463 0.406740 0.673594 0.407278 0.675435 0.372654 -0.910886 0.261331 -0.143031 0.909086 -0.644170 -0.317692 0.459971 -0.144130 -0.331447 -0.380078 0.539635 0.828315 -0.384154 -0.001070 0.628754 0.253574 0.319331 0.272680 0.145161 -0.142870 -0.070580 1.064044 -0.034297 0.553571 -0.188923 0.830687 -0.212000 0.070436 0.931275 -0.493638 0.164490 0.044380 -0.959841 0.467012 0.054611 0.157808 -0.029382 -0.703207 0.009515 0.872142 0.048987 -0.561346 -0.519382 -0.154495 -0.029050 0.278500 -0.551136 -0.628177 0.274406 -0.944017 0.439385 -0.384312 -0.180055 0.169620 0.307884 -0.257059 0.235248 0.199917 0.083701 0.305882 1.500275 -0.708064 0.285561 0.635913 -0.068258 -0.195585 -0.633098 0.171718 -0.675152 -0.392732 -0.280978 0.369683 0.984650 0.366177 -0.031523 0.348387 0.769998 0.145056 0.555683 0.047544 0.350172 -0.139048 0.115144 -0.158685 0.596532 -0.834289 -0.061753 -0.253757 0.362510 -0.242459
time -0.357277 -0.992909 -0.588728 1.268243 0.768612 0.351904 0.537462 0.747792 0.792343 -0.207555 0.412128 -0.431331 0.117550 0.621553 -0.590593 -0.366115 0.388225 -0.340545 0.252664 0.204537 -0.097440 -0.071775 0.222926 0.744234 -0.720662 0.208429 0.191174 1.144688 -0.058334 -0.132798 -0.293298 0.612198 -0.867873 -0.290267 0.296415 -0.308360 -1.038473 0.803080 -0.247386 0.579345 -0.870745 0.272804 0.323096 -0.532775 -0.845430 0.477242 0.079250 -0.590102 -0.005510 -0.192426 -0.626938 -0.133035 -0.692477 0.501564 0.438442 0.575499 -0.435396 -0.076559 -0.454643 -0.590922 -0.131378 -0.649031 0.590441 -1.098144 -0.118679 0.288224 0.250711 -0.274797 -0.730802 0.708442 1.177247 0.470415 0.533239 -0.295785 -0.711840 0.049195 -0.725867 0.191201 -0.081311 0.268764 -0.933527 0.136976 0.071027 -0.043143 -0.010282 0.147095 0.006609 -1.586244 0.181873 -0.216954 -0.181957 -0.586584 -0.155114 -0.292666 -0.143276 0.842635 0.691084 0.449367 0.080899 0.125529
efficiency -0.078617 -0.910043 -0.020028 1.663934 0.992718 0.144718 0.179386 1.125228 0.987339 -0.846550 0.209983 -0.447764 -0.192372 0.936122 -0.179053 0.204728 -0.061531 -0.059417 0.208150 0.522261 0.252650 0.232938 0.324725 -0.012053 0.139230 -0.227498 -0.770814 1.385458 -0.407776 -0.696897 -0.152928 0.843536 -0.365860 0.085720 0.157824 0.646273 -0.522041 0.179028 0.088921 0.245065 -0.402235 0.163412 -0.568965 0.168270 -0.776684 0.278871 0.473980 -0.021991 0.068536 0.087373 -0.575646 -0.290587 -0.280928 0.059907 0.757285 0.403016 0.051210 -0.157475 -0.167166 -0.340740 0.072768 -1.253154 0.438988 -0.874778 -0.197939 1.173444 0.160050 -0.168395 -0.575146 0.629763 0.939928 0.204644 0.902030 -0.625530 -0.859604 -0.061967 -0.219280 0.175107 0.548664 0.293567 0.080485 -0.565936 0.663763 0.455610 -0.364330 -0.466758 -0.103105 -0.911730 0.397971 -0.499326 -0.431414 -0.442633 0.582522 -0.123149 -0.948433 0.017013 0.679648 0.775198 -0.496474 0.011672
each -0.390841 -0.435287 0.014270 0.971277 1.106502 0.430025 -0.306611 0.552575 -0.596943 -0.118968 -0.903730 0.073429 0.642985 0.745623 -0.609738 -0.941247 0.168760 -0.917369 0.304750 0.246377 0.205493 -0.074015 0.472685 0.326176 0.384182 0.101369 -0.147499 -0.654769 -0.719047 0.763765 0.039601 0.192842 0.044953 0.192045 -0.035379 -0.893492 0.123714 0.455496 0.233488 0.004966 -0.263802 0.233370 0.149573 0.146856 0.662531 0.399475 0.348955 -0.732834 -1.119482 0.784275 -0.687177 -0.308898 0.330900 0.394734 0.375864 -0.027059 0.335108 -0.924005 0.630894 -0.043390 0.538949 -0.390998 0.087061 -0.817928 0.454810 -0.376301 -0.703422 0.499976 0.080361 0.144027 0.671297 -0.257820 -0.674225 0.158608 -0.215314 -0.073542 -0.455670 -0.779892 -0.099927 -0.231859 -0.378650 -0.083005 0.219037 0.452805 0.767937 0.110445 0.325826 -0.187566 -0.842898 -0.071999 -0.164563 -0.826012 -0.339423 -0.290461 -0.218066 0.511689 -0.069499 0.351792 0.171911 0.468080
problems -0.345745 -1.179608 -0.508248 0.749181 0.967635 0.295677 0.745318 0.029291 0.634974 0.060492 -1.111181 -0.284659 0.111416 -0.109960 0.199201 -0.197992 0.968926 0.766630 1.249749 0.138384 -0.429915 0.583201 0.717668 -0.171176 -0.103355 -0.641748 0.405001 0.263178 0.339826 0.521535 -0.543377 1.618319 0.246471 -0.395406 -0.521164 -0.375923 -0.800536 -1.019585 0.286514 1.414409 -0.183307 0.071037 -0.010161 0.332847 -0.410940 -0.059965 -0.827679 -0.626701 -0.283063 -0.124599 -0.384681 -0.038974 0.099341 -0.019656 0.479470 -0.572152 -0.923814 -0.225712 -0.700039 -0.027353 -0.055777 0.198895 0.517090 0.652199 -0.238321 0.718846 0.998184 0.565583 0.547303 0.343090 1.319757 -0.133497 0.087979 0.073122 0.124788 0.003278 -0.438710 0.025972 -1.278700 0.725007 -0.206116 0.286399 -0.691438 0.422644 -0.783126 0.575204 0.193538 0.263954 0.118405 -0.054565 -0.004356 0.842334 0.124615 -1.004330 0.237582 0.840491 -0.467637 0.419501 0.599869 -0.038184
graph 0.608899 -0.752463 -0.999093 0.654258 0.267170 0.719416 0.353915 -0.692534 0.574967 0.467291 -0.170363 0.834701 0.588049 -0.338377 -0.212290 -0.105951 0.110516 0.106218 -0.392217 -1.439407 -0.157556 0.182355 -0.190070 -0.172295 0.799440 0.142077 0.259565 -0.043263 0.128333 0.747770 -0.505882 0.893179 -0.408238 0.397598 -0.287788 0.110474 -0.600336 0.712927 0.657698 0.478821 -0.421343 0.788488 -0.275439 0.463345 -0.795103 0.640362 -0.232715 0.229649 0.119219 0.506669 -0.782140 -0.927251 0.582114 0.395108 -0.075677 1.025931 -0.001801 -0.159597 -0.215327 -0.142686 0.998466 -0.558522 0.049779 0.630344 0.346169 0.082319 -0.345091 0.815914 -0.864861 -0.474956 0.916939 -0.766027 0.678521 -0.066363 -0.188406 0.002555 -0.819236 0.111485 0.531526 0.408070 0.177796 0.019119 -0.197902 0.653542 -0.176767 -0.427439 -0.371164 -0.344067 -0.924441 -0.178092 0.268580 0.485630 -0.525287 0.280924 0.713667 0.312783 -0.425706 1.337135 0.483621 -0.213068
given 0.297063 -0.038468 -0.910111 0.485470 0.728327 0.187642 -0.287074 0.198401 0.623049 0.527465 -0.015098 1.051710 0.592800 0.046887 -0.349161 -0.076957 -0.015438 0.026714 0.440636 -0.742500 0.661708 0.504195 -0.121739 0.435850 0.607941 0.425048 0.405607 0.287145 -0.170943 0.497253 0.073506 0.138333 0.068691 0.098075 -0.370654 -0.324063 0.099491 0.209200 -0.288066 0.589547 -0.545410 0.404475 -0.562169 0.114402 -0.149580 -0.415311 0.078364 -0.723913 -0.757538 0.762831 -0.462674 -0.411861 0.376977 0.513411 0.103231 -0.645904 -0.501399 -0.432350 -0.191653 -0.173138 0.703879 -0.021516 0.183774 0.669656 0.049763 0.456288 0.168458 0.744653 -0.600522 -0.160570 0.422938 -0.201864 0.825724 -0.092413 0.169392 -0.047040 -0.531045 -0.701662 0.442638 0.619995 0.238714 -0.130339 0.108691 0.042740 -0.195693 -0.578620 0.617742 -0.613338 -0.009758 -0.936984 0.408261 -0.181810 -0.170803 -0.059669 0.597411 1.015410 -0.366787 1.215092 0.289751 -0.109887
at -0.097428 -0.524911 0.050593 0.724440 0.908033 0.180556 -0.011128 0.404566 0.176441 1.176290 -0.894842 0.261653 0.263265 0.576408 -0.924801 -1.092501 0.174809 -0.680624 -0.663595 -1.015670 -0.139824 1.131039 -0.771404 0.332694 0.203882 -0.140871 0.261214 0.788035 0.056843 -0.078416 -0.423585 -0.175488 -0.509504 1.255295 -0.217557 0.353058 -0.191149 -0.217651 0.051923 0.724496 -0.836210 0.186071 -0.018380 -0.193756 -0.201564 0.280011 -0.066314 -0.816428 -1.224247 0.164471 -0.808548 0.147708 -0.203572 -0.248322 0.996734 -0.335418 -0.164255 -0.631403 0.009823 -0.709953 0.095104 0.166814 -0.617827 0.285894 0.296856 0.260869 0.969188 -0.336089 -0.010811 0.278323 0.359353 -0.228841 0.115817 0.602581 -0.470905 -0.439414 -0.584115 0.124858 -0.306103 -0.270725 -0.253357 0.337096 0.477961 0.391611 0.116849 -0.473593 -0.009078 -0.436606 0.836118 -0.462464 -0.344159 -0.560470 -0.809312 0.249085 0.424360 0.119114 0.129577 0.151427 0.853601 0.162104
same -0.025066 -0.672407 0.192200 1.344553 0.738093 0.105280 0.018848 0.168248 0.250025 0.163080 -0.498158 -0.519779 0.581777 0.832326 -0.908722 -0.608792 -0.749374 -0.430056 0.000338 0.674738 0.386125 0.857050 0.559003 0.783014 -0.008974 0.000730 -0.009475 0.229764 -0.761651 0.402936 0.243281 0.155282 0.291250 0.808131 -0.052983 0.227943 -0.483468 -0.330749 -0.119852 0.400229 -0.780697 0.391978 -0.396562 0.053296 -0.027295 0.327361 -0.117966 0.192484 0.038021 0.699694 -0.101214 -0.294135 1.184832 -0.318519 0.601382 0.232910 -0.244486 -0.122909 -0.137819 -0.566706 0.344912 -0.323587 0.778135 -0.377276 0.239932 0.153026 -0.610172 0.277864 0.106262 0.302625 1.151969 -0.216782 0.013279 -0.112817 -0.070276 0.722163 -0.610668 -0.105698 -0.286357 -0.113634 0.052037 -0.698977 1.133925 0.235661 0.250785 0.079369 0.419805 0.007720 0.183119 -0.531102 -0.059820 -0.483395 -0.357634 -0.261126 0.041829 -0.161195 -0.028007 0.535784 0.303069 -1.176023
vertices 0.360370 -0.324826 -0.226592 0.937025 0.861157 0.276872 0.321692 -0.381470 -0.714973 -0.222310 -1.136638 0.434563 0.290872 0.815295 -0.211077 -0.829572 -0.882358 0.404124 -0.455997 -0.590341 0.730931 0.407232 -0.573605 -0.651531 1.101397 0.754717 0.618129 -0.414473 -0.632695 0.757658 -0.221702 0.442715 -0.518867 0.601521 -0.008274 -0.269774 0.151867 0.719294 0.680769 0.028123 -0.424543 0.662581 -0.314508 0.505513 -0.038000 0.853085 -0.073464 -0.126585 -0.195456 0.441744 -0.504428 -1.360121 0.606176 -0.373537 -0.450838 0.576167 0.328317 -0.355153 0.042303 0.225701 0.745865 0.437478 0.036721 0.241076 1.045825 -0.259689 -0.024646 0.314522 0.505528 -0.340207 0.115072 -0.289935 0.224496 0.159591 0.148858 0.444434 -1.011841 -0.313066 0.488227 -0.288034 0.105891 -0.689629 0.267261 0.159509 0.092794 -0.024430 0.205413 -0.887792 -0.451147 0.111827 -0.050572 -0.309863 -0.382985 0.440000 -0.234162 0.600567 -0.464256 0.927566 0.708625 -0.529833
solution -0.479120 -0.634295 -1.222608 0.338578 0.438618 0.018993 0.052886 0.122384 0.512016 0.659753 -0.281592 -0.915307 1.004519 -0.423540 0.051783 -0.400894 -0.357905 -0.236770 0.754384 0.086835 0.758023 0.598801 0.169967 -0.128163 0.416842 -0.306434 -0.521854 0.705164 -0.065898 0.414541 -0.897594 0.955076 -0.209202 -0.120824 -0.601327 0.152478 -0.582873 -0.050185 0.463856 -0.509032 -0.148365 0.336064 0.455378 -0.126856 0.180307 -0.205870 -0.729081 -0.807872 -0.226834 -0.088626 0.032302 -0.105197 0.050226 -0.874771 1.613525 -0.506886 0.422724 -0.636810 -0.180000 -0.917081 0.127711 -0.324606 0.157959 0.354674 0.395915 0.236767 -0.706886 -0.559198 -0.489500 -0.202263 0.111588 -0.334238 0.685929 0.377909 -0.438907 0.304628 0.974242 0.251699 -1.591207 0.530192 0.168308 -0.124535 0.426965 -0.211355 0.226685 -0.397746 0.858260 -0.175918 -1.033532 0.311731 0.504304 -0.224115 -0.270327 0.274550 -0.000092 0.204830 -0.839663 0.706489 0.439970 0.085410
you -0.789011 -0.525366 -0.440642 -0.206814 0.083473 0.930749 0.134651 0.570291 1.144020 0.497161 -0.117517 0.025906 0.189586 0.911845 -0.376615 -0.298608 0.150979 0.289549 0.557266 0.041907 1.503647 0.615932 -0.052410 -0.273044 0.497952 0.828020 0.181055 0.664361 -0.755109 -0.677024 0.079120 0.411912 0.218358 0.299752 0.204404 1.255047 -0.149875 0.658197 0.067013 -0.097560 0.127207 0.156618 -0.083203 -0.443350 0.092189 0.186919 0.888738 -0.184980 -0.197503 0.040324 0.051020 -0.490700 -0.272342 0.495791 0.536404 0.169755 0.277419 -0.731738 0.686470 -1.300459 -0.073524 -0.514820 0.208659 -0.157626 0.931874 0.310799 0.477995 0.190912 -0.151275 1.032084 1.045253 0.421101 0.615733 0.088806 0.369633 -0.516297 0.139293 -0.613948 -0.085610 0.066907 -0.443158 0.500458 1.046042 0.315531 -0.372040 0.084803 0.576433 0.226385 -0.150063 -0.086782 0.206525 -0.556852 0.774228 -0.192710 0.722439 0.275143 -0.280560 0.707471 0.449523 -0.292178
first -0.212806 -0.892815 -0.295349 0.171722 1.058988 -0.019509 0.294871 0.727324 0.052953 0.258842 -0.835130 -0.192640 0.307853 1.002581 -0.270334 0.225241 0.275716 -0.009133 0.411592 -0.632090 -0.188942 0.951638 0.629630 0.162289 0.105433 -0.657079 0.076646 -0.022620 0.366217 0.279825 -0.145032 0.099264 -0.053292 0.567003 0.067198 0.035884 -0.266385 -0.438585 -0.065679 -0.126280 -0.161855 0.874302 0.189590 -0.287240 0.050774 -0.760169 0.093711 -1.047745 -0.541819 0.601053 0.053592 -0.170065 0.744613 0.278957 0.722007 -0.288563 -0.364465 0.046009 0.198177 0.150072 1.080526 0.112656 -0.035183 -0.670901 0.356974 0.039687 -0.293645 -0.006363 -0.268807 0.643467 0.228270 0.261084 0.078854 -0.433942 -0.851807 0.682821 -0.349916 0.014356 0.008209 0.513177 -0.735768 -0.034555 -0.270692 0.315271 0.251783 -0.087241 -0.139642 -0.513934 -0.443138 0.068791 -0.034628 -0.574783 0.072004 -0.077106 -0.737624 1.350031 -0.675102 -0.584937 0.178431 -0.171928
k 0.025140 -0.042835 1.415976 0.846365 0.869535 0.337626 0.078731 0.833711 -0.223268 -0.492625 -0.169753 0.909883 1.136309 0.592742 -1.067925 -0.213076 -0.113240 -0.022411 0.293545 -0.628481 -0.264263 0.094919 0.269497 -0.189424 0.901423 0.116103 0.069946 0.423112 -0.875928 -0.051188 0.177142 0.201594 -0.018812 0.252628 -0.388659 -0.765362 0.023393 0.466134 -0.047817 -0.685440 0.298556 -0.016699 -0.697854 0.095090 0.182832 0.009553 0.374870 -0.284874 0.378318 0.520458 0.366086 -1.188737 0.508059 0.175433 0.445065 -0.060597 -0.727744 0.182904 -0.396882 -0.386701 0.775967 0.469840 -0.238799 -0.210132 -0.112180 0.249235 -1.175242 0.396535 -0.978786 -1.410341 0.184377 0.322091 0.603166 -0.010944 -0.308136 0.294594 1.481047 -0.299654 -0.069992 -0.625893 0.161352 -0.717541 -0.263295 -0.045227 -0.269271 0.495779 0.487456 -0.424305 -0.557902 0.610905 -0.122067 -0.829946 -0.474965 0.176807 -0.124533 0.731312 -0.232597 -0.385915 0.063186 -0.502189
vertex -0.017033 -0.057159 0.464530 0.015522 0.823032 0.550330 -0.399910 0.380673 0.281526 0.173776 -0.698081 0.024948 -0.235943 0.753460 -0.108654 -1.199370 -0.571612 -0.577227 -0.671359 -0.388672 0.459390 0.611698 -0.305776 -0.343259 0.570191 0.482490 0.207161 -0.162656 -1.058897 0.695354 -0.284255 -0.661463 -0.225714 0.554110 -0.184076 -0.859948 0.319798 -0.002040 -0.209523 0.835695 -0.307747 1.443069 -0.356845 1.034148 -0.381329 1.022307 0.021730 -0.459755 -0.111674 0.155461 -0.932972 -1.279073 0.504103 0.298818 -0.543453 0.252285 0.402736 0.065639 0.109663 -0.423410 0.554560 -0.143362 0.005275 -0.786096 0.946824 -0.612700 0.091382 0.197357 0.193428 0.092021 0.081424 0.200027 -0.115192 0.035885 -0.533437 0.413673 -0.409977 0.105893 0.517785 -0.068199 0.288728 -0.547687 0.247431 0.163205 0.089062 0.641317 0.154869 -1.514649 -0.540746 0.185734 -0.114057 -0.557759 -0.503277 1.153647 -0.166180 0.554186 -0.038580 0.632248 0.627582 -0.303645
section 0.023714 -0.567226 -0.898893 0.111894 0.051755 0.109003 -0.198399 0.918893 1.388464 0.441334 -0.032436 0.606134 0.480230 0.229285 -0.547277 -0.235313 -0.098364 0.082565 1.061350 0.050155 0.888509 0.705867 0.440089 0.061052 0.703836 0.063649 -0.106712 0.948552 0.218420 -0.089445 -0.194197 0.173245 -0.295706 0.615157 0.001061 1.035295 -0.142513 -0.739030 -0.521055 0.469905 -0.221315 0.235184 -0.287762 0.607659 -0.454314 0.001550 0.692575 -0.020441 -0.726287 0.086588 -0.831360 -0.644842 -0.087191 0.830123 0.263797 -0.110317 -0.269036 -0.732186 -0.418978 -0.241929 0.623114 -0.276164 0.442073 0.586555 -0.430655 1.109545 0.427305 -0.074206 0.324014 0.583153 0.921101 0.138946 0.036365 0.261819 -0.584250 -0.574327 0.022964 0.444054 -0.326154 -0.119295 -0.196374 0.381307 -0.448550 0.548572 -1.065784 -0.608303 -0.258329 0.556254 0.115674 -0.590138 -0.210121 -0.248803 0.594216 0.161509 0.040825 0.827737 -0.700757 0.280203 -0.172268 -0.183243
more 0.607670 -1.114625 -0.260318 0.973929 0.789201 0.689439 0.565279 0.181919 0.542658 0.019837 -0.079100 0.261531 0.306534 0.664878 -0.542792 -0.344718 -0.046652 -0.699168 0.362604 0.088636 0.314543 0.019363 1.072521 0.159635 0.039176 0.503514 0.790644 1.088382 -0.448963 -0.373679 -0.208629 0.711028 0.179991 0.676109 -0.647590 0.608610 0.535346 0.428407 -0.793540 -1.072055 -0.659445 0.922535 -0.257943 0.253359 0.742952 -0.287940 -0.882884 -0.067504 -0.091997 0.857900 -0.203617 0.149785 -0.217255 0.703211 0.420970 -0.452528 -0.234045 0.117814 -0.123508 0.353704 0.472726 0.610947 -0.500652 0.751342 0.336608 0.202367 -0.404352 0.159344 -0.470579 -0.241322 1.452795 -0.107087 0.115878 -0.034921 0.439936 -0.255422 -0.286478 -0.753969 0.101627 -0.230844 -0.013952 0.626343 0.037088 0.524925 -0.520435 0.122626 -0.637045 0.199867 0.815668 0.694052 0.067946 -0.652836 1.050869 -0.122281 0.513413 1.069350 0.227697 -0.115916 0.337548 -0.037750
there 0.770663 -0.582794 -0.160462 0.434826 0.709026 0.389078 -0.161104 0.750856 -0.383857 0.224945 -0.549452 0.490591 0.809000 0.785224 0.145446 -0.113193 -0.307948 -0.433251 0.571312 0.359602 0.678613 0.771964 -0.264079 0.617318 -0.241657 0.318062 -0.051569 1.334679 -0.073966 0.230245 0.049211 0.892372 -0.079570 0.828637 -0.025302 0.184082 -0.255082 -0.587504 -0.090268 0.273684 -0.073728 0.740939 0.025004 0.712968 -0.433386 -0.254882 -0.105745 -0.407828 0.753738 0.475698 -0.218384 -0.637223 -0.115497 0.348974 0.184851 0.290761 -0.833752 -0.160312 0.010584 -0.356810 0.007247 0.008859 -0.231516 0.966471 0.303590 0.161963 0.171457 0.031992 0.479396 -0.196994 1.121064 -0.315188 0.857476 -0.430432 -0.576136 0.484993 0.195758 -0.590276 -0.351082 0.232501 -0.956688 0.470071 -0.325349 0.120039 -0.197142 0.256144 0.563068 -0.312564 0.379282 0.941841 -0.511665 -0.034890 -0.242887 -0.168461 -0.517039 0.675735 -0.712741 0.473209 0.447490 0.319339
will -0.264332 -0.632329 -0.002827 0.432121 -0.450112 0.294804 0.148185 0.753293 0.491425 -0.047774 -0.383858 0.472206 0.155617 1.066725 -0.475063 -0.508040 -0.177937 0.220727 0.492327 -0.722591 1.051714 0.776560 0.231067 -0.623132 0.101323 0.646746 0.999296 0.717302 -0.453066 -0.582124 -0.070817 0.516735 -0.349441 0.334602 0.710430 0.952827 -0.264584 0.358426 0.156799 0.486643 -0.814473 0.172462 0.345291 0.099165 -0.157246 -0.243993 0.017681 -0.343414 -0.616216 0.739401 -0.283980 -0.005824 0.075753 0.239398 0.486828 0.291421 0.171466 -0.127835 -0.197695 -0.870648 0.039615 -0.689324 -0.389281 -0.167947 0.476167 0.424736 -0.519592 -0.331334 -0.895064 0.632662 0.346181 0.220807 -0.398312 0.497430 -0.283899 -0.148044 -0.740221 -0.486061 -1.143883 -0.607009 0.476270 0.246578 0.503383 0.590733 -0.617631 0.092757 0.218062 -0.594160 -0.007614 0.090693 -0.337331 -0.763215 0.285787 0.075110 0.458165 -0.313368 0.057680 -0.387068 -0.189446 -0.210448
p 0.206556 0.457371 0.410253 0.491796 0.759511 0.685298 0.880715 1.401687 -0.635269 1.019930 -0.298342 0.230989 0.607288 0.688488 -0.886092 -0.486614 0.034971 0.422787 -0.608121 -0.448484 -0.240471 1.087415 -0.323241 -0.788508 0.027978 -0.210279 0.979349 -0.072160 -0.101411 0.310093 -0.174948 0.702144 0.114118 -0.027491 -0.586204 -0.328643 0.631127 -0.668443 0.184041 0.556580 -0.349308 -0.743639 -0.373855 0.903735 0.257968 -0.142613 -0.270667 -0.341483 0.131394 0.002885 -0.076212 0.674552 0.168405 -0.570842 -0.660742 -0.465712 -0.639312 0.048340 -0.403371 -0.557281 -0.135462 -0.045193 0.127786 0.130437 0.595917 -0.155632 0.393498 0.499260 -0.868389 -0.722875 0.825292 0.099072 0.721629 0.752550 0.519639 0.792166 -0.702190 -0.356460 0.019389 0.537869 -0.397340 -0.558057 -0.087514 0.623272 -0.289433 0.523004 0.320508 -0.511712 0.604023 -0.833159 -0.510475 0.558039 -0.225317 -1.070251 -0.655237 0.444070 -0.202748 -0.908075 -0.570516 -0.444111
v -0.071535 0.249834 -0.430752 0.124614 0.620563 0.399820 0.540130 0.407247 -0.258874 -0.028590 0.193043 0.749678 0.052606 0.317223 -0.152015 -0.433047 0.025778 -1.021480 -0.343497 -1.141044 0.043202 0.100759 -0.312209 -0.794062 0.551150 -0.180346 0.068065 -0.073365 -1.065110 0.702771 0.051908 0.334597 -0.850416 0.217042 -0.659045 -1.125577 0.267283 0.439308 0.348063 1.242626 -0.593576 0.907773 -0.428747 0.516807 -0.250251 0.494373 0.290366 -0.244616 0.425755 0.168335 -0.654347 -0.595383 0.104475 0.461777 0.235468 0.395745 -0.259833 -0.670567 -0.094220 0.028627 0.544668 -1.431960 0.227577 -0.704376 0.446606 0.100589 -0.201695 0.156832 -0.533150 -0.413583 -0.162701 -0.113507 0.734075 0.645018 -0.394886 -0.362534 -0.046462 -0.557813 -0.610731 0.253720 0.150619 -0.539429 -0.484974 0.078028 0.192888 -0.027803 -0.033652 -0.847151 -0.540959 0.720828 -0.508689 -0.673730 0.036897 0.352044 -0.068027 -0.223988 -0.200378 1.171061 0.446524 -0.160505
list -0.855489 -0.695242 -0.528471 0.327393 0.800106 0.702731 0.003066 0.666145 0.168103 0.090868 -0.228704 0.509774 0.005812 0.998300 -0.275431 -0.203130 -0.590848 0.263619 0.210193 -0.809669 0.207206 0.728088 0.365066 0.115892 -0.143347 -0.518832 -0.053834 -0.664440 0.318413 0.270870 0.652005 -0.456366 -0.393340 -0.036508 -0.421102 0.698121 -0.140824 0.448918 0.205305 -0.126618 0.214179 0.638351 -0.341977 0.538214 0.715222 -0.526679 -0.278394 -0.241725 0.001927 1.833186 -0.334437 -0.921785 1.183179 -0.035584 0.309758 -0.237680 0.476155 -0.301213 0.055452 -0.068873 0.680599 0.388282 0.021931 -0.528543 0.537021 -0.195030 -0.464381 0.377130 -0.830686 0.330694 -0.672883 0.007160 0.091999 0.313475 -0.346876 0.534743 -0.623527 -0.674706 0.206749 0.605230 -0.067219 -0.503025 0.592405 0.336172 -0.531768 -0.159956 0.406571 -0.554959 0.211326 -0.540952 0.152099 -0.507323 0.189767 -0.398218 0.329548 0.849664 -0.362209 0.137194 -0.453845 0.255362
value -0.914801 0.199551 -0.723200 -0.726136 0.548935 -0.105689 0.257521 0.300349 0.077834 0.088780 0.602564 0.016118 0.508075 0.227463 -0.535677 0.170808 0.655163 -1.005292 0.382775 -0.053700 0.572121 0.691101 0.164089 0.439019 0.383705 0.198626 0.170962 0.335473 -0.324529 -0.001897 -0.949919 0.821065 -0.288468 0.008924 -1.049418 -0.168368 -0.059456 -0.484917 -0.382290 0.189226 -0.369252 0.249508 -0.332941 -0.146775 -0.130887 -0.641097 0.143494 -1.481092 -0.174160 0.916179 -0.328543 0.063741 -0.371721 0.052416 1.414251 -0.615753 -0.254158 -0.691492 -0.112898 -0.088530 0.637602 -0.192512 0.675625 0.152097 0.784214 0.461051 -0.493287 -0.205395 -0.877054 -0.882700 -0.589688 -0.160465 -0.115409 -0.370180 -0.125183 0.015011 0.001347 -0.824817 -0.621300 0.443855 -0.162761 -0.035917 0.358525 0.366434 0.526699 -0.378651 1.095982 -1.252036 -0.414200 -0.456724 -0.317470 -0.185663 -0.272210 0.082069 -0.145219 0.101846 -0.534619 0.225081 -0.603831 -0.038897
binary -0.133465 -0.418547 -0.123643 0.572672 0.860131 0.995472 -0.477073 -0.780112 0.816316 -0.273051 -0.065282 -0.145132 -0.237449 -0.149991 -0.928786 0.482615 -0.137243 0.592764 0.466050 -0.273824 0.183869 -0.043520 0.123691 0.031865 0.500251 -0.019075 0.952157 0.296195 -0.618149 0.477000 -0.220997 0.342812 -0.985460 0.575468 0.338209 -0.522226 -0.796938 0.454331 -0.412263 0.262825 -0.010660 -0.277707 -0.465785 -0.185839 0.542120 -0.498964 0.381930 0.658656 -0.335344 0.739983 -0.568522 -0.626208 0.102970 -0.327753 0.195972 -0.956570 0.430269 -0.321375 -0.592747 -0.680878 0.510507 0.025694 0.342455 -0.543388 0.129987 0.213950 0.268946 -0.954377 -0.206762 -0.158873 0.653087 0.633640 -0.166489 0.109394 -0.012589 1.013000 0.237620 0.574052 0.112146 0.906290 -0.631515 0.202943 0.979558 0.794012 -1.097323 -0.801587 1.142684 0.258981 -0.850314 -0.243160 0.198131 0.165970 -0.664897 -0.438208 0.286122 0.279803 0.481561 0.055329 -1.061247 -0.484854
set 0.106991 -0.013698 -0.302021 1.004459 0.724849 0.983646 0.286014 0.408534 0.630725 0.574864 -0.670712 0.063405 1.105974 0.103450 -0.150741 -0.265502 -0.184183 -0.339332 -0.334251 -0.524644 0.534028 0.864302 -0.316333 0.401118 -0.162906 0.402499 0.470931 0.502717 -0.350077 1.180707 0.392272 -0.579149 -0.039707 -0.732203 0.342719 -1.122609 -0.091234 1.160579 0.131835 0.383094 -0.633154 -0.253306 -0.659320 0.743143 0.355712 -1.359060 -0.568529 0.319034 -0.174497 0.475269 -0.224769 -0.159271 0.441329 -0.328635 0.208510 -0.350477 -0.687119 -0.691159 0.555377 0.258226 0.086561 -0.597258 -0.562421 -0.305699 0.140475 0.289420 -0.163784 0.778208 -0.561746 -0.482661 -0.224683 0.185348 0.558229 0.762072 -0.171445 -0.525722 -0.903422 -0.503880 -0.850554 0.851563 -0.614516 -0.427057 -0.057972 0.334388 -0.070902 0.066554 0.204137 0.053731 0.116458 0.084130 0.399359 -0.339355 0.404075 0.369933 0.660743 0.022582 -0.007198 0.649156 0.208174 0.646271
no 0.365317 0.167498 -0.386353 0.595687 0.585267 0.675997 -0.053998 0.276795 -0.154119 0.670860 -0.951362 -0.266976 0.730500 0.429640 0.293835 -0.804634 -0.611311 -0.140562 0.126596 0.242922 0.614411 0.737296 0.368467 -0.057066 -0.128155 -0.229689 -0.736883 0.537671 0.071737 -0.025072 0.065959 0.951967 0.380442 1.426174 0.012194 0.501874 0.525822 -0.074846 0.292749 -0.359866 -0.779354 1.237362 0.641334 0.416242 -0.358394 0.020695 -0.574588 -0.629700 0.788431 0.730271 -0.316523 0.058274 0.091682 -0.237652 0.353010 0.270986 -0.013234 -0.755597 0.107646 -0.417489 0.747587 0.377933 0.168860 1.146399 0.111115 0.068943 -0.587764 0.007529 -0.302981 0.407616 0.725063 -0.419677 0.293753 -0.610836 -0.121187 0.163208 0.188700 -0.445107 -0.277816 0.268827 -1.114149 -0.007746 0.740167 0.654730 -0.256833 0.322232 0.537982 -0.438893 -0.281445 0.873400 0.384233 0.128930 0.414012 -0.150220 -0.598396 0.117672 -0.838880 0.148399 0.600138 -0.224543
elements 0.479886 -0.138349 -0.166725 0.823085 0.535813 0.538898 0.131223 0.662859 0.009090 -0.021871 -0.235144 0.410674 0.776573 0.952359 -0.556304 -0.309928 -0.032406 0.122881 -0.311796 -0.664238 0.551500 1.093916 0.285136 0.088743 0.294270 0.389464 0.488346 -0.305192 -0.434148 0.026478 -0.092272 -0.480078 -0.322669 -0.728122 0.429750 0.528883 -0.261021 0.709463 -0.256508 -0.643348 -0.289015 0.318470 -0.206529 0.262209 0.293105 -0.950387 -0.016043 -1.288274 0.163908 0.677356 -0.164005 -0.530711 0.223762 0.068713 0.478018 -0.721425 -0.393647 0.172330 -0.339388 0.873652 0.102148 -0.100164 0.262973 -0.260915 0.380927 0.368320 -0.282445 -0.393698 -0.725559 0.556443 -0.288638 -0.192388 0.082434 -0.124273 0.097070 0.141706 -0.570435 -0.285116 0.100842 0.365116 -0.697118 0.319811 1.067722 0.804502 0.105039 0.433480 0.877000 -0.721584 -0.747231 -1.035275 0.671975 0.305796 -0.336331 0.183636 -0.779207 1.186614 0.148709 -0.456105 0.539562 0.809827
find -0.563278 0.171059 -0.228890 0.034625 0.548173 -0.337350 -0.292874 0.014359 0.528552 0.094029 -1.102476 0.015738 0.196163 0.652204 -0.281913 -0.076870 0.337142 0.020375 0.522472 -0.016939 0.917211 0.529392 -0.382789 -0.304586 -0.072126 0.240070 0.408457 0.443074 -0.026480 -0.193500 -0.292587 1.045064 0.188470 0.488586 -0.138858 -0.107998 0.220892 -0.010592 -0.329056 0.424760 -0.248813 0.408446 -0.417231 -0.545556 -0.441636 -0.678256 0.899569 -0.581777 -0.669575 0.647790 -0.090551 0.242648 0.329992 0.316317 0.242650 0.298863 -0.489447 -0.308653 0.103289 -0.407224 0.571174 -0.196971 -0.039786 -0.199214 -0.198284 0.194835 -0.396806 0.360873 -1.106550 0.473153 0.809174 0.191381 0.246648 -0.359768 0.190528 -0.168027 -0.161741 -0.409663 -0.377301 0.639996 0.041908 0.258272 0.824734 -0.216161 0.332570 -0.609011 0.720379 -0.799953 -0.624060 -0.377299 0.157086 -0.613328 -0.025826 0.544399 -0.097897 0.040437 -0.284468 0.417506 -0.317711 -0.508479
following -0.444463 -0.764712 0.029552 -0.013756 0.926016 -0.361372 0.281459 0.175533 1.822179 0.089999 -0.435095 1.164220 0.699454 0.860239 -0.297254 -0.070939 0.090579 0.230760 0.547279 -0.108271 0.934771 -0.226618 0.226561 0.144194 -0.138070 -0.743142 0.004258 0.165524 0.269431 0.512777 0.157990 0.834605 -0.062037 0.062645 0.190008 -0.515907 -0.439754 0.559189 0.709770 0.061721 -0.651689 -0.592240 -0.885373 -0.316309 0.325142 -0.355183 0.238204 0.226870 -0.460131 0.284126 0.159498 -0.375944 0.962763 -0.729050 0.362263 0.005143 0.040109 -0.164693 0.244219 -0.483963 1.039311 -0.349561 -0.118941 0.287762 0.070628 -0.716227 0.041509 0.678077 0.309073 -0.581318 0.569216 -0.957071 -0.071131 0.019933 -0.414210 0.203242 -0.078304 -0.568742 0.561867 0.528349 -0.472032 -0.169341 0.257986 0.481842 0.245018 -1.033757 0.389708 -0.582431 0.253483 -0.374860 0.164538 -0.612045 0.101238 -0.354077 0.086960 0.380950 -0.296985 0.460470 0.181124 -0.266191
do -0.314809 -0.300704 0.395424 0.373297 1.036521 0.610181 1.245796 0.818678 0.142780 0.032144 0.158606 0.320666 0.679738 1.260529 -0.762494 0.410695 0.330555 -0.138008 0.039989 -0.687014 0.673764 -0.251106 0.273644 -0.916817 0.386613 0.077256 0.481072 -0.280003 -0.478111 0.150129 0.306750 0.724718 0.461370 -0.239309 0.207262 -0.214943 -0.384983 -0.006844 -0.044555 0.312376 -0.125445 0.140610 -0.983591 -0.257010 0.314097 0.041690 0.092470 -0.997718 0.107708 -0.241210 0.420074 -1.118581 -0.398415 0.081928 -0.732906 0.049676 -0.115575 -0.314002 0.110407 -0.718542 -0.021249 -1.012270 -0.558416 -0.825056 0.947913 -0.250195 0.102771 -0.027935 -0.468668 -0.271438 1.393514 0.278761 0.628769 0.321423 0.369982 -0.026675 0.690493 -0.767682 -0.210579 -0.190492 -0.447958 0.199129 -0.069016 0.171379 0.415635 0.409943 0.343745 -0.307657 -0.160062 0.370248 0.256032 -0.375216 0.224175 0.074316 -0.047783 0.065002 -0.388221 0.005619 -0.190270 -0.272584
but 0.626154 -1.431812 0.128513 0.881504 0.510390 0.961808 0.600426 0.548565 -0.214587 0.023158 0.363370 0.135264 0.209108 0.381818 0.072653 0.113854 0.269079 -0.305137 0.030316 0.581060 0.735083 0.854280 0.477091 0.457539 0.450301 0.416331 0.331676 0.355308 -0.877616 -0.254147 -0.298052 0.865547 -0.088855 0.370533 -0.159022 0.839378 0.159075 -0.053325 0.424563 -0.216376 0.498589 0.874133 -0.353832 0.306172 -0.358388 0.608527 -0.245660 0.193784 0.053382 0.262883 0.078441 -0.805262 -0.234403 -0.264200 0.017193 -0.721097 -0.464588 -0.541994 -0.233323 -0.269883 0.310984 0.056823 0.090403 -0.185376 0.171884 0.453267 0.542560 0.280168 -0.338809 0.024444 0.564148 0.751418 0.694375 -0.349051 -0.167450 0.160222 0.161677 -0.271931 -0.095522 -0.170213 -0.572770 0.007626 0.310374 -0.278818 -0.355222 -0.187216 0.155978 -0.195443 0.056637 0.034797 0.444148 -0.036208 -0.441316 -0.019838 0.330796 0.680154 0.145121 0.580677 0.545706 -0.090668
has 0.166136 -0.607837 -0.617525 1.586293 0.495925 0.170392 1.049819 -0.016196 0.336821 0.172777 -0.388507 0.111241 0.005133 0.055126 -0.660072 -0.413564 0.031781 -0.638453 -0.134475 0.730985 -0.202702 0.136695 -0.355837 0.367334 0.464136 0.211903 -0.524775 0.108161 -0.435578 0.915958 -0.568450 0.656334 -0.726981 0.272480 -0.596761 0.475342 0.643679 0.233727 1.286960 -1.047595 0.275791 0.714110 -0.375476 0.459156 0.084886 0.215265 -0.083870 -0.412734 -0.257363 0.435341 -0.296173 -0.347891 0.030217 -0.050075 0.231458 0.187719 0.201576 -0.714357 -0.022095 0.064369 0.549280 -0.334726 0.164504 0.554415 -0.040050 -0.178682 -0.268509 0.532053 0.179080 0.371285 0.333223 -0.729016 1.009717 0.360656 -0.643660 0.161128 -0.222533 0.093914 -0.895152 0.353579 -1.113970 -0.381249 0.756975 0.192248 0.590424 0.702456 0.598423 -0.166881 0.206623 -0.402357 0.021401 0.116004 -0.282875 -0.041443 -0.372071 -0.532108 -0.410119 -0.103601 0.639545 -0.302309
array 0.256107 -0.247656 0.257092 0.993417 0.208453 0.307961 0.326858 0.577385 0.151151 0.184716 0.217767 0.039511 0.095538 0.689568 -0.456308 0.965455 -0.912005 0.377540 0.063371 -1.065846 0.150267 0.177186 -0.168254 -0.170002 0.173966 0.020344 0.369128 0.119825 0.037871 0.238768 0.075613 -0.495621 -0.858745 -0.433824 0.332113 0.616545 -0.731752 0.315258 -0.328500 -0.643471 -0.769887 0.387461 -0.209993 0.124449 -0.037302 -0.802636 0.411740 -0.546232 -0.184347 0.901441 -0.247207 -0.831146 0.288596 0.024520 0.310528 -0.673525 0.272226 0.101116 -0.779539 0.178746 0.233496 0.506134 0.104382 -0.518556 0.391682 0.400813 -0.072885 0.785126 -0.255111 0.011792 -0.066802 -0.440612 0.541722 0.691156 -0.845726 0.437323 -0.917014 -0.942028 -0.130875 0.744124 0.023192 -0.153227 0.658821 0.090391 -0.317797 0.235146 0.939767 -0.835876 -0.778080 -0.628520 0.141250 0.557033 -0.773136 -0.143020 -0.179165 0.756057 0.640317 -0.184352 -0.331173 0.011792
some -0.025123 -0.476483 -0.024567 1.085654 0.400160 0.297038 0.022503 0.168184 -0.515995 0.349703 -0.430244 0.246154 0.555988 0.823534 -0.688786 -0.297557 0.107340 -0.563121 0.424539 0.424156 -0.043964 0.461697 -0.011335 0.758461 0.725590 -0.249067 0.467423 0.705003 0.757698 0.226059 -0.591393 0.577754 0.168472 0.362886 -0.295975 -0.195842 -1.199817 -0.363381 -0.202536 0.664182 0.165293 -0.118792 0.310200 0.446990 -0.161227 0.175753 -0.649227 -0.606322 -0.483327 0.232161 -0.067075 -0.712967 -0.624776 -0.493047 -0.358033 -0.349466 0.445784 -0.069838 0.223730 -0.353451 0.463141 0.769229 -0.138763 0.275125 0.136644 1.222169 0.702288 0.235291 -0.832277 -0.486318 0.563817 0.411875 0.053784 0.101508 -0.095813 -0.515388 0.043630 -0.682451 -0.511816 -0.319662 -0.519754 0.280646 -0.655462 0.475014 0.006768 -0.029269 0.235326 -0.038319 0.404971 0.507299 0.375952 0.340627 -0.476401 -0.098965 -0.166267 0.661929 -0.672891 0.734589 0.504533 0.171490
e -0.262153 -0.130396 0.164392 0.073246 0.714424 -0.118680 0.355383 0.822417 -0.852780 0.273814 -0.176520 0.807829 -0.032553 0.643857 -0.135914 0.117980 -0.863697 -0.113752 -0.828282 -1.131209 -0.262249 -0.296368 -0.461688 -0.302137 0.750651 -0.210037 -0.606039 -0.152588 0.252597 0.878265 0.107668 0.496895 -1.129522 0.582801 -0.249737 -0.344946 0.841135 0.373415 0.356685 0.427396 -0.987280 0.286894 -0.382458 -0.001840 -0.458890 0.080677 0.354741 0.935967 0.176894 0.629684 -0.402450 -0.449240 -0.020631 -0.453642 -0.290700 0.153112 -0.081445 0.142808 0.059932 -0.299433 1.338240 -0.174864 0.191391 -0.699106 0.215386 -0.493172 -0.300023 1.047853 -0.590001 0.167704 0.378243 -0.549504 1.241177 0.631902 0.279938 -0.541987 0.070732 -0.820289 0.554195 0.661338 0.278138 -0.156386 -0.096603 0.723772 -0.434824 -0.739940 -0.358294 -0.608067 -0.351604 0.597256 -0.111984 -0.818574 -0.516070 -0.197858 0.402281 -0.190953 -0.396670 0.330747 -0.313413 0.338257
other 0.380067 -1.239209 -0.174132 0.746777 0.646606 0.208433 -0.419117 0.396872 -0.555641 0.292879 -1.146913 0.199535 0.899919 0.355550 -0.195529 -0.517799 0.236726 -0.590965 0.222880 -0.191907 0.524923 0.420411 0.155445 -0.059702 -0.029092 -0.078511 0.382934 0.479458 -0.391281 0.391720 0.522137 0.426585 -0.274654 0.261457 0.715550 -0.389972 -0.046811 -0.131086 -0.002225 0.459686 -0.026251 -0.079841 0.391654 0.431608 -0.208491 0.277555 -0.672268 -0.526808 -0.514625 0.174365 -0.169267 -0.467342 0.595303 0.131016 -0.196217 -0.089326 -0.207502 -0.585606 -0.019627 -0.156422 0.660419 -0.074311 -0.285165 0.317518 0.609231 0.486363 0.272423 0.574272 0.690097 0.247459 1.411174 0.117920 -0.335294 0.333626 -0.484655 -0.244003 -0.514571 -0.799287 0.251202 -0.164294 -0.169399 0.622863 0.447804 0.991388 0.098177 0.247070 0.103963 -0.234485 0.586932 0.467713 0.561104 -0.269423 0.083673 -0.651110 -0.296973 0.452736 -0.413802 0.367280 0.423778 -0.058649
s -0.051407 -0.084904 0.599918 0.468203 0.238745 -0.095062 0.205863 1.095201 -0.817466 0.624101 -0.620449 0.415864 1.168015 0.429277 0.012255 -0.527509 -1.346197 0.318815 -0.085495 -0.885027 0.305654 1.019303 -0.859956 -0.270561 0.380326 -0.132761 0.391550 -0.412861 -0.406078 0.584570 -0.260151 0.383046 -0.222237 -0.701596 0.024938 -0.493275 -0.131101 0.203156 -0.239783 0.100827 -0.811743 -0.100414 -0.716126 0.349951 -0.195976 -1.488195 -0.126086 0.056479 0.009389 0.206063 0.142722 0.012235 -0.090711 -0.640834 0.015414 -0.844542 -0.521527 0.613130 -0.052231 -0.225790 0.174623 -0.025842 -0.111523 -0.340670 -0.185326 -0.370683 -0.804829 0.603349 -1.056796 -0.109331 -0.014365 -0.397528 0.588099 0.523657 0.297765 0.171381 0.428892 -0.237567 -0.723911 0.942048 -0.038885 -0.075944 0.034093 0.538760 -0.457624 0.557875 0.109279 -0.283994 0.381498 -0.029362 0.541842 -1.057314 -0.457470 0.759378 0.148374 0.411903 -0.069523 -0.087430 -0.745957 0.224303
points -0.074608 0.604060 -0.536391 1.197313 0.908183 -0.145557 1.170014 -0.092254 -0.450499 -0.045219 -0.777587 -0.165768 1.552866 0.112325 0.098744 -0.775277 -0.702567 0.312266 0.502520 -0.393142 0.829043 0.904507 -0.572410 -0.306614 0.056370 0.495831 0.637469 0.312818 -0.334008 0.284580 0.206176 0.238822 0.242121 -0.395310 -0.004884 -0.056452 0.120095 -0.030591 -0.485553 0.482703 -1.190453 -0.341573 -0.222150 0.625540 0.296022 -0.657058 -0.390899 -0.392729 -0.462163 -0.113583 -0.119335 0.183912 0.867759 -0.731722 0.238886 -0.125166 -0.343212 -0.389515 0.323637 0.547920 -0.407565 -0.017163 -0.628825 0.894636 0.926581 0.138115 -0.038733 0.000741 0.452225 -0.417395 -0.140990 -0.397666 0.389341 0.502452 0.645708 0.216052 -1.332970 -0.050883 -0.093236 0.184770 -0.034985 -0.091777 0.106564 -0.296138 0.287721 -0.198864 0.216988 -0.142637 0.651103 -0.309485 0.048991 0.410727 0.424904 -0.446659 -0.073563 0.657315 -0.563067 -0.038958 0.222905 -0.097956
called -0.354793 0.081317 -0.423515 0.942226 0.167047 0.598691 0.169658 -0.287675 0.486451 -0.213934 -0.677147 0.414793 0.209945 0.270795 0.048959 0.078197 0.084747 -0.475263 -0.471701 0.432808 -0.113852 0.058890 -0.180175 0.396915 -0.453514 -0.332554 0.475958 0.393945 -0.053908 0.145886 -0.862238 0.669627 -0.984577 0.463745 -0.237738 0.051374 -0.723377 0.498426 0.238058 0.508681 -0.126309 0.301859 -0.252832 0.349417 -0.461172 -0.065671 -0.015094 0.244260 -0.052521 0.475676 -0.363720 -1.292244 1.429377 0.499061 0.096812 -0.191615 -0.651979 -0.389236 0.207559 0.458829 0.558968 -0.224060 -0.448341 -0.498121 0.455580 0.117302 0.007663 -0.721516 0.306189 -0.272170 0.312305 -0.439531 -0.437104 -0.015043 -0.509891 -0.217853 -0.607166 -0.119998 0.040062 0.508314 -0.064498 0.025654 -0.375429 0.087841 -0.185543 -0.718455 0.561931 -0.057658 0.867564 0.524591 0.111861 0.357562 -0.047294 0.034446 0.019205 0.735683 -0.067968 0.474086 -0.102726 0.309281
numbers 0.427401 0.073139 -0.082684 0.456793 -0.060065 0.441808 0.775057 -0.265686 0.574079 -0.503150 -0.439794 0.417817 0.359759 1.114600 0.041376 0.227011 -0.829524 -0.580294 -0.087394 0.351894 0.375597 0.467856 0.081446 0.469268 0.487855 0.521527 1.242023 0.177412 0.174399 -0.186156 0.631988 -0.195363 0.109337 0.424353 0.316297 -0.087206 -0.224029 0.492846 -0.097341 0.313198 -0.031174 0.116917 -0.622495 0.193936 0.769285 -0.561573 0.369301 -0.660009 -0.067957 0.305035 -0.254595 -0.292433 -0.531007 0.368423 0.251892 -0.094628 -0.184028 0.282134 0.386651 0.151249 0.310841 0.514721 0.084739 0.061271 0.493986 0.492804 0.915649 0.202964 -0.750385 0.036572 0.999158 0.168867 0.813785 -0.267733 0.465140 0.257924 -0.675506 0.662269 -0.061992 -0.056340 -0.854555 0.441554 0.646368 0.241519 0.347670 0.116691 0.173212 -0.126240 -1.122980 -0.451596 0.275544 0.673992 -0.453827 0.154639 0.738273 0.558221 -0.904288 0.338592 -0.280687 0.204607
any -0.404467 -0.106612 -0.032978 0.643765 1.028589 0.360725 0.376396 -0.155387 0.130094 0.157963 -1.094658 -0.400755 0.590759 0.077260 -0.988422 -0.446447 0.026648 -0.762147 0.085585 -0.681307 1.074992 0.210325 -0.534708 -0.376630 -0.454779 -0.031428 0.544595 0.346282 -0.248491 -0.183396 0.009150 0.857480 -0.052298 0.046326 -0.475489 -0.457245 -0.358482 0.245265 -0.286819 -0.516915 -0.876714 -0.043303 -0.013002 0.650328 0.410526 -0.740927 -0.104086 -0.595596 -0.685319 0.551579 -1.079830 -0.161695 0.093823 -0.385803 -0.315374 -0.110205 0.374410 -0.053787 -0.281024 -0.778468 0.215335 0.316083 -0.227182 0.152239 -0.281833 0.199137 -0.605871 -0.099727 -0.510161 -0.013424 0.752249 0.039806 0.242506 0.107890 -0.425547 0.665584 -0.936304 -0.792123 -1.294153 0.199059 0.160071 -0.836839 0.176207 -0.228581 0.264607 -0.438206 0.397918 -0.396091 0.093348 0.576475 -0.381250 0.034283 0.073745 -0.134844 -0.308960 0.012907 0.432686 0.221595 -0.039862 0.282433
their 0.106528 -0.132386 -0.749084 -0.245163 1.038032 -0.103778 0.746581 -0.209268 0.435582 -0.740871 -0.239558 -0.585707 -0.102017 0.857773 0.161475 0.033191 0.693038 0.082604 -0.495663 -0.544647 -0.195097 0.491663 -0.070341 -0.180497 0.518368 -0.390793 0.154182 0.233845 0.314902 0.358504 0.117099 1.058582 0.389302 -0.400682 0.205412 0.192604 -0.655256 -0.854508 0.525583 -0.394559 -0.741078 0.251909 -0.465413 0.034182 0.605881 -0.122697 -0.647353 -0.749806 -0.268897 0.643287 -0.577584 -0.629447 -0.041383 -0.523083 0.051907 -0.102832 0.523849 -0.468792 0.269248 0.089694 0.988873 -0.022051 -0.011171 -1.053544 0.656213 0.407431 0.537915 0.023181 0.260215 0.218885 0.133821 0.478671 -0.008818 -0.126639 0.198377 0.038389 -0.455858 0.183778 -0.406373 -0.117383 -0.647898 -0.257189 0.556523 1.386665 -0.066832 0.390935 -0.348333 -0.816531 0.221886 -0.549093 -0.222409 0.185495 0.701514 -0.363048 -0.335646 0.437690 -0.601204 0.224778 -0.007410 0.670868
order -0.398855 0.221220 -0.066457 0.764347 1.480162 -0.090171 1.164986 0.300937 0.479916 -0.547503 0.010853 -0.592871 -0.618272 1.026785 -0.864229 -0.043476 0.031383 -0.295169 -0.593469 -0.630610 0.534021 0.008266 -0.179580 0.164018 0.080962 -0.210556 0.760926 -0.129572 0.325281 0.616619 0.674047 0.609257 -0.563779 -0.016237 -0.282530 0.181849 -0.279513 -0.321626 -0.473196 -0.328347 0.043331 0.169214 -0.056840 0.170983 0.964264 0.383799 0.040976 -0.616185 -0.768189 0.789601 0.285036 -0.872789 -0.101321 -0.849911 -0.252545 -0.005126 -0.224316 -0.215161 -0.022812 -0.254481 0.660606 0.136397 -0.197647 -1.109331 0.017856 -0.487026 -0.343124 0.313006 0.258217 0.641760 0.035255 -0.054453 0.031195 -0.297572 0.355460 -0.008623 0.059801 -0.438351 -0.562456 0.259028 0.166580 0.262799 0.941264 0.437140 -0.555656 -0.528107 0.353875 -1.180460 0.107514 -0.958131 0.207552 0.070288 -0.001874 -0.311636 -0.219473 -0.051161 -0.547743 0.580108 0.533977 -0.033044
size 0.067316 -0.662471 0.407112 0.744681 0.525483 0.245577 -0.104027 0.458781 0.056554 0.730370 0.335971 -0.614882 0.931962 1.136948 -0.181614 0.544496 0.158714 0.362073 0.572191 -0.492290 -0.249915 0.173572 1.026877 0.683554 0.262397 -0.536279 -0.157139 -0.114770 -0.404968 0.115943 0.458652 0.303764 0.087501 0.473292 -0.481600 0.061452 -0.975711 -0.118701 0.480249 0.529896 -0.327170 0.642805 0.243534 -0.801705 -0.189795 -0.339373 -0.289715 -0.190319 -0.107595 0.812878 -0.192719 -0.560993 0.335601 0.115486 0.665932 0.000806 -0.541711 -0.172065 -0.052731 -0.185979 0.163117 -0.004058 -0.027691 -0.797751 0.044744 1.278832 -0.704081 0.390874 -0.562037 -0.074131 0.347468 -0.018120 0.532994 -0.059661 -0.155853 0.212605 0.242841 -0.386538 -1.098102 -0.764760 0.365189 -0.311427 0.600477 0.167540 -0.447679 0.092003 0.026608 -0.189284 -0.478342 -0.681847 -0.221670 0.393963 -0.427091 -0.750566 0.343948 0.078998 0.672600 0.754213 0.401018 -0.197380
see 0.386697 -0.083342 -0.469459 0.684023 0.403089 0.689121 0.395330 0.873990 0.457720 -0.271416 0.344248 0.903406 0.932785 0.173625 -0.114992 -0.615712 0.036494 0.087222 0.505160 0.286004 0.303990 0.374282 0.610518 -0.194242 0.693265 -0.055003 0.111536 1.067219 -0.191031 -0.384365 -1.076142 0.492808 -0.585956 -0.214162 0.270006 0.465528 0.195845 -0.434558 -0.627577 0.579335 0.492910 -0.455304 0.096887 0.880021 -0.054098 -0.357624 0.403159 0.307791 -0.505259 -0.054278 0.048144 -0.594415 0.082064 -0.476559 0.229187 -0.209653 -0.496528 -0.534761 -0.336282 -0.780535 0.038550 -0.531359 -0.413433 0.099479 0.119542 0.574186 0.372319 -0.154587 -0.375913 -0.048600 1.146895 0.061328 -0.040589 0.448063 -0.200467 -0.054665 -0.477626 0.061109 -0.593146 -0.187964 -0.149063 0.615407 0.033740 0.439657 -0.774456 -0.230239 -0.020298 0.210415 0.157347 -0.075490 0.251275 0.122619 0.093132 -0.306511 0.230263 0.801095 -0.822626 -0.023922 -0.542314 0.006190
matrix 0.017178 -0.452593 -0.765965 -0.021793 0.061803 0.066611 -0.398162 0.584618 0.596776 -0.343166 0.148223 0.257783 0.723747 -0.190591 -0.495519 -0.422850 -0.059410 -0.481411 -0.906957 -0.432537 0.807911 0.279081 0.260873 0.120971 0.234823 -0.399990 -1.325307 -0.573235 0.842675 0.469432 0.459762 0.881911 -0.453115 -0.872646 -0.215008 -0.013904 -0.210866 0.276954 -0.069964 0.088357 0.191742 0.119744 -0.352711 1.251460 -0.181988 0.108672 0.460808 0.300363 0.121943 0.499804 -0.581962 -0.884029 0.363372 -0.053658 0.404958 0.549451 -0.052587 -0.056470 0.207858 0.349086 0.656667 0.018732 0.339547 -1.536127 -0.139464 0.130631 -0.613106 0.130317 0.136260 -0.012583 0.371604 0.005420 -0.077708 0.051645 0.121485 0.077636 -0.067836 0.149886 0.725414 0.232771 -0.780720 -0.024991 0.687702 0.728517 0.350857 -0.282933 -0.293440 -0.238317 -0.834662 -0.600249 0.632999 0.338832 -0.623622 -0.748814 -1.222277 0.464080 -0.134021 0.115028 0.872130 0.126281
only 0.873193 -0.892860 -0.608013 0.612085 0.646644 -0.171025 0.406292 0.240417 -0.019558 0.872560 -0.199094 -0.540772 0.140813 0.503332 -0.062412 0.456639 -0.016090 -0.332895 0.428386 0.232441 0.780986 0.897243 -0.854403 0.440750 0.227710 0.730532 0.960719 -0.271931 -0.428861 0.638171 -0.545556 0.472859 0.139519 -0.182096 -0.116726 0.390971 -0.345198 0.254960 0.774274 -0.858158 0.229086 0.362678 -0.054456 -0.406937 0.442062 -0.117446 -0.200377 0.192355 0.399663 0.200259 -0.279063 -0.310586 -0.026895 0.431897 0.586401 -0.524575 -0.235140 -0.143696 0.374032 -0.027189 -0.238262 0.203402 -0.106676 0.112231 0.042956 -0.100040 0.339754 -0.220790 -0.091441 -0.188336 0.668520 0.112379 0.026733 -0.070242 -0.266299 0.801299 0.189084 0.256135 -0.382436 -0.019346 -1.272063 -0.097039 0.202294 0.094334 -0.407803 0.278110 -0.291257 -0.943191 -0.071121 0.260096 -0.580293 -0.134675 -0.034629 -0.230440 0.154996 0.967085 0.132431 0.442328 0.153302 0.427413
element 0.068480 0.329801 0.468024 -0.236806 -0.027723 0.098953 -0.218219 0.588957 0.268693 0.067309 -0.622443 0.442450 -0.215422 0.204227 -0.906050 -0.301846 0.138609 0.080910 0.547905 0.095738 0.569610 1.187755 0.227871 -0.026610 0.310297 0.850162 0.295291 -0.280899 -0.301960 1.037384 -0.388528 -0.136959 -0.431214 -0.278968 0.006343 0.261155 -0.408830 -0.082090 -0.775873 -0.178120 -0.114042 0.741029 -0.162107 0.600741 0.187498 -0.715189 -0.032703 -0.933436 -0.324412 0.565265 -0.130096 -0.244225 0.099725 0.829063 0.883170 -0.370701 -0.528928 0.199250 -0.424532 0.321382 0.206230 0.487724 0.128062 -0.761261 0.386511 0.411074 -0.867371 0.615121 -1.133994 -0.100492 -0.639945 0.424922 -0.220105 -0.412861 0.087110 -0.040981 0.015650 -0.652589 0.056777 0.415181 -0.454220 -0.026386 0.249577 -0.108760 -0.132418 1.086394 0.706941 -0.479547 -0.430755 -0.237506 0.004973 -0.001174 -0.514135 0.081404 -0.772426 1.220781 -0.731599 -0.342466 -0.143321 0.227441
how 0.108296 -0.835088 -0.448756 0.057060 0.060249 0.357336 0.064238 0.659901 0.138442 -0.183577 -0.513196 0.349860 0.752141 0.145661 -0.425672 -0.343840 -0.061813 0.694337 1.222311 -0.174218 0.228577 -0.105154 0.371246 -0.605974 0.582042 0.754746 -0.194255 0.705236 0.381580 -0.973234 0.286827 0.510948 -0.351623 0.536756 0.137349 0.783491 -0.595230 0.048681 -0.390376 -0.015022 -0.658830 0.124641 -0.786169 -1.420309 0.075933 0.142107 0.580676 0.355295 -0.141518 0.441312 -0.084818 -0.378701 -0.300654 -0.385548 0.335938 0.574557 0.030179 -0.476338 -0.034010 -0.334000 0.282981 -0.672541 0.180250 -0.148769 0.375690 0.431334 -0.477764 0.197520 -0.534247 0.194471 1.644580 0.614535 0.051388 -0.546083 -0.012933 -0.288700 -0.376201 -0.155871 -0.729335 -0.367638 0.513967 0.630802 0.862521 0.023326 0.104872 -0.477523 0.192451 0.391781 -0.169766 0.607612 0.054562 -0.504150 -0.037899 -0.431549 0.432811 0.279841 -0.098872 -0.130839 0.365862 0.130070
input 0.671388 -0.579573 0.215524 1.225684 0.518064 0.389270 0.033928 0.179191 0.447807 0.577435 0.671929 -0.261467 0.789944 0.434212 -0.651499 0.838812 0.085484 0.691297 -0.141339 -0.796994 -0.407517 0.324919 -0.134733 0.477689 -0.132465 -0.867588 0.145158 0.310682 0.420274 0.222325 0.195688 0.251653 0.222403 0.155041 0.107057 0.553090 -0.819720 0.156067 0.013337 0.226692 -0.488003 -0.209279 -0.107144 0.466838 -0.155739 -0.203706 0.260741 -0.488075 -0.270246 0.950499 -0.624293 -0.500150 0.548228 0.341385 -0.023552 -0.365942 0.121180 0.557759 -0.556921 -0.286219 0.400462 -0.187445 0.163092 -0.337785 -0.393156 0.591072 0.404006 0.363276 -0.779546 0.154064 0.506414 0.188195 0.743504 0.277667 0.132484 0.316101 -1.043737 -0.517851 -0.176017 0.172437 -0.204165 -0.475468 0.583033 0.239052 -0.290599 -0.058136 0.111254 -0.660661 -0.847169 -0.690042 0.225186 1.062278 -0.761742 -0.739604 -0.045826 0.512158 0.345433 0.126990 0.005356 -0.414859
so -0.188774 -0.742436 -0.025280 1.115265 0.585779 0.410668 -0.031494 1.485547 -0.191518 0.606808 -0.639765 0.153116 0.581507 0.759939 -0.002147 -0.072391 -0.006918 0.010936 0.049103 -0.120732 0.635239 0.715689 0.232560 -0.292341 0.882236 -0.304843 -0.584393 -0.127156 0.167238 0.340532 -0.385298 0.227575 0.298930 0.070649 -0.203835 0.500502 -0.684229 -0.033809 0.111803 -0.324812 -0.240280 0.253208 -0.165627 0.086140 0.563725 0.276713 -0.160497 -0.826553 0.672265 -0.114333 -0.218225 -0.351421 -0.929964 -0.356055 1.035346 0.097515 0.582858 -0.051016 0.472929 0.435176 0.450565 -0.558614 0.685248 0.589869 0.074311 -0.575884 -0.334985 -0.562813 -0.964430 -0.477900 0.942489 -0.386507 -0.247623 -0.378852 -0.424725 0.385208 -0.487587 0.018971 -0.410217 -0.339632 0.417984 0.643258 0.576505 0.038911 0.515333 -0.255719 0.248099 0.132239 -0.828966 -0.328471 0.137243 0.159960 -0.341605 0.061268 -0.376800 -0.036068 -0.822786 0.201152 0.617527 -0.030054
important 0.213389 -1.521292 -0.531836 0.556579 0.525613 0.766844 0.600535 0.267047 0.372843 -0.350986 -0.802502 0.819858 -0.405046 0.074390 -0.044616 0.094706 1.035987 -0.445903 1.011216 0.670089 0.335473 0.116178 -0.305763 -0.396748 0.137952 -0.113736 0.139259 0.666110 -0.281356 0.142398 -0.107532 0.723198 -0.648361 0.127149 -0.559108 0.639407 -0.641802 -0.271885 0.070352 -0.136786 -0.133694 -0.041871 -0.392290 0.475933 -0.004595 -0.025901 -0.213989 -0.166213 -0.318706 0.440764 -0.003665 0.073421 0.048099 0.330471 0.008217 -0.241959 0.084332 -1.024420 0.008164 0.529837 0.425794 -0.013214 -0.000033 0.773399 0.612271 0.376352 1.725986 0.679839 0.807857 -0.004636 1.009035 -0.245759 -0.044713 -0.092971 -0.821664 0.157409 -0.540408 -0.253758 -0.396671 0.719480 -0.667192 0.431670 0.142952 -0.394413 0.299827 0.178968 0.556392 0.838931 0.852790 0.050334 -0.063783 0.169447 0.580031 -0.262761 -0.369913 0.324846 0.131307 -0.019136 0.208234 0.486716
key 0.009908 0.432405 0.318572 0.868812 0.080922 0.068228 -0.449699 -0.167198 0.022300 -0.514370 -0.111503 0.691448 -0.054409 0.498063 -1.024356 -0.328767 0.161907 -0.108024 0.270377 -0.438408 -0.631023 0.820814 -0.319971 0.793725 0.847884 0.957485 0.312638 0.459689 -0.350206 0.226998 -0.217075 -0.335704 -0.349768 0.556969 0.181874 0.121318 -0.433942 -0.188128 0.317776 -1.077864 -0.053262 0.109163 0.093557 -0.150510 0.430448 -0.325699 0.505434 -0.405289 -0.352345 1.203625 -0.581585 -0.580621 0.139326 0.500589 0.441144 -0.653494 0.082379 -0.335452 -0.284670 -0.540969 0.995501 -0.130777 -0.122744 0.195395 0.097753 0.784209 -0.681550 0.102539 -0.949871 -0.052091 0.041422 0.311046 -0.647013 -0.203716 -0.552151 0.504639 0.409043 -0.001161 -0.052603 -0.289520 -0.199583 -0.609752 0.162301 -0.356316 0.105940 0.165104 0.838735 -0.654210 -0.502630 -0.601899 -0.774531 -0.609523 -0.504516 0.503273 0.336657 0.333540 0.109128 -0.153971 -0.751446 -0.260704
does 0.318780 -0.447639 -0.320816 0.584416 0.107820 1.261752 0.467789 0.275045 0.443022 0.622263 0.228123 -0.508483 1.280512 -0.055188 -0.758920 -0.630013 0.006831 0.537933 0.299574 0.027400 0.250010 -0.296973 -0.505550 -0.586545 0.502010 0.590712 -0.269602 0.156733 0.004256 -0.001056 -0.380524 1.101995 0.804176 0.158412 -0.275193 0.721644 -0.241432 0.073192 0.428285 -0.502397 -0.131460 -0.039931 -0.647111 -0.117015 -0.501427 0.452145 0.170979 -0.245009 -0.603503 0.757000 -0.357767 -0.751747 0.072199 -0.086720 0.062271 -0.011292 0.194901 -0.115241 -0.637018 -1.029726 -0.741253 -0.081804 -0.204422 -0.488310 0.473206 -0.063111 0.104326 -0.026969 -0.168584 -0.143823 1.474774 0.379128 0.174084 0.423006 0.245736 0.664062 -0.634789 0.234751 -0.687957 -0.320304 -0.240175 -0.140828 0.758346 -0.159698 -0.246903 -0.266778 0.094993 -0.434248 -0.429491 0.079490 0.410605 0.405138 -0.082924 0.369709 0.241382 0.118321 0.201822 -0.469948 -0.311345 -0.249029
these -1.039701 -0.145461 0.522982 1.170783 0.926092 -0.500792 1.004324 0.048362 0.553579 -0.960762 -0.750046 0.387332 -0.276781 0.922963 0.319596 -0.056580 -0.038982 -0.094889 -0.142656 -0.161695 0.449520 1.112682 0.153015 -0.050345 0.570177 -0.226681 0.277736 0.212170 0.232942 -0.481802 0.275444 0.927418 0.352783 0.490786 0.437102 -0.002062 -0.158973 -0.141794 0.327815 0.065325 -0.491894 -0.369668 -0.578191 -0.372705 0.118100 0.014705 0.026111 0.153715 -0.369353 -0.114724 -0.018794 -0.416081 0.090708 -0.220596 -0.187372 -0.303260 0.206627 0.000586 0.516691 0.057580 0.248161 -0.401141 0.171209 0.367049 0.115019 0.605251 0.550018 -0.074964 0.129693 0.313101 0.819286 -0.057256 0.120195 -0.456444 -0.479408 -0.022226 -0.079545 0.179743 -0.325684 0.101561 -0.109449 0.241517 0.017804 0.866275 -0.079439 -0.640804 0.616827 -0.102092 -0.006955 0.213075 0.454781 -0.129490 0.498698 0.117028 0.260104 0.705934 -0.579254 0.449685 0.188431 0.175417
method -0.389816 -1.451231 -0.714450 1.013709 0.060141 0.137494 0.379394 0.051623 0.381500 0.742205 0.166319 -0.012889 0.480266 -0.065411 -0.038257 -0.204159 -0.785468 0.065081 -0.064147 1.241720 0.882496 -0.388535 0.404484 0.803991 0.400560 -0.435508 0.087627 0.587676 -0.476454 -0.826871 -1.531100 0.000794 -0.207690 -0.431744 -0.619780 0.877472 0.365530 -0.007265 -0.418261 0.028072 -0.484543 0.301563 -0.395171 -0.191810 -0.290873 -0.587220 0.787167 0.154328 -0.401834 0.554951 0.002427 -0.596098 0.410939 0.460779 0.372409 0.133476 -0.700392 -0.286596 0.389284 -0.712468 0.645282 -0.495440 -0.098948 0.290712 -0.162464 -0.288039 -0.118035 -0.799777 -0.264762 -0.350563 0.203652 -0.345349 -0.168770 0.392545 0.130574 0.565787 -0.514810 0.406541 -0.081992 0.291703 -0.544466 0.209353 -0.203711 -0.321391 0.717125 -0.114029 0.261162 0.853380 0.389008 0.300183 -0.552566 0.282060 -0.317341 -0.308345 0.177843 0.311364 -0.163568 -0.583501 -1.026649 -0.282200
edges 0.227512 0.496267 -0.383957 0.390849 0.477978 0.701003 0.130710 -0.513927 -0.003306 -0.277817 -1.025519 0.654429 -0.319747 0.943019 0.375128 -0.033578 0.267911 -0.221557 -1.151935 -0.787576 -0.553059 0.292754 -0.488045 0.265374 0.480687 -0.048795 0.266924 -0.007865 -0.546637 0.481999 -0.264572 0.044755 -0.444825 1.296321 0.374743 -0.536204 0.527931 0.236109 0.674314 0.248621 -0.283697 0.321736 -0.198623 0.461242 -0.262035 0.303321 -0.267257 0.336065 0.358449 0.527250 -0.815406 -0.930548 0.511063 0.245177 -0.813765 0.590032 -0.103040 -0.321361 0.703463 0.243469 1.175014 -0.314776 -0.286525 -0.003070 0.713313 -0.453006 -0.623241 -0.027042 -0.132858 0.404226 0.698769 0.218971 0.262517 -0.008190 0.308745 -0.455655 -1.207260 0.124222 0.101987 -0.089391 -0.071976 -0.207268 0.328799 0.692869 -0.028294 0.021574 -0.112018 -0.087938 0.119934 0.386807 0.227460 0.203454 0.347165 0.317859 0.452514 -0.544189 -1.070952 0.298738 -0.002112 -0.546163
