the -0.031609 -0.789418 -0.381445 0.183429 1.031191 -0.878247 0.338180 0.878362 0.723758 0.678402 -0.315453 0.493534 0.866281 0.366972 -0.528330 -1.189011 -0.135503 1.284901 0.707869 0.239709 1.368819 0.898768 0.380944 0.769696 0.763336 0.075656 0.265084 0.121088 -0.543879 0.864115 -1.206536 0.707936 -0.044153 0.247608 -0.495348 -0.058305 -0.926026 0.957775 0.264132 0.535374 -0.941334 0.946597 0.008119 0.465125 -0.093290 0.064960 -0.396712 -0.541015 -0.656056 0.509461 0.104950 -0.223509 0.954045 -0.498441 -0.316034 0.062381 -0.397275 -0.971107 0.277776 -0.807473 1.609403 -0.075583 0.282859 -0.905727 0.289434 0.294460 -0.307783 -0.449494 -0.293891 0.010066 0.185291 -0.091544 -0.601334 -0.190923 -0.423849 0.923859 -0.521548 1.533963 -0.156838 -0.757584 -0.022222 -0.540399 0.603710 0.570562 0.702948 -0.106872 0.038811 -1.684688 0.444053 -0.118194 0.073548 0.231409 -0.557458 0.902651 -0.960954 0.130571 -0.366982 0.340684 0.265523 -1.206922
of -0.801504 -1.330308 -0.427622 1.224842 1.071001 0.240580 0.791142 0.130182 -0.315665 0.507514 -0.787069 0.601074 1.053432 0.540218 -0.626190 -0.178367 0.829440 -0.363473 0.467680 0.313474 0.884808 0.277644 -0.218630 1.352412 0.311063 0.084913 0.357328 -0.651267 -0.965984 0.556527 -0.468570 1.367116 -0.491026 0.070453 -0.946727 -0.055140 -0.457474 0.363658 -0.359129 -0.682951 -1.030570 0.481475 -0.673382 0.205914 -0.850433 -0.264840 -0.083173 -0.298045 -0.360449 0.302259 -0.685392 -0.826570 1.902618 -0.132916 -0.066214 -0.706001 -0.350249 -0.006871 0.394258 0.090812 0.429553 -0.991778 0.140675 -0.989920 0.651537 0.717741 0.252835 0.419823 -0.405482 0.729440 0.448061 -1.466974 -0.684117 -0.118085 0.705667 0.576100 -0.168965 0.683564 -0.654598 -0.286291 0.240142 -0.094865 1.131680 0.847845 0.012428 -0.557317 0.381243 -0.815570 -1.114023 -0.168660 0.409448 0.431519 0.561052 0.401598 0.109648 -0.544914 0.111533 0.678602 -0.291672 -0.233599
a -0.895445 -1.171920 -0.761675 0.687064 0.794008 0.833898 1.097467 0.075690 0.229166 0.957377 -0.551703 0.310128 0.564590 -0.154854 -2.144852 0.739337 0.375724 -0.438952 1.372601 -0.091819 0.036727 0.249096 -0.342782 0.686162 0.854925 0.606350 0.203199 0.799001 0.165128 0.451294 -0.636431 0.314790 0.081364 0.333163 -0.791703 -0.666060 0.159329 0.564398 -0.078511 -0.113580 -0.169942 0.551979 -0.302324 0.614867 0.016582 -0.426974 -0.998649 -0.491117 0.034285 0.956422 -0.017885 0.429731 0.887200 -1.079804 -0.147592 -0.118393 0.833953 -0.648802 1.197115 -1.097273 0.710800 -0.264138 -1.252369 -0.250500 -0.116829 0.005873 -1.052435 -0.198211 -1.197368 0.406415 1.587435 -1.416655 0.362247 -0.421542 -0.045516 0.685893 -0.055791 0.247359 1.458030 0.487481 -0.491601 -0.085410 -0.308662 -0.656936 0.405429 0.139602 0.091410 -1.596481 -0.393506 -0.823912 0.951636 -0.239301 -0.849009 -0.082132 0.676938 -0.286466 0.261965 1.448080 -0.132815 0.459258
to -0.688843 -1.418372 -1.966696 0.359979 1.546899 -0.131278 -0.245917 0.296247 0.435659 0.481912 -1.072861 -0.118575 1.059286 1.210221 -1.040412 -0.214306 0.886571 0.019354 1.176822 -0.436596 0.454386 -0.399430 0.401139 0.084536 0.316095 0.240939 0.851376 0.685590 -1.373843 0.080082 -1.358167 0.148489 -0.097721 -0.192488 -0.293454 0.228843 -1.034141 0.050080 0.004616 0.195427 -0.048629 0.239693 0.593193 0.411455 0.009732 -0.035803 0.132419 -1.046315 -0.258347 0.718852 -0.616027 -0.198146 1.136584 0.208717 -0.830393 0.170805 0.572063 0.488128 0.907642 0.356731 0.686425 0.101219 -0.258428 -0.576083 0.514558 -0.163026 -0.171084 0.006863 -1.446658 1.730349 0.449605 1.652649 1.404830 0.758386 0.226715 -0.152804 0.528818 1.474095 -0.583518 -0.256328 0.321323 -0.528309 -0.509954 0.749960 0.160988 0.497126 0.647436 -0.350648 -0.373320 -1.002285 0.358672 -1.430091 -0.486686 -0.063039 0.342843 -0.467461 -0.171364 -0.388819 0.968995 -0.690634
in 0.124020 -0.954138 -1.681920 1.121028 0.968959 1.530167 1.293313 0.935330 1.282481 -0.605099 0.366076 0.185514 0.623050 -0.182934 -0.481505 -0.215592 0.201775 -0.214137 0.888730 -0.088559 0.891763 0.146946 -0.232584 0.664101 0.800556 1.318170 -0.033520 0.408224 0.095007 1.372033 -0.051430 1.151698 -0.521747 -0.621361 -0.259422 0.194192 -0.495847 0.271946 -0.897029 0.107079 -0.799018 0.642226 0.572922 0.571658 0.563439 0.075968 -0.055520 0.008661 -1.529163 0.216772 -0.811248 -0.744156 0.097628 0.197049 -0.468542 0.431447 -0.282128 -0.016100 0.290453 -0.211170 0.964581 -1.028428 -0.302280 -1.014374 0.489427 -0.150308 -0.759189 -0.130660 -0.609501 1.018899 0.370822 0.012203 -0.415433 -0.164094 -0.658228 0.665466 -0.050093 -0.130468 -0.693821 -0.092044 -0.765042 0.424383 0.112391 0.130545 -0.409948 0.302971 -0.149320 -0.958015 0.293362 -0.553971 -0.683027 0.380364 -0.867614 0.309834 0.267850 1.135160 -0.718956 0.371230 0.298630 -0.504495
is 0.241796 -0.254956 -1.129103 -0.136624 0.590933 1.920583 0.230454 0.659581 -0.008585 -0.011796 -0.703274 -0.153700 0.960936 0.035030 -0.084794 -0.517309 -0.108821 -0.807134 1.028954 0.880402 0.237012 1.587828 0.580138 1.229280 0.389316 -0.363995 0.085416 0.853027 -0.571555 0.519588 -0.939405 1.251201 -0.651270 -0.415284 -0.617668 -0.411909 -0.358872 0.645605 0.584552 0.795084 -0.127242 1.136742 0.241988 -0.058721 -0.063974 -1.282026 -0.438984 0.133247 0.469291 0.614971 -0.185441 -1.135414 0.915047 0.171026 -0.031440 -0.875020 0.332315 -0.661400 0.489062 -0.130693 0.286048 -0.686623 0.283015 0.063950 0.753217 0.125431 -1.006042 0.423691 -0.804686 0.021149 1.350419 0.555410 0.140569 0.450359 -0.436768 -0.357266 -0.436645 1.188942 -0.123801 0.811306 0.029948 0.489412 -0.558512 0.493892 -0.306255 -0.364217 0.395127 -1.555639 -0.393267 -0.630130 -0.274072 -0.841742 -0.947162 0.353876 -0.602932 0.276882 0.190967 0.633352 0.065235 -0.150489
and 0.710499 -1.892400 -0.235365 0.568912 0.282045 -0.524721 0.916332 1.458774 -0.246513 0.800057 -0.315367 0.531154 0.092660 -0.153947 -0.120144 -0.824896 0.450828 -0.516183 0.046002 0.068649 0.377108 1.160076 -0.603545 0.023351 0.520246 0.458005 0.846189 -0.197556 -1.049927 1.456592 -1.097548 1.252883 -1.035429 0.909831 0.352079 -0.245527 0.094728 0.518619 0.149659 0.192225 0.248696 0.250374 -1.164421 0.687248 0.019970 1.027516 -1.684455 -0.725505 0.125552 0.188032 -0.311276 -0.195315 0.347785 0.121050 0.017851 0.583968 -0.121462 -0.388784 1.048006 0.888725 0.876725 -0.292710 -0.694646 -1.022203 0.300570 0.893849 -0.668793 0.049220 -1.167340 0.295972 0.709532 1.000338 0.304526 0.553203 0.450959 0.127203 0.579863 0.738489 -0.653750 0.557916 -0.895326 0.555444 0.420234 0.667793 0.169634 -0.607646 -0.216436 -0.779764 -0.477073 -0.491449 0.761526 0.802823 -0.428885 -0.028712 0.520338 -0.014708 -0.233713 -0.089307 -0.539986 0.385797
for 0.700296 -0.769286 -0.071944 1.580052 -0.106194 -0.960472 0.452031 0.958646 1.049593 1.019110 -0.211073 0.256644 0.453704 -0.084956 -0.781507 -1.006907 0.974259 -0.450538 -0.072975 0.093574 1.033469 0.222778 0.204223 0.127996 0.888292 -0.550370 0.754709 0.439526 0.145420 0.695890 -0.737007 0.572918 -0.078493 -0.555685 0.258486 0.090098 -0.809338 -0.151495 -0.046572 0.376449 -0.671087 0.287546 0.240769 -0.032790 0.263286 -1.270010 -0.080932 -0.847498 -0.183434 0.137347 -0.549885 -1.101080 1.147236 -0.846902 -1.321855 0.449092 0.206141 -0.910673 0.286351 -0.946624 0.851763 -1.474524 0.408991 -0.737967 0.017231 -0.195082 -0.188288 0.049849 -1.601321 -0.520607 1.220123 0.473446 0.738744 0.653018 -0.117636 0.758278 1.143255 -0.085575 -0.059196 -0.215527 -1.132162 0.688781 -0.136821 0.865302 0.333325 0.364851 0.574789 -0.662544 -1.461008 -0.349154 -0.850493 -0.186965 0.337339 0.575565 0.390446 1.032598 0.288298 0.971191 -0.371418 0.493477
n 0.067637 -1.282188 -0.411766 0.292521 1.437367 0.304833 0.879091 1.224027 -0.354197 0.953319 0.170677 -0.038884 2.130081 0.106924 -0.905771 1.443094 -0.193015 -0.438805 -0.043403 -0.121952 1.581727 1.346972 0.142604 1.461319 -0.513810 -1.292752 0.350780 0.648634 -0.306467 -0.017727 0.318304 1.375472 -1.361327 0.363119 -0.067013 0.003523 0.374271 1.191269 -0.367127 -0.107520 -0.097585 -0.399373 -0.315581 0.128354 0.506349 0.184798 0.329878 -0.858322 -0.292177 0.943020 -0.541851 -0.650854 -0.179104 -0.501612 -0.044924 -0.574300 0.161414 -0.498644 0.683829 -0.325000 0.766994 0.100798 0.696505 -1.201147 -0.680332 -0.195670 -0.427160 0.010871 -1.222124 -0.280529 0.222683 0.459627 1.319251 0.126478 -0.088088 0.474189 0.299904 -0.159708 0.277734 -0.460323 -1.456391 0.572995 0.104055 0.567506 -0.411481 -1.117866 0.330306 -0.027768 -0.932984 -0.890001 -0.365683 -0.427695 -0.288325 -1.236659 -0.346801 0.295270 -0.423344 0.069792 0.006297 -0.891507
algorithm 0.273552 -1.772136 -0.247884 0.323462 0.509064 0.746155 -0.803542 0.738120 0.442395 1.160912 -0.458684 0.091606 1.036586 0.058898 -0.934101 -0.113330 -0.542072 0.517104 0.303655 0.554005 1.543796 -0.979508 -0.774223 0.498034 0.435092 -0.097597 0.654410 0.751443 0.464947 0.216603 -0.515996 0.959809 0.537339 0.016450 -0.258668 0.343383 -0.701283 1.028529 -0.587101 0.176460 -1.154736 0.489584 -0.433162 0.959585 -0.714265 -0.577631 -0.571118 -1.179869 -0.228148 0.256060 0.300086 -1.004549 0.326826 0.334075 0.007911 0.313808 -0.178672 -0.040140 0.102494 -1.337426 1.015545 -0.661923 0.547004 -0.188873 -0.739561 0.902791 -0.506089 -0.083214 -0.142280 0.451608 1.068496 0.156591 0.561424 0.528693 0.253078 0.100981 0.058203 0.384507 -0.424818 0.712095 0.084943 -0.391338 0.762757 0.533239 -0.210149 -0.953832 -0.435171 -1.509876 -1.088804 0.380181 -1.335150 -0.035141 -0.870873 0.565036 -0.524252 -0.118597 0.051226 -0.341556 -0.495365 0.602304
that -0.213189 -0.600912 -0.174731 1.585039 0.558764 0.388685 0.191977 0.327283 -0.313947 0.661213 -0.044260 0.007278 1.008034 0.162990 -1.199724 -0.463011 0.293028 0.221559 0.976583 0.128024 0.870961 0.737743 -0.050869 0.104158 0.639618 0.903966 -0.225070 0.049425 0.373237 1.067572 -1.181212 1.157503 1.064186 -0.253750 -0.202355 0.362217 -0.798172 0.742321 -0.026771 -0.283430 0.418942 0.337801 -0.487996 0.369517 0.238164 -0.582314 0.059309 -0.469513 0.438742 -0.154831 -0.446551 -0.813092 0.575461 0.190769 0.442470 -0.246394 -0.053849 -1.621651 1.503034 0.355663 0.874013 -0.315848 0.713034 -0.489433 -1.040136 -0.071950 -0.431594 -0.602864 -0.269808 0.421076 1.269856 0.274766 0.330235 -0.010179 -0.271517 -0.016830 -0.878828 -0.313436 -0.797473 0.900669 -0.738940 0.193491 -0.164921 0.389267 -0.442970 -0.542323 0.730923 -0.235306 -0.049140 0.408635 -0.376483 -0.771383 -0.194330 0.481670 -0.357750 -0.039523 -0.657759 0.821124 1.847682 -0.709836
an 0.219985 -1.765143 -0.459594 0.916731 -0.231783 0.675032 -0.003759 -0.010455 0.798441 0.410200 -0.234375 -0.653746 0.673389 0.213851 -2.156021 0.478956 0.498721 0.112776 0.872238 -0.140999 1.529209 -0.100859 -0.037510 -0.104969 -0.160359 -0.259970 -0.061672 1.039767 -0.534425 0.687504 -0.891401 0.349909 -1.550552 -0.538960 -0.358733 0.111027 -0.363153 0.861350 -0.404635 -0.239361 -0.065906 0.433377 -1.040416 0.823300 -0.567402 -1.411547 -0.815043 -0.483323 -1.024540 -0.211326 -0.215559 -0.892881 0.735895 0.031042 0.890561 -0.119385 0.411277 -0.595220 -0.398844 0.079530 0.404579 0.396238 -0.069443 -0.409384 0.961921 0.607656 0.493562 0.789581 -0.695818 -0.439489 -0.040169 0.393153 0.966577 0.366319 -1.001652 -0.096818 -0.244151 -0.102741 -0.369446 0.556158 -0.628530 0.416126 1.045484 0.340746 0.430334 0.288407 -0.646832 -0.829734 -1.444326 0.402123 0.586542 0.340330 -0.124773 0.215600 0.486551 -0.223092 0.001519 0.876167 0.965897 -0.500860
by 0.521458 -0.407160 -0.809560 0.432973 0.261460 -0.055938 -0.656395 0.724729 -0.058157 0.107627 -0.004216 -0.410821 1.486192 0.665302 -0.064190 0.026329 -0.400171 -0.942878 0.252369 -0.333616 0.027657 0.449974 -0.374436 0.626181 -0.115512 -0.340506 0.362637 0.412250 0.441322 -0.298808 -1.073878 -0.385674 -0.247945 -1.120298 -0.307983 -0.637499 -0.747265 0.482232 -0.075295 -0.732969 -1.284339 -0.817624 -1.280224 0.693990 0.436350 0.475439 -1.138219 -0.674091 -0.741403 -0.037524 -1.050529 -1.127087 0.801977 -0.386836 0.771436 -0.252073 -0.172681 -1.201147 0.339097 -0.753577 2.290405 -0.205679 0.589897 -1.111971 0.367240 0.453038 -0.900713 0.672172 -0.027777 0.651733 1.861650 -0.295978 -0.553703 0.007132 -0.110715 -0.192617 -0.448981 0.551599 -0.628777 0.478677 -0.357060 -0.708146 0.819725 0.630374 0.340392 0.670535 -0.745661 -0.444987 -0.318963 -0.575776 -0.319483 0.950460 -1.511944 0.113600 1.550623 -0.086714 0.012708 0.564224 0.091192 0.031475
this -0.490185 -1.040231 -0.888370 -0.047229 0.478489 0.735193 -0.168741 1.617491 0.763259 0.583031 -0.788001 0.690050 1.265214 0.669163 -0.139622 -0.232941 0.503883 -0.066786 0.919083 1.483296 -0.351233 0.532818 0.040119 0.585362 0.573920 -0.323884 0.280676 0.751402 0.157786 1.141584 -0.807961 0.890828 0.272698 -0.120873 -1.061082 0.965570 -0.735221 0.397282 -0.464220 -0.223954 0.135706 -0.463637 -0.768091 0.510134 -0.328790 -0.134149 0.345603 -1.103223 -0.828858 -0.196359 -0.465979 -0.683706 0.985878 -0.934232 0.321311 -0.021463 0.487755 -0.162179 -0.200824 -0.392755 0.156581 -0.060349 0.471462 -0.467778 0.175223 -0.499176 -0.168809 0.405436 -0.514099 0.044380 0.743589 -0.254721 -0.290250 0.355330 -0.532733 -0.583603 -0.480229 0.353943 -0.271267 -0.479351 0.372081 -0.139446 -0.110867 0.426467 -1.004737 -0.620161 0.307021 -0.695384 0.106134 -0.281614 -0.315843 -0.376412 -0.061637 0.854982 0.732812 0.922086 -0.525078 0.322632 0.229168 0.067411
be -0.410734 -1.221832 -1.671945 0.685350 0.042714 0.317807 0.571768 0.362405 -0.178937 0.538016 -0.317532 0.251635 -0.012570 0.919437 -0.861846 -0.199941 -0.298459 -0.375247 -0.113182 0.491133 1.457393 1.092930 0.108043 0.637600 -0.649328 0.610162 1.121486 0.161237 -0.446429 -0.569094 -1.318466 1.154194 -0.816684 -0.279887 -0.663263 -0.488451 -1.572610 -0.422969 1.025265 0.029347 0.030041 0.677151 -0.041621 0.317321 0.111658 -0.029035 0.224023 0.036525 -0.273135 -0.311292 -1.241081 0.134827 -0.540139 -0.175999 -0.618146 -0.673483 0.269306 -0.365559 0.222673 -0.592431 0.717161 -0.387065 0.065086 -0.217222 0.517166 0.707903 -0.675183 0.247356 -0.868687 0.132251 0.530301 -0.246089 0.081892 0.171245 -1.167901 -0.473508 0.220662 0.189926 -0.647768 0.205624 0.061146 -0.009007 0.152627 1.672717 -0.815033 0.966909 0.100650 -0.642941 -0.663294 -0.705909 -0.808202 -0.473500 -0.602635 0.591379 0.304198 -0.177149 -0.586508 0.273788 1.082232 0.489362
we -1.087672 -0.792873 -0.391625 0.027350 -0.498806 0.012714 1.249037 1.103093 0.584134 0.243480 -0.617272 -0.231176 1.517199 0.651204 -1.266170 0.483698 0.498773 -0.339513 0.641599 -1.123008 1.388062 1.621500 -0.527233 0.070199 1.400808 -0.126620 1.086958 0.617083 -0.232856 0.840020 -0.429761 0.179128 0.290753 -0.529161 -0.151670 1.361660 -0.768197 0.223416 -0.683158 0.089985 0.203974 -0.105742 -0.297398 0.022477 -0.368243 -0.262305 -0.236824 -0.697392 -0.154501 0.515071 -0.519742 -1.093286 1.049052 0.113930 1.066104 0.503378 0.049658 -0.506945 0.519868 -0.579215 0.334574 -0.696378 0.132168 0.018740 0.344372 0.497037 -0.703866 -0.298805 -0.060989 -0.090512 0.773184 0.485278 -0.427256 0.662962 -0.314874 0.205489 0.158431 0.122153 -0.785863 -0.531316 0.184192 0.068508 -1.166783 0.936841 -1.500500 -0.047761 -0.374548 -0.686404 -0.020831 -0.100791 0.470942 -0.264802 0.266755 -0.075420 0.567681 -0.055740 -0.032602 0.153723 -0.292040 -0.732046
problem -0.300871 -0.939292 -1.908669 0.883352 0.701011 -0.845763 -0.223624 0.883342 0.546234 1.984206 -0.836475 -0.078496 0.748822 0.072713 -0.304362 -0.619324 -0.191738 0.751193 1.511535 0.640021 1.275356 0.234891 0.243422 0.162662 0.189679 0.999879 0.596897 0.227514 0.141829 1.049071 -1.269211 1.292755 -0.400277 -0.050586 -0.711570 -0.077895 -0.126935 -0.549886 0.038138 -0.033400 -0.539250 0.496678 -0.541113 -0.058566 -0.414520 -0.699021 0.146906 -0.410543 -0.646940 0.304046 -0.510333 -0.349648 0.172175 -0.200814 -0.020973 0.578019 -0.857792 -0.958434 -0.303177 -0.665166 -0.142124 -0.080217 0.335279 -0.046435 0.151975 0.475826 -0.754365 0.701017 -0.062299 -0.001774 1.306326 -0.679962 0.972020 0.622806 -0.145248 -0.776418 0.238788 0.600294 -0.410374 -0.436374 -0.307347 -0.539644 -0.861571 -0.101749 -0.119538 -0.040523 0.277737 0.695351 -0.484752 -0.734696 0.203643 0.190804 -0.293536 -0.222999 0.308958 0.744958 -0.683745 1.353009 0.173436 -0.500250
can -0.909896 -1.106169 -1.022133 0.125889 -0.156145 -0.542647 0.240756 0.547620 0.130385 -0.042766 -0.764622 0.271214 0.657947 0.210639 -1.366907 0.243132 -0.073943 -0.062196 0.335460 0.210179 1.389574 1.530655 -0.289347 -0.120940 -0.251553 0.183451 1.619760 -0.080780 0.098542 -0.463911 -0.880466 0.945471 -0.179804 -0.341220 -0.596712 -0.110941 -1.503221 0.593720 0.012255 -0.043005 -0.299254 0.312658 -0.595056 0.018763 -0.143978 0.455950 -0.119806 -0.147412 -0.104349 -0.107796 -1.226291 0.017539 -0.175092 -0.335781 0.046521 0.067762 0.595202 -0.732532 0.612243 -0.591981 0.471574 -0.344274 -0.062728 -0.162273 0.341650 0.564420 -1.121709 0.181749 -0.124114 -0.170388 0.598571 0.108106 0.068308 -0.125692 -0.898367 0.250488 0.629600 -0.034589 -0.570357 0.361557 0.301062 -0.463591 -0.289725 1.011094 -1.457159 0.306819 -0.425484 -1.106284 -0.209937 -0.121358 0.245664 -0.645887 -0.474224 0.050914 0.802433 -0.148408 -0.447050 0.551565 0.666497 -0.156105
are 0.236049 -0.514293 -0.578010 1.096366 0.539800 -0.026375 0.969482 0.914287 -0.288673 -0.873022 -0.832259 1.117201 0.078422 0.874659 -0.522175 -0.045101 -0.266240 -0.352201 -0.226659 0.613938 1.446221 0.277403 0.280827 0.209179 -0.450002 0.962884 0.780182 0.373972 -0.236324 0.535904 -0.622099 0.755425 -0.451469 0.515121 0.500255 0.191214 0.164823 0.502739 0.621581 0.161891 -0.962739 0.332578 0.424583 0.632689 0.407200 -0.140526 -0.254748 -0.365301 0.427918 0.916260 -0.208945 -1.184073 0.953003 0.564140 0.458441 -1.194391 -0.674366 0.026197 0.764964 -0.220965 0.783080 -0.258015 0.037935 0.549596 1.162325 -0.092540 0.874922 -0.222635 0.181035 0.819348 1.347712 0.463919 0.361306 -0.244729 -0.486119 0.441881 0.265228 0.857146 -0.281582 0.291429 -0.434535 0.523211 -0.042280 0.772519 0.161561 0.141585 0.943888 -0.322694 -0.425901 -0.550227 0.338910 0.560889 -0.757154 -0.238642 -0.156548 0.481954 -1.082759 0.954129 0.321836 0.516573
with -0.670389 -0.974313 0.370682 0.909986 0.456090 0.758765 0.371052 1.076205 0.752860 0.311528 -1.852326 -0.042790 0.415303 -0.515940 -1.304405 -0.336546 0.686898 -0.308144 0.592166 -0.589218 0.003083 0.820080 0.389262 0.128699 0.602091 -0.236936 -0.536711 0.324149 0.327613 0.348428 -0.171038 -0.179647 0.096267 0.787373 -0.833441 -0.454415 -0.451754 -0.243301 1.223227 -1.097361 -0.542014 0.225201 -0.255016 0.853199 -0.626916 0.569161 -0.588367 -0.589849 -0.013116 0.677178 -1.320340 -0.853554 0.781160 0.563606 -0.523497 -1.010996 0.275935 -0.508056 0.604232 -0.761143 1.243599 -0.176412 0.387291 1.045039 0.295040 1.136481 -0.181947 0.178175 -0.676820 -0.038299 -0.485229 0.655498 0.549267 -0.196841 -1.002168 -0.749227 -0.585923 0.277163 0.049613 -0.351199 0.084993 -0.462217 -0.076877 1.032550 0.425327 0.297552 0.470043 -0.843809 -1.105833 0.130333 0.825539 0.295428 -0.745330 0.140942 -0.225462 0.996239 -0.878512 0.397405 0.240437 -0.495531
it 0.379169 -2.011316 -0.773543 -0.046222 0.629144 1.152821 -0.101820 0.017367 -0.307470 1.055095 -0.228368 -0.208797 0.799969 0.069443 -0.460803 -0.739556 0.006523 -0.054041 0.300767 0.203923 0.246502 0.754467 -0.385591 0.676735 0.253878 -0.321769 0.207901 0.094845 -0.407807 0.595368 -0.892462 0.730812 -0.202759 0.126612 -0.267154 1.107753 -0.114097 0.329731 0.041671 0.606005 0.310268 1.026919 -0.583913 -0.613426 -0.175125 -0.244447 -0.001982 -0.488722 0.419072 -0.295939 -0.321139 -0.853108 0.396591 -0.481912 0.346953 -0.252165 0.424449 -0.622660 0.022031 -0.621698 0.351260 -0.885670 0.096867 0.124324 -0.292583 -0.233603 -0.901494 0.454515 -1.243732 0.813345 1.013127 1.298889 0.007173 -0.160886 -0.110848 -0.300010 -0.309773 1.045310 -0.135686 0.354883 0.047718 -0.473631 0.360215 0.195882 -0.032111 -0.491017 0.188158 -0.495379 -0.462015 -0.060136 0.028673 -0.619266 -0.431036 0.380147 0.485139 1.184708 -0.526794 0.877375 1.055275 0.614402
as 0.641130 -1.691678 -0.827822 0.372577 -0.370311 0.433652 0.908516 0.470403 -0.462285 0.256000 -1.853833 0.124320 0.487468 -0.288478 -1.367446 0.200505 0.230071 -0.245471 0.170318 0.157351 0.380778 -0.152122 0.376981 0.319773 -0.094584 -0.243872 0.572587 0.083787 -0.118659 0.762914 -0.491177 -0.107341 -0.623830 0.147134 -0.315373 -0.144391 -1.230486 -1.093586 -1.088290 -0.166325 -0.245178 1.560181 -0.774392 0.089873 -0.228095 -0.138554 0.135302 -0.125103 0.505703 0.704098 0.094098 -0.284932 -0.285693 -0.353834 0.422549 -0.075385 -0.060073 0.006483 -0.361051 -0.622811 1.004157 -0.612713 -0.140674 -0.529745 -0.191008 -0.003331 0.159886 -0.866482 -0.327063 -0.172452 1.345486 0.841370 -0.803732 1.642368 -0.296060 0.673182 -0.442608 -0.548827 -0.562938 0.175057 0.662187 -0.005754 0.988188 0.807940 -0.786782 -0.009198 0.130123 -0.558345 -0.538597 -0.687207 -0.118165 0.175537 -1.027069 -0.015786 -0.236515 -0.440469 -1.513766 0.928430 -0.184705 -1.207970
b 0.053172 -0.307238 -0.246440 0.817003 0.447415 -0.253506 0.765921 1.235075 0.054841 0.427402 -0.806273 0.593764 1.083364 -0.293629 -1.176677 -0.539689 -0.679486 0.460445 0.019463 -0.193024 -0.147305 0.503606 -0.711078 0.323865 0.651971 -0.058799 -0.761392 0.853405 0.610983 0.343775 -0.617664 0.532573 -0.135078 0.546761 -0.566862 -0.612496 0.615738 0.351636 0.187669 -0.415057 -0.951609 -0.136702 -0.289943 -0.345195 -0.178958 0.241456 0.259688 0.891281 0.079597 0.899484 -0.986723 0.473040 0.512105 -1.025484 -0.040956 -0.115140 0.389889 0.130846 0.684422 -1.198226 0.519326 0.046831 0.357514 -1.124754 0.021083 0.158873 0.127075 0.087141 -0.701704 0.042603 0.688618 -0.003595 1.398241 0.260097 -0.135917 -0.165513 0.436196 -0.016088 0.631790 0.643289 -0.622339 -0.175918 0.755292 0.692645 -0.858157 -0.320493 0.126121 -1.186729 -1.421623 0.342724 0.853245 -0.509472 -0.631041 -0.061740 0.735124 -0.118151 -0.932220 0.470873 0.135902 -0.064459
on -0.118786 -0.753454 -0.026554 0.746421 0.254679 0.269258 -0.089961 0.769253 0.414463 1.072153 -0.010858 0.075591 0.188907 1.362655 -0.784872 -0.509888 -0.953731 0.402610 0.559950 1.144199 0.938442 0.713697 0.015679 0.835897 0.098901 -0.613544 0.348035 0.622190 -0.032960 0.911844 -1.023336 0.641453 0.142726 0.963056 0.537874 0.246212 -0.205255 0.339978 0.195058 -0.760392 -1.246978 -0.306020 0.344394 -0.222364 0.962285 0.019855 -0.912473 -0.409646 -1.221055 0.203144 -0.666656 -0.414859 -0.161657 0.642337 0.559787 -0.603274 1.648868 0.258106 0.816261 0.385169 0.235681 -1.508683 0.121735 0.013804 0.558565 0.408316 0.323573 0.365312 -0.865376 -0.019857 0.661293 0.075774 0.057495 0.168431 -0.248420 0.841903 -0.831042 -0.365056 -0.364029 -0.643760 -0.252645 -0.493901 0.049964 0.551800 0.432788 -0.631862 -1.225531 -0.454513 0.097440 -0.991316 0.155615 0.220243 -0.239542 -0.335681 -0.461660 0.029247 -0.888319 1.195435 0.182677 0.051228
if 0.355686 0.143141 -0.360689 -0.211997 0.417144 1.150159 0.207102 0.952822 0.185686 0.822552 -0.516836 -0.299655 0.912841 0.762832 -0.587368 -0.248769 0.172664 0.026762 0.447502 -0.415966 0.667843 0.919807 -1.026551 -0.132549 0.613072 -0.189666 0.298220 0.165155 -1.023172 0.014413 -0.695929 0.171290 -0.486577 0.121844 -0.449453 0.712606 -0.956404 -0.003715 0.877089 0.142801 -0.446900 0.350998 -0.378231 0.507535 -0.175532 0.004245 0.438696 -0.283136 0.418655 0.203303 -0.490275 -1.040382 0.510325 -0.447829 0.396537 -0.351995 0.014425 0.003696 0.840058 -1.090451 -0.098240 -0.865687 -0.117116 -0.142912 1.094349 -0.786775 -0.503591 -0.086262 -0.789863 -0.357065 0.528959 0.684454 0.984693 -0.318242 0.037129 0.630965 -0.142045 -0.239108 -0.903424 0.375621 -0.894503 0.324928 0.208106 0.562766 0.229436 0.245521 0.235367 -1.226654 -0.172225 0.723090 0.372249 0.253572 -0.539619 0.004786 0.528865 0.591185 -0.451840 0.313564 -0.374179 -0.252713
not 0.508116 -0.564009 -0.989083 0.209211 0.491665 1.109496 0.484296 0.905703 -0.320598 -0.272407 -0.029793 0.162046 1.496706 0.734790 -0.549719 -0.677248 -0.170645 -0.301889 0.017429 0.009157 0.171781 0.970886 0.246325 -0.718837 0.320832 0.859229 0.605067 0.265540 0.191954 -0.879552 -0.067403 1.278892 1.205258 -0.212551 -0.941680 0.128445 -0.470985 0.523506 0.184905 -0.335200 -0.370412 0.680347 -0.917284 -0.013715 0.221595 0.471813 -0.447004 -0.281354 -0.356245 1.374220 -0.686138 -0.198772 0.913675 -0.249295 -0.078771 -0.192239 0.686817 -0.646955 0.084995 -0.960840 -0.610474 -0.842088 0.093373 -0.128344 0.803024 0.060051 0.702245 0.095581 -0.160853 -0.349774 1.153349 1.379294 0.394663 0.347399 -0.212038 0.688361 -0.356381 0.655682 -0.786566 0.036550 -0.375138 -0.934100 -0.891713 0.119291 -0.255909 -0.165828 0.001714 -0.717345 -0.624068 -0.139191 0.129941 -0.122593 -0.032680 1.239864 -0.012095 0.256302 -0.530529 0.775526 0.820971 -0.187152
c -0.014172 0.217591 -0.757163 0.541175 0.226840 -0.206558 0.957801 0.943384 -0.274068 0.616035 -0.760027 0.484773 1.133345 0.595415 -0.712485 -0.814089 -1.130151 -0.237160 -0.240655 -0.815160 -0.206787 0.219971 -0.620886 0.509938 0.638861 -0.204683 -0.955794 0.265673 1.307699 0.478334 -0.266468 1.385942 -0.840986 0.318934 0.009314 -0.233966 -0.353468 -0.080393 -0.287472 0.068842 -0.271125 0.335082 0.715572 -0.458254 -0.729827 0.180323 -0.094330 0.784990 0.107416 0.878355 -0.180106 0.296496 0.255616 -1.761803 0.076394 0.143260 0.386279 -0.175730 0.215721 -0.751957 0.184221 0.692187 0.201147 -1.088015 0.387085 0.373987 -0.084818 0.756145 -1.030606 0.140890 0.992427 0.405959 1.119368 -0.250402 -0.252406 0.450877 0.327692 -0.012563 0.337775 0.894436 -0.646956 -0.198040 0.512228 0.427511 -0.557451 -0.022853 0.057504 -0.670030 -0.873538 0.524406 0.324763 0.003276 -0.459445 0.255795 0.336056 -0.207311 -0.960462 -0.467451 0.549895 -0.067681
its 0.878450 -0.863515 -0.978997 0.590819 0.334543 -0.042477 -0.060051 0.458758 0.513446 -0.269278 -1.403998 0.532097 0.632314 -0.015944 -0.269961 -0.264231 0.085297 0.007440 -0.155490 0.058170 -0.893758 0.559177 -0.475514 0.243898 0.399893 0.272405 -0.021709 0.167245 -0.559965 0.091401 -0.123097 1.420982 -0.600461 -1.104144 -0.230374 0.477295 -1.290384 0.375093 1.232679 -0.406221 -0.752025 0.735655 -0.656394 0.690811 -0.587050 -0.164024 -0.737677 -0.881069 -0.656303 0.040913 -0.912679 -0.879499 0.203853 -0.542619 1.436427 -0.151556 0.109190 0.004719 0.271231 -0.060213 0.261264 -0.925774 -0.068959 -0.608403 0.470719 1.165046 -0.614967 -0.194872 -1.218976 0.004922 0.187943 0.190156 0.636878 -0.070867 0.525830 0.311925 -0.393262 0.465848 0.679091 -0.107702 -0.215137 -0.606203 -0.215999 0.094757 0.210344 0.602411 -0.235241 -0.520298 -0.495194 0.018975 -0.954099 -0.146336 -0.275148 0.062467 -0.795490 0.411034 -0.064030 0.614762 0.120082 -0.406515
i 0.337990 0.118663 0.771587 0.615675 0.468613 0.209134 0.928610 0.608130 -0.335329 0.673628 -0.147244 0.879737 0.705996 0.995392 -0.792739 0.583366 -0.677535 -0.182325 -0.468642 -0.998883 -0.160986 0.720666 0.209179 -0.176030 -0.392101 -1.179560 -0.164130 -0.141195 -0.196336 -0.559335 -1.075089 1.203133 -0.337860 0.441199 0.363577 0.105936 -0.032399 -0.282868 -0.247510 0.175405 -0.266640 -0.185083 -0.716081 -0.074039 -0.268322 -0.880005 0.224569 -0.951531 -0.591773 0.088288 -0.462926 -0.791763 -0.174584 0.217614 -0.253582 -0.830522 -0.354580 0.026403 -0.046558 -0.352809 0.527401 -0.697409 0.199406 -1.255141 0.221545 -1.302322 -0.482946 0.400388 -1.181186 -0.215754 0.714580 -0.161414 1.149889 0.051886 -0.658223 0.542079 0.586968 -0.428512 0.097081 0.197077 -0.421007 -0.296277 -0.241110 0.171942 0.405996 0.403498 0.305347 -0.606934 -0.337268 -0.181367 -0.188911 -0.516243 -0.375911 -0.300439 -0.420225 -0.335620 -0.896599 -0.442193 0.069864 -1.134137
algorithms 0.352696 -1.757711 -0.262329 1.413694 0.824738 0.219449 0.380387 0.665153 0.663730 -0.123577 0.174810 0.205444 0.516303 0.945826 -0.515831 1.044268 1.101420 0.518603 0.781284 0.733538 0.094069 0.012878 0.116253 0.561537 0.578439 -0.593966 0.431177 0.713781 0.161783 0.190568 -0.777650 0.812006 0.238838 0.507511 0.700468 0.338966 -1.315043 0.321598 0.014739 0.025997 -0.062953 -0.065993 -0.038497 -0.026703 -0.683598 0.287966 -0.952468 -0.875095 -0.318289 0.795292 0.042256 -0.692680 0.117210 0.234648 -0.185355 0.494012 -0.305477 -0.872663 0.239335 -0.597684 0.661228 -1.144491 -0.109475 0.300923 0.027606 1.150686 0.892715 -0.156229 0.400282 0.450852 1.090578 0.070069 0.445791 -0.001021 -0.083506 -0.665980 -0.224607 -0.359379 -0.473566 -0.021080 -0.159221 0.278315 -0.211656 0.630894 -0.223829 -0.174734 -0.440673 -0.254207 -0.093782 0.080342 -0.066941 0.074699 0.157722 0.860823 0.028211 0.615913 0.042050 0.546708 -0.620156 0.592304
number -0.141618 0.121995 0.360440 0.555296 0.304454 0.256927 0.524073 -0.267205 0.207123 -0.424111 -0.598769 0.631990 1.447878 1.038619 -1.299905 0.478135 0.926059 -0.206305 0.251795 0.412146 0.350259 0.523998 -0.242102 1.014186 0.459308 0.213456 0.501345 0.440856 -0.444067 0.721283 -0.644589 0.779243 -0.369777 0.562466 0.446193 -0.090423 -0.435137 0.719150 0.373019 -0.123891 -0.488820 -0.217843 0.232554 -0.120873 0.145158 -0.700803 0.361083 -0.588677 -0.404706 0.833311 -1.443915 -0.238172 0.052400 -0.364703 0.244394 -0.112987 0.235710 -0.132479 0.248036 -0.070168 0.801842 -0.037997 0.459019 -0.629960 -0.759446 0.061880 0.260524 -0.159169 -0.963851 0.118214 0.393981 0.142123 -0.140107 -0.080536 -0.248700 -0.403788 -0.613431 0.557848 -0.491543 -0.670484 -0.483290 -0.482019 0.634726 0.598199 0.001559 -0.267513 -0.015372 -0.392197 -1.126771 -0.968886 -0.532967 0.337942 -0.194548 0.284423 0.209009 0.010465 -0.260310 0.850901 -0.382922 -0.860312
x -0.191884 -0.220260 -1.055098 -0.281438 0.070217 -0.464093 1.480479 0.310447 -0.072766 0.453879 -0.748715 0.033012 0.540549 -0.272680 -0.320209 -0.808701 -0.542871 -0.695141 -0.102372 -0.078734 -0.115453 1.100600 -0.763041 -0.275512 0.300333 -1.026230 0.770551 0.479161 0.156691 0.354053 -1.431588 0.497328 0.035298 -0.019854 -0.891105 -0.242413 0.041661 -0.145846 -0.235645 1.165247 -0.573699 -0.745383 -0.520312 0.177878 0.303689 -0.492408 0.416407 -0.622302 -0.795814 0.025051 0.046732 0.675092 0.314860 -0.905033 1.083909 -0.600061 0.180583 -0.243511 0.427908 -0.260319 0.400229 -0.570419 -0.283458 -0.612947 0.201521 -0.506413 0.000468 0.111859 -0.164477 -0.457244 -0.282605 0.099562 0.304112 1.420553 0.906492 -0.426102 -0.621344 0.736875 -0.362685 0.669625 -0.838466 -0.048455 -0.058858 0.413638 0.047800 0.062504 -0.468815 -0.825800 -0.181532 0.791068 0.231395 0.041460 -0.623166 -1.318788 0.596123 -0.460686 -1.077425 0.079788 0.239907 -0.248534
tree -0.394899 -0.108461 -0.273207 0.576603 0.294813 1.069326 -0.152325 -0.371175 0.890635 0.321999 -0.345243 0.603238 -0.242063 -0.352860 -1.303756 -0.141225 -0.208888 0.680899 0.031778 -0.490560 0.073761 0.207323 -0.181988 0.063916 0.931977 0.534614 0.606466 0.610513 -0.680019 1.034325 -0.392860 0.231752 -1.291167 0.590175 -0.001494 -0.819279 -0.685361 0.688934 0.509780 0.011744 -0.779852 0.280232 -0.027140 0.681084 0.287002 -0.238961 -0.739404 -0.603866 -0.075796 0.457183 -1.118836 -0.376987 -0.196992 -1.175882 0.662948 -0.490290 -0.066144 -0.936485 -0.104995 -0.172631 0.322459 -0.404255 0.249122 -0.255104 0.738415 0.227268 -0.235037 -0.775002 -0.456197 0.437402 1.067894 -0.077108 0.529535 -0.442983 -0.236224 1.229742 -0.248094 0.337323 0.653151 0.275899 0.682871 -0.481963 0.198783 0.572276 -0.951246 -0.738142 0.694116 -0.329161 -1.040884 0.092595 -0.255727 -0.282302 -0.039925 0.827696 0.562839 -0.418855 0.294464 0.323827 0.256575 -0.206303
two 0.323800 -0.580293 -0.285911 1.302367 1.452010 -0.151476 0.493201 0.653503 -0.067831 -0.422394 -1.006568 0.561060 0.737574 0.703564 -0.073367 -0.473580 -0.629076 -0.650011 0.255084 -0.491172 0.584583 1.411159 -1.108338 0.667167 0.162909 -0.675978 0.640286 0.214875 -0.487300 -0.027459 -0.498594 0.086807 0.100348 0.192148 0.425754 -0.276749 -0.670117 0.348744 -0.585587 -1.029029 -0.434519 -0.693940 -0.326956 0.204200 0.160959 -0.120607 -0.225604 -0.269976 -0.148840 -0.174686 -0.358011 -0.882840 0.413002 0.036795 -0.339878 0.758713 -0.308819 -0.555139 1.163122 0.302028 0.357520 0.212471 0.428500 1.067672 0.428419 0.657784 0.180937 -0.679578 0.138927 0.337882 1.151722 -0.578175 0.776100 0.494114 -0.224006 0.304436 0.141915 0.079133 0.297956 -0.284652 -0.229408 0.308243 0.873787 0.643702 -0.356701 -0.285705 0.500939 -0.274687 -1.196632 -0.400013 0.430459 0.065149 -0.449027 0.638844 -0.633671 0.962302 -0.739173 0.200574 0.576766 0.134887
all 0.528742 -0.619319 0.049805 1.167065 0.706596 0.397908 -0.289747 1.019229 -0.747442 0.960303 -0.917543 0.019390 1.118001 0.536907 -0.202767 -0.187862 -0.188554 0.983444 0.222789 -0.193652 0.550709 1.344311 0.125870 -0.103937 0.260702 0.100987 1.339144 -0.314048 -0.085123 0.416097 0.481047 1.039682 0.497182 -0.111972 0.194745 0.229378 -0.330213 1.187453 0.617642 0.989498 -0.128163 0.199311 0.323311 0.517517 0.633436 0.564384 -0.139967 -0.904987 -0.551856 0.038279 -0.677006 -0.514946 0.795252 -0.328836 -0.057337 -0.014531 0.286786 -0.744325 0.488008 -0.410594 0.299553 -0.268237 -0.066753 -0.512896 -0.045466 0.216929 -0.138699 -0.612657 -0.491795 0.401933 0.045432 -0.102833 0.017675 -0.289823 -0.072658 -0.019337 -0.449991 0.161449 0.296592 -0.126204 -0.205024 0.096712 -0.133151 0.482717 -0.401940 0.393659 0.806433 -0.203846 -1.354479 0.008226 -0.214283 0.448389 -0.509958 -0.830186 -0.101500 0.017361 -0.672666 0.625378 0.542488 -0.307438
one -0.306806 -1.411856 0.020357 0.192834 0.501015 0.598616 -0.042776 0.437192 0.583536 1.063685 -0.543753 0.030644 1.004032 0.146953 -1.158747 -0.636986 0.083283 -0.631054 0.298217 0.021222 0.406626 0.966882 -0.196304 0.781155 -0.000253 -0.078456 0.411124 -0.215203 -0.270718 0.289443 -0.308897 0.359622 0.153648 0.545165 -0.259150 0.243617 -0.238980 0.209959 -0.333045 -0.069756 -0.778831 0.626650 0.534733 -1.084761 0.166796 -0.054439 -0.471682 -0.375706 -0.743984 0.709991 -1.354724 0.021305 0.368616 0.463866 0.802410 0.307264 0.755970 -0.617672 0.410002 0.355125 -0.188816 0.333380 -0.142442 -0.400234 0.755159 0.280982 0.100421 -0.109963 0.033109 0.338372 1.213274 0.024833 0.010892 -0.469588 -0.453591 0.385133 0.335871 -0.340508 0.161275 0.046890 -0.432344 -0.175479 -0.367576 0.269868 -0.364514 -0.494859 0.254247 -0.462590 -0.822408 -0.221368 -0.111103 -0.157799 -0.531293 0.377491 -0.263018 0.736865 -0.219382 0.110153 0.815317 0.105076
from -0.206098 -1.746122 -0.227827 -0.304790 -0.281489 0.541185 -0.266101 0.488284 0.466121 0.550805 -1.005161 0.425220 -0.213751 1.298121 0.447656 0.449815 -0.697659 -0.019860 -0.013809 -0.329733 0.998613 0.654892 -0.314491 0.697348 1.105842 0.199081 -0.324735 -0.032294 -0.174098 -0.129473 -1.353820 0.854290 0.371208 -0.431006 0.083677 -1.367936 -0.004504 -0.584086 -0.512152 0.358034 -0.001256 0.377696 -0.856835 0.876858 -0.508651 -0.174709 0.030722 -0.278916 0.114819 0.369225 -0.217197 -0.392525 0.431485 -0.146464 0.318712 -0.497430 0.597083 0.348853 1.335463 0.092002 0.975918 0.238954 0.025986 -1.043839 1.011405 -0.058017 0.443697 0.197307 -0.088881 1.037497 0.808924 0.580470 -0.256929 -0.022992 -0.175133 0.517894 -0.544487 -0.252128 0.383568 0.278788 -0.637980 -0.685499 -0.531498 0.144857 -0.226700 0.546872 0.852584 -0.483755 -0.643341 0.239683 -0.918531 -0.917370 -0.745769 -0.146332 0.345018 0.191633 -0.832485 0.467406 0.666875 -0.243563
or 0.173897 0.068547 -0.113048 0.444482 -0.933076 0.657969 0.328112 -0.309237 0.694785 -0.058080 -0.231824 0.629077 0.447035 0.323196 -0.845122 -1.158197 0.115096 0.016905 0.109204 0.742506 0.296657 0.890131 0.333473 0.248128 0.005674 -0.627723 0.865509 1.028280 -0.405322 0.357856 -0.993575 0.870720 0.331622 0.286007 -0.518174 -0.205618 -0.631186 0.800053 -0.426010 -0.717099 -0.921533 0.787445 -0.213312 0.167455 0.076650 0.623444 0.142995 -0.479678 -0.236890 1.163291 -0.323454 0.465628 0.389745 0.160201 0.610230 0.225873 -0.293989 0.250208 0.320452 -0.391455 0.337779 -0.411375 -0.462487 -0.436342 0.460156 0.690690 -0.970871 0.116645 -0.863734 0.294235 0.786665 0.488784 0.406192 -0.843778 1.176614 0.060846 0.282720 -0.444439 -0.190077 0.420662 -0.581728 -0.014100 -0.114981 0.094844 -0.409118 1.068295 0.898586 -0.072218 -0.575856 -0.199368 0.643204 0.151267 -0.300235 -1.212033 0.040609 0.555135 0.242890 1.038592 1.078685 -0.270436
such 0.295345 -1.021905 -0.264616 0.770102 0.039041 0.315213 0.336903 0.121412 -0.148543 0.076843 -0.737718 0.464616 0.159230 0.617278 -0.729919 -0.079587 0.981398 -0.254089 0.870886 0.212309 0.263952 -0.304849 0.015749 -0.414714 -0.295896 -0.108528 0.492815 0.496852 0.143482 0.314029 -0.029623 1.071163 -0.160862 -0.101336 -0.068699 0.202835 -0.647498 0.029518 -0.527765 0.109834 -0.336818 0.373568 0.233048 0.813765 0.238263 -0.334796 -0.402877 -0.482026 -0.102338 0.310214 -0.399297 -0.586326 0.283598 -0.276102 0.314969 0.351490 0.321448 -0.635251 0.100967 -0.625998 0.562628 -0.280457 -0.531309 -0.251658 0.253070 0.253986 0.008422 -0.019157 -0.567488 0.077498 1.235597 0.168832 0.009079 0.285046 -0.374781 0.051589 -0.524024 -0.602242 -0.397084 -0.171191 -0.144969 0.405553 0.067141 0.579862 -0.295151 -0.129789 -0.278071 -0.356098 0.324163 0.460588 0.247784 0.324598 -0.052296 -0.479111 0.592568 0.256715 -1.080225 1.276771 0.404167 -0.103289
which 0.366018 -0.371681 -0.191278 0.548059 0.577558 -0.360307 0.037517 0.269191 0.339657 0.385568 -0.832005 -0.222438 0.463777 0.469148 -0.507263 -0.591753 -0.645046 -0.053158 0.305160 0.056960 0.737810 0.474419 -0.013800 0.114336 0.650343 -0.150385 -0.032891 0.179901 0.057894 0.273698 -0.705613 1.464622 -0.422768 0.130718 -0.129671 0.556762 0.171578 0.224145 -0.146627 0.287501 0.046841 0.197821 -0.044012 -0.313444 0.714293 -0.484403 -0.215848 -0.519318 -0.458412 0.162729 -0.566576 -0.614397 0.378840 -0.057356 0.565133 -0.697109 0.289016 -0.640516 0.015848 -0.117361 0.504498 -0.263709 0.009564 -0.479592 0.488444 0.017606 -0.042578 0.177592 -0.476287 0.509422 0.600970 -0.361502 -0.089638 0.121697 0.055409 -0.028891 0.017135 0.135392 0.053670 -0.391726 -0.129304 -0.031519 0.249035 0.490618 -0.317285 -0.446835 0.460128 -0.351459 -0.528861 -0.438477 -0.242986 -0.464095 -0.234377 0.068514 -0.421143 0.590575 -0.771764 0.474643 0.883707 0.304804
j 0.022381 0.176152 0.422486 -0.380964 0.408990 0.082965 0.448243 0.851164 -0.026302 0.440001 -0.221225 1.011136 0.671147 1.015717 -0.482861 -0.022322 -0.190390 -0.795847 -0.229358 -0.835386 -0.275838 0.369812 0.001026 -0.350855 -0.354583 -0.565261 -0.270738 -0.267917 -0.416783 -0.174446 -0.662733 1.182563 -0.195056 0.320316 -0.124063 -0.689261 0.206849 -0.472026 -0.417058 0.476996 0.429220 -0.308133 -1.138421 0.552321 -0.329889 -0.559058 0.521119 -0.438662 -0.226694 -0.159616 -0.127815 -0.820453 -0.066537 0.678097 -0.034203 -0.376281 -0.367617 0.236774 0.166790 -0.510743 0.195817 -0.450500 0.155070 -1.285407 0.845714 -1.060306 -1.363110 0.520047 -0.931368 -0.878360 0.595145 0.264425 1.049331 0.353582 -0.484849 0.000384 0.661195 0.194272 0.045875 0.156921 -0.564347 -0.078928 -0.144942 0.402369 0.720563 0.973043 0.015664 -0.620356 -0.135658 0.462076 -0.142645 -0.220042 -0.369909 -0.082214 0.029982 -0.200928 -1.026512 -0.548064 0.180161 -1.173121
figure -0.115089 -0.490772 -1.079814 0.681607 0.314589 0.630585 0.417432 0.486957 -0.295938 0.600360 -0.142940 1.186914 0.799611 -0.179075 -0.165010 -0.106124 -0.333255 0.574481 -0.145017 0.011201 -1.005444 -0.159128 0.298455 -0.156288 0.643730 -0.573202 -0.146564 0.459270 -0.053840 0.935182 -0.582432 0.324205 -0.589180 0.051026 -0.640178 -0.349333 0.423618 0.514322 -0.565792 -0.500908 -0.586099 0.397263 0.597518 0.689178 -0.291122 -0.968009 0.460693 0.127452 -0.926016 0.637282 -0.569989 -0.154019 0.365917 -1.045676 0.914239 -0.630939 0.260928 -0.679617 0.757736 -0.556800 0.953981 -0.485657 0.255614 -0.126832 1.060510 0.098771 -0.384400 -0.115000 -0.850485 0.276061 0.139331 -0.113647 0.956556 0.238542 0.000038 1.038213 -0.635782 0.402293 0.067502 0.715599 0.251978 0.424740 -0.329329 0.822748 -1.021805 -0.218404 0.310530 0.066244 -0.880529 -0.163817 -0.235735 -0.201590 -0.001550 0.217286 0.125449 -0.220075 -0.497135 0.070995 0.294966 -0.352476
example 0.319443 -0.817679 -1.121563 0.296674 0.545032 0.489078 0.553997 0.988220 0.291482 1.247227 -0.249917 0.038940 0.888318 -0.055603 -0.562576 0.040296 0.006912 -0.385922 0.068741 -0.334023 0.921045 -0.174657 0.250503 -0.128163 0.416703 -0.551758 0.256317 0.200534 -0.155371 0.411387 -0.555076 0.344623 0.051535 -0.081235 -0.154043 0.248374 -0.765029 -0.412840 -0.355660 0.239957 -0.071890 0.472993 0.182138 0.709579 -0.137857 -0.422358 0.364604 0.229263 -0.586450 0.673420 -0.265425 0.176595 0.620762 -0.783300 0.241574 0.303804 -0.443790 -0.593412 0.553750 -0.430001 0.638264 -0.450407 0.457144 -0.372071 0.592607 0.478223 0.328535 -0.063569 -0.860786 -0.002611 0.473453 0.145979 0.257367 0.196397 -0.060982 0.536905 0.289904 0.327505 -0.135076 -0.129453 -0.262978 0.231258 0.401134 0.734589 -0.217851 0.189291 -0.627887 -0.097265 -1.039478 -0.215344 0.016211 -0.089855 -0.200487 0.367299 0.347323 0.437443 -0.027644 0.463449 -0.302847 -0.162297
m 0.600221 0.607913 0.172545 0.209248 0.152315 1.089698 0.676894 1.216728 -0.135202 0.529243 -0.568927 0.577070 0.600792 0.446550 -0.748676 0.349739 -0.410005 0.448667 -0.599476 0.028734 0.298891 -0.259747 -0.852859 0.741477 0.657368 -1.301945 0.466885 0.108421 -0.177371 -0.086220 0.129765 0.870724 -0.306411 1.033989 -1.072480 -0.868192 0.648773 0.141634 0.671369 0.679723 -0.308390 0.361280 -0.653160 -0.508476 0.297133 -0.703687 0.083063 0.414097 -1.064676 0.432646 -0.701601 -0.867560 0.708931 0.481843 -0.249506 0.211682 -0.284424 -0.206355 1.006036 0.406052 0.363916 0.412575 -0.623412 -0.849221 0.155558 0.071653 -0.533923 -0.908471 -0.705547 -0.266092 -0.129828 0.776951 0.326729 0.010062 -0.190361 0.099619 0.514375 -0.321262 -0.632582 -0.078084 -0.873749 0.317173 -0.025636 0.713810 -0.064258 -0.003718 -0.710266 -0.158367 -0.315524 0.110148 -0.628457 0.249205 -0.535785 -0.304849 -0.137698 -0.141239 -0.463512 -0.280636 0.890655 0.107302
d 0.166704 -0.260895 -0.228064 0.291178 -0.161854 -0.608764 0.605621 0.918529 -0.914604 0.281766 -0.483284 0.666111 1.186594 0.533821 -0.435460 -1.031549 -0.895472 -0.084572 -0.501035 -0.649116 -0.129219 0.177050 -0.505294 0.110692 1.132010 0.924296 -0.685285 0.272646 0.709093 0.515029 -0.592321 1.093573 -0.427367 0.322100 -0.125267 -0.500194 -0.094502 0.041717 -0.067089 0.244037 -0.848971 -0.178208 0.782053 -0.276573 -0.684435 -0.515837 0.217985 0.871449 0.581937 0.816512 -0.679834 -0.118822 -0.016677 -0.897477 -0.061738 -0.098326 -0.351906 0.006405 0.756704 -0.682890 0.462129 0.662345 0.591137 -0.914106 0.351410 0.069599 0.299163 0.373073 -0.670399 -0.032644 0.262515 0.196233 1.133571 0.132965 0.233511 -0.044153 0.149874 0.157441 0.367357 0.517342 -0.694462 -0.431377 -0.947625 0.339646 -0.525081 -0.433566 0.100787 -0.375353 -0.827431 0.495745 -0.121401 -0.321805 -0.621611 0.005414 0.103556 -0.234270 -0.898900 -0.375880 0.183476 -0.216523
f -0.210834 -0.560534 -0.015728 -0.656633 0.088417 -1.014043 1.087431 0.223748 -0.324670 0.078226 -0.060681 0.843383 1.372913 0.540988 -0.368839 0.119305 -0.099482 0.000729 -0.743169 -0.834043 0.027167 0.523502 -0.574812 0.767129 0.169869 -0.511469 -0.473335 -0.025329 0.217195 0.452319 -0.596271 1.193013 -0.935650 -0.288496 -0.447124 -0.171555 0.251797 0.816045 -0.367581 0.619126 -0.511732 -0.424256 -0.090750 -0.650113 -0.832312 -0.897682 -0.366036 -0.539214 -0.125725 0.082675 -0.280950 -0.583575 -1.167203 -0.457091 0.619086 -0.391077 -0.280322 0.123010 0.037179 -0.606239 1.019628 -0.021705 0.677307 -0.269328 0.215025 -1.063649 0.329215 0.728809 -1.101925 -0.501932 -0.371653 -0.001438 1.237012 0.411535 0.298375 0.289677 0.578141 0.299013 0.011666 0.262056 -0.532810 0.461281 -0.424104 0.674247 0.410541 -0.348211 -0.711082 -0.071072 -0.258747 0.038307 0.418390 -0.516310 -0.483675 0.605498 0.578094 -0.930975 -1.446302 -0.428754 0.441723 -0.570376
than 0.544472 -0.806806 0.115199 1.091944 0.540159 0.538313 0.326821 1.110410 -0.405363 0.202805 -0.538852 -0.262034 0.698719 0.565681 -1.026335 -1.021571 -0.072404 -0.384186 -0.225099 0.615689 0.300162 0.243880 0.636773 0.376600 0.684969 0.489503 0.934952 1.152993 -0.626417 -0.469518 -0.517556 1.021018 0.443681 -0.253025 -1.113351 -0.097366 0.791844 0.394217 -0.464616 -1.124924 -0.351109 0.996469 0.562442 0.251570 0.607583 0.217912 -0.512094 -0.545112 0.297800 1.003949 -0.442709 0.239941 -0.227715 -0.105850 0.897233 0.024675 -0.321049 -0.380076 -0.050343 -0.367071 0.428901 0.073538 0.083128 -0.501056 0.259469 0.224554 -0.263176 0.031103 -0.627535 -0.210489 1.101368 0.669228 -0.120064 0.196950 0.775119 0.147552 -0.313035 0.101594 0.154207 -0.416896 0.588548 -0.600497 -0.177250 0.577421 -0.291053 0.472064 0.097755 -0.763906 -0.424284 0.028959 -0.447090 -0.318853 0.156268 0.124967 -0.990919 0.439569 0.041478 0.152230 0.282654 0.130923
search 0.659685 -0.658677 0.342350 0.622109 0.618827 0.432539 -0.757955 -0.461037 0.594115 0.130884 0.597088 -0.041336 -0.065615 0.648395 -1.039347 -0.255906 0.590633 -0.007865 0.616716 -0.162456 -0.305948 0.530665 -0.180034 -0.092133 1.007282 0.286346 0.402314 0.517967 -0.722031 0.485055 -1.596223 0.152689 -0.842879 0.413714 0.325046 0.378702 -0.602531 0.098094 -0.102876 0.253300 0.599191 0.014379 -0.254325 -0.167487 0.294343 0.181199 -0.144470 0.630656 -0.294619 1.283824 -0.600820 -0.671915 0.729808 0.184277 0.590078 -0.643507 0.411815 -0.847803 -0.190842 -0.797832 0.540805 -0.247215 -0.376020 -0.378044 0.096779 1.082054 -0.017698 -0.578028 -0.635733 -0.340318 0.899267 -0.398273 0.194740 0.334292 -0.820674 0.225015 0.102199 0.451598 0.138125 0.386203 0.377371 -0.581084 0.578716 0.581986 -0.794516 0.387886 1.065801 0.208972 -0.692176 -0.640580 -0.068664 0.193388 -1.185166 0.494187 0.346870 0.823911 0.136033 0.264003 -1.137188 0.345988
have -0.431944 -1.065522 -0.192801 0.683053 0.020059 0.370712 1.055569 0.375981 1.059382 0.662835 -0.695170 0.388194 0.116057 1.017038 -0.405714 -0.260273 0.093538 0.011547 -0.039866 -0.334080 0.521140 1.294144 -0.294039 0.249519 0.879910 0.153652 0.607533 -0.069271 0.052555 -0.311093 -0.086693 0.888468 0.123986 0.478568 -0.523698 0.886538 -0.365323 0.113135 0.768931 -0.319724 -0.013540 -0.153211 -0.606429 0.075555 -0.010027 0.195066 -0.545799 -0.705157 0.016581 0.907404 -0.051853 -0.382714 -0.101986 -0.076681 -0.262490 0.337755 -0.438529 -0.646155 0.095902 -0.476019 0.346294 -0.425378 0.080743 0.141345 0.198144 -0.129914 -0.258604 0.220970 -0.048555 0.286928 1.397369 -0.182606 0.454238 0.819162 0.296071 -0.036719 -0.712824 0.282256 -0.345766 -0.159937 -0.255752 0.017927 0.930519 0.334932 -0.199372 0.492674 0.347905 -0.133662 0.222940 0.022346 -0.270405 -0.163716 -0.277259 -0.199153 0.367074 -0.653310 -0.314158 -0.044265 0.480433 -0.386812
time -0.483072 -0.848399 -0.490583 0.994045 0.298128 0.285252 0.380389 0.809145 0.846986 -0.075837 0.318870 -0.559058 0.058483 0.505318 -0.630412 -0.008092 0.224215 -0.148277 0.057671 0.363302 -0.248847 0.230392 -0.456112 0.501253 -0.656824 0.231040 0.061506 0.755176 -0.164817 -0.342271 -0.491933 0.631159 -0.732906 -0.519565 -0.041995 -0.000254 -0.765539 0.869905 -0.013867 0.275893 -0.965827 0.289868 0.193746 -0.842666 -0.988312 0.362915 -0.094143 -0.891721 0.021820 -0.106310 -0.517782 -0.130751 -0.316466 0.472046 0.551508 0.355773 0.012081 -0.472803 -0.290485 -0.331372 0.266875 -0.569324 0.588411 -1.542131 0.087321 0.628189 0.122562 -0.695674 -0.627163 0.627056 0.966110 0.589544 0.982133 -0.401225 -0.745612 -0.510162 -0.648248 0.147692 -0.002700 -0.098049 -0.909802 0.213391 -0.323713 -0.049757 -0.237527 0.090205 -0.184236 -1.348581 0.109879 -0.502832 -0.204504 0.163204 0.013636 -0.136808 -0.408673 0.411809 0.092726 1.086444 0.057748 0.122802
efficiency -0.325088 -0.907170 -0.197531 1.252919 0.926400 -0.055811 0.204434 1.359597 0.667534 -0.645342 -0.051874 -0.453661 0.027031 0.560232 -0.187790 0.493068 0.318383 0.048145 0.141295 0.817809 0.199014 0.213093 -0.037386 0.357912 0.829698 -0.211083 -0.683581 1.064800 -0.194144 -0.552658 -0.656911 0.848388 -0.359774 -0.136023 0.097208 0.718694 -0.692734 0.614170 0.262990 0.081551 -0.265676 0.089300 -0.738829 0.099778 -0.929015 0.387162 0.314580 -0.181637 0.322895 0.096828 -0.215862 -0.347491 -0.062004 0.084589 0.722624 0.609402 0.209437 -0.417234 0.207881 -0.111627 0.119077 -1.325078 0.602052 -1.061472 0.024238 1.449269 0.276970 -0.684260 -0.537940 0.181096 0.681712 0.227429 1.187609 -0.091880 -0.412680 -0.442585 -0.279850 0.096698 -0.005190 -0.039169 -0.128434 -0.453663 0.097094 0.604453 -0.329156 -0.284896 -0.137207 -0.856146 -0.224739 -0.495329 -0.462470 0.005670 0.248547 0.118536 -1.126157 0.283532 0.087817 1.008428 -0.715173 -0.130269
each -0.433101 -0.364320 -0.028747 0.837983 0.997403 0.267375 -0.464406 0.861948 -0.333797 0.119407 -1.139394 0.095519 0.916615 0.447462 -0.826096 -0.473748 -0.042580 -0.391094 0.595165 0.582898 -0.075323 0.220344 0.382027 0.284781 0.379282 -0.060642 -0.134950 -0.750781 -0.512221 0.344668 0.515920 0.035106 0.311517 0.353360 -0.123325 -0.723694 -0.290895 0.575676 0.257107 0.039020 -0.765297 0.350656 -0.045744 0.058104 0.737416 0.118430 0.279247 -0.553884 -1.257112 0.717983 -0.881486 -0.205787 0.458936 0.141986 0.334001 -0.107543 0.615492 -0.285561 0.616789 0.369848 0.328705 -0.517146 -0.004616 -0.798651 0.392910 -0.401673 -0.774966 0.695387 0.050512 0.139241 1.003853 -0.284972 0.011208 0.485943 -0.517899 0.092890 -0.449683 -0.816616 0.141123 -0.212496 -0.168941 -0.258400 -0.024043 0.311979 0.749917 -0.137694 0.566099 -0.203313 -1.001331 0.163331 -0.332784 -0.396493 -0.612454 -0.035138 -0.136803 0.696308 -0.301929 0.010277 0.790134 0.019153
problems -0.275913 -1.267445 -0.740340 0.893729 0.996801 0.263937 1.113747 -0.088242 0.263252 0.546422 -0.628150 -0.651413 0.144407 -0.009786 0.369884 -0.265270 1.223098 0.249192 1.195939 -0.073603 0.020121 0.210617 0.427577 -0.228057 -0.067783 0.020517 0.795223 0.157516 0.098767 0.879988 -0.603747 1.884614 -0.015756 -0.399453 -0.482008 -0.134799 -0.899182 -1.094584 0.086597 0.713329 -0.579642 0.058973 -0.012747 -0.023024 -0.715403 0.084497 -0.481279 -0.666268 -0.024492 -0.033337 -0.521988 -0.113443 0.225032 0.068646 0.390853 -0.356369 -0.251625 -0.326189 -0.222107 -0.344388 -0.111666 -0.285598 0.138377 0.660860 -0.391742 0.670351 0.924484 0.577822 0.486838 0.150490 1.226659 -0.066549 0.183349 0.229856 0.038413 -0.218145 -0.383538 0.211757 -1.171188 0.563775 -0.320682 -0.066397 -0.999554 0.756723 -0.864505 0.872926 0.380764 0.499217 0.076533 0.030439 0.644302 0.886268 -0.059832 -0.490831 0.170536 0.752066 -0.581874 0.788432 0.605992 0.284922
graph 0.623129 -0.355229 -0.748165 0.506119 -0.328137 0.358292 0.655682 -0.800607 0.396262 0.916508 0.077327 0.947687 0.813809 -0.146975 -0.423314 -0.324201 0.012794 -0.086247 -0.230850 -0.993633 -0.240992 -0.127520 -0.131518 -0.196508 1.100576 0.030823 0.582406 0.269264 -0.395329 0.748616 -0.186564 0.691354 -0.120250 0.188904 -0.283912 -0.064143 -0.569120 0.647025 0.752919 0.477883 -0.445745 1.056092 -0.070236 0.368820 -0.481703 0.453982 -0.277173 0.427280 0.078158 0.236653 -0.680955 -0.918827 0.496315 0.383215 0.124074 0.623543 0.243918 -0.423234 0.030776 -0.144971 0.801000 -0.466003 0.144421 0.292973 0.292876 0.259331 -0.668899 0.658966 -0.591254 -0.304410 1.021472 -1.054703 1.188682 -0.168859 0.142624 -0.131513 -0.932481 -0.334477 0.878855 0.428557 0.003083 -0.088129 -0.631603 0.447625 -0.255046 -0.627463 -0.285466 -0.604640 -0.855254 -0.342685 0.434923 0.439054 -1.025224 0.314576 0.697409 0.133851 -0.144328 0.880461 0.706524 -0.167739
given 0.305876 -0.269103 -0.817993 0.635823 0.522717 0.214067 -0.021167 0.454480 0.816745 0.982239 -0.199963 0.395100 1.015917 -0.143797 -0.564623 0.002199 -0.528890 -0.227835 0.823500 -0.435291 0.710220 0.162802 -0.214481 -0.038995 0.331835 0.284672 0.304249 0.038493 -0.071077 0.648357 -0.487045 0.516690 -0.116852 -0.029814 -0.604357 -0.269075 -0.214285 0.410891 -0.218216 0.319919 -0.555253 0.375253 -0.797836 0.034927 -0.153342 -0.404193 -0.200837 -0.535599 -0.589237 0.713927 -0.630182 -0.310614 0.472430 0.381987 0.189213 -0.536302 -0.457816 -0.494154 0.312590 0.038468 0.666024 0.126830 0.277258 0.268670 -0.502455 0.586859 0.245417 0.542565 -0.678412 0.052275 0.160954 -0.232871 0.620156 -0.148156 0.242385 0.242370 -0.330666 -0.391272 0.535165 0.589348 -0.151150 -0.215120 -0.125353 0.029661 -0.058905 -0.197979 0.426079 -0.602513 -0.609224 -1.272709 0.200228 0.225422 -0.138682 -0.101382 0.688059 0.850080 -0.537214 1.137537 -0.122116 -0.299949
at -0.753739 -1.001297 0.288043 0.761628 0.511078 0.324733 0.183799 0.227588 0.483517 1.136683 -0.625834 -0.412011 0.262851 0.648337 -1.002201 -1.045960 -0.066503 -0.608345 -0.438713 -0.882397 -0.404906 1.081649 -1.293534 0.350196 0.363211 0.143910 0.465872 0.111894 0.170462 0.152952 -0.480744 -0.432236 -0.168990 0.923528 -0.396732 0.448904 -0.512584 -0.024161 0.128400 0.393289 -0.675680 -0.218892 -0.165884 -0.655763 -0.398077 -0.014319 -0.581159 -1.176566 -0.871158 0.594350 -0.575740 -0.148148 0.172774 -0.496601 0.501800 -0.309840 -0.250264 -1.255512 0.211372 -0.291022 0.677806 -0.083895 -0.276872 0.092331 0.002193 0.381452 1.019551 -0.631805 0.060539 0.186154 0.093275 -0.407118 0.169463 0.433565 0.361287 -0.437273 -0.408751 -0.478111 0.213425 0.033382 -0.474125 0.122378 0.161849 0.646814 -0.343454 -0.230486 -0.108325 -0.336978 -0.098828 -0.630599 -0.906484 -0.367081 -0.724971 0.003717 0.006469 0.222507 -0.509772 0.234830 0.605853 0.047285
same -0.437286 -0.356145 0.099399 1.001070 0.819030 -0.013599 -0.378094 0.243669 0.220933 0.163897 -0.632011 -0.575804 0.426226 0.743415 -1.048442 -0.886106 -0.658582 0.139752 0.254219 0.526842 0.258595 0.823307 -0.066902 0.875633 0.390629 -0.057023 -0.097543 0.637651 -0.780510 0.428980 0.282054 -0.202585 0.393926 0.304750 -0.156414 0.258622 -0.365299 -0.060705 -0.276469 -0.021871 -0.799244 0.185154 -0.543176 -0.162613 -0.153003 0.048175 -0.080139 0.181495 0.233325 0.426333 0.020527 -0.318981 1.128013 -0.079688 0.548118 0.309422 0.104815 -0.360031 -0.175897 -0.064491 0.372637 -0.688821 0.740103 -0.665280 0.180679 0.461309 -0.790777 0.237792 -0.327485 -0.019465 0.811406 -0.264758 0.593638 0.018546 -0.476406 0.479861 0.002789 -0.082798 -0.069405 -0.393251 -0.211981 -0.529787 0.876616 0.705760 0.231075 0.483995 0.359666 -0.094109 -0.088790 -0.656625 -0.350392 -0.158444 -0.456796 -0.130276 0.063433 -0.088845 -0.592822 1.064821 0.913097 -1.210899
vertices 0.074891 -0.029106 -0.308587 0.697088 0.481270 -0.074191 0.349884 0.011512 -0.366534 -0.031394 -1.114847 0.551098 0.599836 0.613999 -0.273270 -0.638741 -0.933612 0.083445 -0.220274 -0.729995 0.226263 0.153249 -0.470890 -0.893047 1.043426 0.652221 0.872130 0.037693 -0.860529 0.416650 0.234982 0.000637 -0.244924 0.573450 0.150072 -0.442943 0.091503 0.296405 0.504317 0.153192 -0.582231 1.071836 -0.057970 0.816612 0.067237 0.539315 -0.325243 0.085457 0.161836 0.214980 -0.535895 -1.099519 0.742385 -0.373636 -0.250351 0.140649 0.460291 -0.637842 0.198973 0.164403 0.684239 0.184257 -0.379199 0.106684 1.071657 -0.168919 -0.046174 0.569472 0.179547 0.290751 0.478679 0.007039 1.042495 0.072170 0.001028 0.374840 -0.982345 -0.452233 0.833768 -0.329329 0.418959 -0.918924 -0.241536 0.287823 0.085025 -0.569163 0.390075 -1.208027 -0.583910 -0.280922 -0.279103 -0.211269 -0.616365 0.267033 -0.016731 0.342850 -0.880699 0.535707 1.367202 -0.551270
solution -0.527709 -0.670194 -1.346617 0.310654 0.394041 -0.235829 -0.127151 0.011045 0.860294 0.817316 -0.695885 -0.855855 1.025869 -0.250250 0.122329 -0.281233 0.061058 -0.292508 0.485457 -0.089497 0.391291 0.217928 0.254091 -0.432160 0.559457 -0.432848 -0.423318 -0.036983 0.109620 0.094257 -0.690091 1.070265 -0.072951 -0.413296 -0.903748 -0.124859 -0.535727 0.344347 0.386699 -0.337690 -0.094827 0.321154 0.185073 -0.546315 0.194297 -0.090316 -0.698221 -0.961652 -0.420531 0.537623 0.176182 0.264708 0.376208 -0.832600 1.712701 -0.227986 0.682420 -0.360355 0.137374 -0.959472 0.274401 -0.113187 -0.067454 0.670929 0.882359 0.208171 -0.605549 -0.693740 -0.747216 -0.243566 0.230449 -0.253032 0.268894 0.570351 -0.690615 -0.034831 0.766168 0.079898 -1.106743 0.025746 -0.258840 -0.242546 -0.046713 -0.260487 0.336976 -0.306099 0.674001 -0.372498 -0.783110 0.548823 0.513337 -0.267399 -0.811090 0.353992 0.175734 -0.145769 -0.845995 0.593357 0.592659 -0.015412
you -0.420295 -0.993513 -0.269790 -0.333706 0.231170 0.745565 0.203034 0.703235 1.410298 0.206019 -0.325467 0.057535 0.233088 0.722566 -0.367299 0.044091 0.158139 0.326979 0.787383 0.038859 1.572775 0.842933 0.102407 -0.393858 0.592745 0.747367 0.204751 0.200352 -0.457277 -1.038643 -0.015922 0.284057 0.366116 0.288189 -0.234124 1.218450 -0.454477 1.267410 0.114899 0.219504 -0.326512 -0.152756 -0.221129 -0.630124 0.120758 0.189781 0.697961 0.262419 -0.310570 0.529937 -0.320286 -0.206736 0.008518 0.403169 0.563005 0.178440 0.165508 -0.118697 0.849632 -0.887982 -0.309996 -0.405105 0.048005 0.153496 0.577613 0.150816 0.421623 0.081022 -0.578237 1.192236 0.827945 0.490345 0.907012 0.063061 0.376268 -0.722921 0.183560 -0.346365 0.063558 -0.029610 0.045921 0.157854 0.687482 0.345803 -0.373159 -0.184620 0.565110 0.250438 -0.091043 -0.139306 0.206288 -0.399666 0.100306 0.040912 0.789217 0.280049 -0.808115 0.342496 0.232375 -0.456195
first -0.321953 -0.660803 -0.270485 -0.011871 0.895730 0.008956 0.133738 0.827456 -0.481044 0.185363 -0.725979 0.106502 0.264797 0.508182 -0.577631 -0.137248 -0.029680 0.341990 0.348135 -0.683692 0.012829 0.794369 0.043216 0.470544 -0.028006 -1.017589 0.142670 0.120044 0.107545 0.483688 -0.783045 0.539009 0.203456 0.034852 -0.008924 0.214799 -0.465500 -0.542233 -0.026927 0.092855 -0.160486 0.652895 0.094008 -0.137565 -0.338990 -0.638160 -0.171645 -0.755446 -0.726836 0.408930 -0.547372 -0.272746 0.378356 0.017498 1.010783 -0.068334 0.096783 -0.426095 0.231143 -0.062400 0.251697 0.460615 -0.359604 -0.854336 0.076031 -0.284661 -0.301165 -0.055226 -0.190008 0.771860 0.263285 0.359147 -0.240115 -0.230997 -0.913567 0.539895 -0.121691 0.274935 0.217564 0.576794 -0.214382 -0.458108 -0.474583 0.566802 0.022649 0.474501 -0.342494 -0.374491 -0.594507 -0.014846 0.547826 -0.042691 0.267101 0.397905 -0.643969 1.103654 -0.767087 0.066041 0.292813 -0.115728
k 0.521552 0.032754 1.309221 0.428926 0.503667 0.483255 0.119385 1.136120 -0.453395 -0.287577 -0.337236 0.509521 1.466450 0.458052 -0.898078 -0.074343 -0.054911 -0.624711 0.270013 -0.862297 -0.321288 0.192757 0.074570 -0.392460 0.522050 -0.063288 0.391363 0.504523 -0.783824 0.056106 -0.078609 0.555452 -0.319605 0.085499 -0.441512 -0.755805 -0.125017 0.202347 0.016832 -0.659528 0.690784 0.076947 -0.658898 0.013907 -0.153130 -0.224938 0.254887 0.071605 0.118091 0.635000 0.142615 -0.654162 0.700864 -0.009791 0.723770 -0.504501 -0.467165 0.002783 -0.053622 -0.632289 0.355007 0.407828 -0.231404 -0.555249 -0.114685 0.004158 -1.036347 0.377936 -0.903379 -1.026490 0.064062 0.792178 0.212981 -0.440584 -0.190557 0.009485 0.919892 -0.309108 0.175210 -0.876604 0.211548 -0.822082 -0.524307 -0.003417 -0.016806 0.599653 0.425053 -0.463105 -0.615366 0.554182 -0.399888 -0.481644 -0.240164 0.383620 -0.117813 0.818059 -0.270398 -0.395743 -0.055791 -0.689621
vertex -0.224467 0.210512 0.436632 -0.050436 0.348491 0.391909 -0.612335 0.253461 0.008463 0.441497 -1.049390 0.094768 0.060426 0.670984 -0.304066 -0.543889 -0.736776 -0.498846 -0.507296 -0.929521 -0.502694 0.486974 -0.139738 -0.567512 0.783347 0.281364 -0.014848 -0.162772 -0.727375 0.439715 0.214017 -0.469396 -0.188690 0.536150 -0.237768 -0.415535 -0.106562 0.489201 -0.129990 1.105759 -0.351203 1.198033 -0.255698 1.391558 -0.047110 0.835530 -0.055053 -0.469268 -0.191984 0.322604 -1.055733 -0.831951 1.065864 0.236038 -0.594497 -0.250406 -0.022566 -0.518412 -0.000336 -0.384142 0.406702 -0.128669 0.233597 -0.902105 1.318014 -0.291147 -0.207420 0.187879 -0.011327 0.598428 0.203157 0.344094 0.451763 -0.068174 -0.460212 0.146493 -0.517212 0.242991 0.957478 -0.298557 0.326659 -0.552147 0.012581 0.243633 0.174929 -0.002081 0.081055 -1.370759 -0.603530 0.113968 -0.453795 -0.489483 -0.708578 0.599761 -0.033196 0.767801 -0.678062 0.462617 0.809189 -0.550951
section 0.174168 -1.048683 -0.939335 0.328684 0.214052 0.094766 0.425535 1.125950 1.195573 0.660094 -0.103399 0.393847 0.701927 0.052442 -0.731545 -0.055187 -0.114596 -0.386047 1.107214 -0.112142 0.997221 0.122381 0.031399 0.265632 0.610600 0.398757 -0.067341 0.413653 0.476549 0.516084 -0.474849 0.366838 -0.010367 0.243407 0.041078 1.023319 -0.473137 -0.211835 -0.586517 0.087021 -0.235601 -0.002437 -0.254764 0.193170 -0.499316 0.066470 0.124358 0.007797 -0.311553 0.213336 -1.062822 -0.714646 0.212848 0.595715 0.356809 -0.113781 -0.047272 -0.611692 0.206790 -0.129088 0.257596 -0.424475 0.497829 0.409540 -0.387681 1.155568 0.255633 -0.287039 0.172260 0.410007 0.644121 -0.081596 -0.218749 0.135732 -0.650826 -0.654625 0.115393 0.412870 -0.263408 0.063806 -0.307937 0.244883 -0.453365 0.788775 -0.971319 -0.672077 -0.145123 0.372105 0.053854 -0.426610 -0.302429 0.180786 0.179603 0.495961 0.228680 0.833179 -0.556199 0.200891 -0.498319 -0.214812
more 0.834966 -1.429782 -0.254163 1.029158 0.927205 0.708887 0.704713 0.297769 0.206092 0.395767 0.106003 0.464458 0.374293 0.462937 -0.899151 -0.242189 -0.163011 -0.951390 0.491080 0.436773 0.507840 0.357078 0.583429 0.429791 0.086274 0.475881 1.052079 0.995158 -0.858585 -0.531395 -0.218661 0.833684 0.403822 0.174162 -0.866003 0.413891 0.694214 -0.003370 -0.806800 -0.943598 -0.637211 0.696355 -0.103715 0.033922 0.744247 -0.640195 -1.344431 -0.140338 -0.220279 1.002395 -0.649693 0.345888 -0.296731 0.602927 0.518407 0.129617 -0.027233 -0.075627 0.067097 0.504811 0.157557 0.233533 -0.354893 0.127146 0.030776 0.259170 -0.256954 0.312662 -0.354540 -0.254555 1.392547 -0.053805 0.135173 -0.055024 -0.098466 -0.226542 -0.167056 -0.332021 0.505259 0.098967 0.081244 -0.112927 0.111664 0.560573 -0.534510 0.128847 -0.583665 -0.389387 0.833160 0.055447 -0.278053 -0.820931 0.751108 0.319945 0.528696 0.593958 -0.237988 0.199415 0.315152 0.385452
there 0.455416 -0.567888 -0.351310 0.460212 0.399312 0.566028 0.132340 0.684500 -0.632262 0.507663 -0.485719 0.197960 0.530998 0.987038 -0.451668 -0.046405 -0.306760 -0.683667 0.862621 0.385523 0.731985 0.543289 -0.409289 0.277836 0.194764 0.170042 0.133551 0.817829 -0.135415 0.281563 -0.220594 0.829703 0.186491 0.415529 0.157282 0.494460 -0.010108 -0.450171 -0.199824 -0.147356 -0.381073 0.553432 0.166938 0.509885 -0.600262 -0.439992 -0.327946 -0.664386 0.803544 0.548077 0.056625 -0.561102 0.257736 0.030707 0.183683 0.174422 -0.490653 -0.542487 0.432049 -0.744955 0.190763 0.056200 -0.143364 0.656054 0.776866 0.172517 -0.065033 -0.203875 0.530074 -0.042340 1.237778 0.103779 0.370095 -0.431081 -0.357908 -0.152190 0.433566 -0.398904 -0.195613 -0.044678 -1.172404 0.826505 -0.349647 0.708196 0.164088 0.275628 0.226265 -0.527312 -0.163353 0.588782 -0.554937 -0.179771 -0.073310 -0.245191 0.006541 0.858974 -0.496079 0.826706 0.259489 -0.011333
will -0.717701 -0.688044 -0.078302 0.653882 -0.064132 0.336286 0.430734 0.922812 0.233243 0.140645 -0.250082 0.286864 0.198893 0.760985 -0.783120 -0.234923 -0.224381 0.386676 0.265608 -0.628641 0.982347 0.776461 0.072268 -0.494791 0.354469 0.681059 0.846678 0.417860 -0.420821 -0.675030 -0.054229 0.387361 0.032836 0.042259 0.274134 1.015931 -0.587171 0.372740 0.106078 0.409447 -0.403631 -0.161051 0.354759 -0.501672 0.065692 -0.298261 -0.312555 -0.511539 -0.955744 0.781202 -0.481300 -0.103613 0.194515 -0.077401 0.460992 0.493463 0.033201 -0.398451 0.207755 -0.455290 0.308018 -0.638255 -0.069604 -0.549790 0.414635 0.625181 -0.460911 -0.197786 -0.971357 0.297066 0.280487 -0.081159 0.019026 0.367508 -0.446926 -0.059955 -0.612464 -0.398915 -0.577571 -0.434829 0.245739 0.029841 0.209717 0.579165 -0.593835 0.225218 0.038078 -0.762972 0.019799 -0.337712 -0.658021 -0.755933 -0.196208 -0.179055 0.470482 -0.510944 -0.141425 -0.247502 -0.401509 -0.172474
p 0.338785 0.434956 0.256469 0.365024 0.972453 0.821123 0.655717 1.290816 -0.761487 1.136597 -0.060078 0.240584 0.545743 0.998640 -0.788512 -0.884151 0.057476 0.676593 -0.430590 -0.488735 -0.185224 0.703001 -0.702454 -0.526609 0.072519 -0.071128 0.673012 0.296751 -0.472230 0.497900 -0.749421 0.751789 -0.080432 -0.150495 -0.275269 -0.086164 0.556151 -1.043416 -0.051777 0.438085 0.050870 -0.800716 -0.341143 0.932291 0.284071 -0.068872 -0.238270 -0.279909 -0.048963 -0.232326 -0.102792 0.343760 0.457213 -0.505878 -0.284593 -0.075760 0.097853 -0.059859 -0.219669 -0.868365 -0.267137 -0.196328 -0.314692 -0.211891 0.377583 -0.408726 0.531897 0.112664 -0.618033 -0.884770 0.315730 0.071054 1.086930 0.602061 0.334192 0.203582 -0.426629 -0.335610 -0.558325 0.856483 -0.377795 -0.426930 -0.369261 0.973555 -0.463519 1.067767 0.145202 -0.193559 0.657224 -1.354385 -0.423625 0.825161 -0.129419 -0.428046 -1.075844 0.198633 -0.344527 -0.162477 -0.203356 -0.606880
v 0.015541 0.499755 -0.524690 0.215264 0.436525 0.580196 0.553727 0.531377 -0.103128 -0.005142 0.091316 0.778673 0.288604 0.309077 0.101260 0.015478 -0.141370 -1.186806 -0.551130 -1.105853 -0.372116 -0.163496 -0.238824 -0.964766 0.815047 -0.426010 -0.185589 -0.204340 -1.045498 0.548349 0.121386 0.150337 -0.493344 0.479769 -0.898812 -1.042567 0.230468 0.674698 0.129861 1.320453 -0.410808 0.833767 -0.505284 0.529172 0.272523 0.170071 0.337751 -0.378067 -0.146809 0.736062 -0.649934 -0.466488 0.422090 0.563853 0.074627 -0.095723 -0.299664 -0.657462 0.154366 -0.176403 0.601321 -1.215301 0.016274 -0.783301 0.745708 0.504638 -0.623528 -0.045877 -0.392026 -0.227929 -0.425311 0.106281 0.784269 0.505598 -0.269200 -0.670007 -0.471406 -0.324520 -0.196895 0.181182 0.158386 -0.096692 -0.721582 0.224959 0.270082 -0.098374 0.416308 -0.867284 -0.542730 0.315213 -0.524730 -0.204823 -0.400075 -0.244027 0.279141 -0.014961 -0.466719 0.896656 0.596427 -0.075131
list -0.451483 -0.797653 -0.737465 -0.087724 1.024178 0.320330 -0.123118 0.962576 0.058519 0.215863 -0.280178 0.653578 0.321783 0.491716 -0.454164 -0.133668 -0.549999 0.479520 -0.132060 -0.177023 0.397047 0.615890 0.086100 -0.143861 -0.066021 -0.393553 0.058478 -0.452297 0.030173 0.297088 0.079282 -0.259221 -0.439906 0.115231 -0.370455 0.554575 -0.550477 0.274121 0.464040 -0.177516 -0.054594 0.575928 -0.116090 0.624581 0.555155 -0.429656 0.026601 0.031223 -0.098121 1.649267 -0.566577 -0.537952 1.130652 -0.260758 0.465547 -0.450391 0.344621 -0.113307 0.229084 0.071967 0.599628 0.704608 -0.202704 -1.033956 0.125455 0.072454 -0.799446 0.358377 -0.764602 0.233752 -0.464631 -0.218250 0.297305 0.620319 -0.484311 0.629798 -0.926864 -0.334759 0.438568 0.568764 0.503406 -0.492650 0.355687 0.481348 -0.472434 -0.024743 0.268266 -0.481497 0.153475 -0.622847 0.376814 -0.269337 0.024375 0.174957 -0.039399 0.735858 -0.360494 0.416807 -0.250569 0.534240
value -0.693523 0.319942 -0.858175 -0.393749 0.590182 0.055098 -0.032300 0.652691 -0.140523 0.148923 0.203946 -0.198483 0.293730 0.317572 -0.528766 -0.205160 0.481392 -0.547025 0.162778 0.090476 0.765287 0.480565 0.178166 0.003193 0.381049 0.030240 -0.292754 -0.014039 0.121480 0.041476 -1.285085 0.703211 0.033634 -0.045224 -1.241845 -0.168307 -0.433039 -0.240763 -0.103972 0.284523 -0.240834 0.099181 -0.866657 0.113219 0.016079 -0.590909 0.104874 -1.465134 -0.938638 1.428208 -0.632653 0.094746 -0.493611 -0.284865 1.393308 -0.642869 -0.151330 -0.884019 0.366712 -0.307376 0.562054 0.217138 0.518967 -0.284230 0.662929 -0.128049 -0.503213 -0.301022 -0.709448 -0.694303 -0.764995 0.107820 -0.557528 -0.042460 0.179638 -0.092155 -0.139943 -0.174454 -0.852529 0.275898 -0.338856 -0.225406 -0.382681 0.462532 0.871466 -0.149884 0.736254 -0.738281 -0.365814 -0.395381 0.023743 0.206561 -0.330822 0.232111 -0.142815 0.143465 -0.583240 0.605410 -0.534240 -0.406302
binary 0.298167 -0.491679 0.040387 0.381621 0.753265 0.506023 -0.714644 -0.489112 0.630652 0.181435 0.374429 -0.017060 0.085959 0.024656 -0.939960 0.169155 0.299215 0.753441 0.224825 0.201085 0.327721 0.195606 0.185959 0.414147 0.684845 -0.062545 0.624272 0.145191 -0.676268 0.640799 -0.910928 0.644685 -1.138936 0.174804 0.092241 -0.347968 -0.701204 0.386694 -0.348426 0.407807 -0.169550 -0.465942 -0.213520 0.070289 0.531641 -0.179101 -0.171459 0.467522 0.064945 1.071199 -0.700471 -0.444411 -0.040166 -0.621923 0.429192 -0.738952 0.114201 -0.292245 -0.204032 -0.409638 0.064503 0.043758 0.672400 -0.619185 0.098208 0.161275 0.261144 -1.138653 -0.538342 -0.154284 1.014728 0.210359 0.525839 0.279044 -0.083570 1.319047 0.065162 0.637160 0.059731 0.741476 0.208909 -0.179165 0.935213 0.528732 -1.065688 -0.508600 0.814638 0.250135 -0.874026 0.162283 0.458691 0.087742 -0.517266 0.203311 0.346308 0.366445 0.394110 0.041789 -0.687817 -0.101648
set 0.331002 -0.238397 -0.161673 0.980662 0.693109 0.719690 0.289655 0.448791 0.544521 0.558821 -0.931371 0.186954 1.262044 0.128429 -0.158594 0.544654 0.108904 -0.351569 -0.253429 -0.364804 0.572033 1.182488 -0.392773 0.252823 -0.465548 0.046120 0.442811 -0.188381 -0.601497 0.918172 0.336735 -0.118245 -0.523919 -0.246681 0.132505 -1.079522 -0.141761 1.013213 -0.165137 0.498734 -0.861715 -0.081884 -0.581034 0.719082 0.615045 -1.110976 -0.993063 -0.144162 -0.187619 0.597596 -0.329609 0.308537 1.025644 -0.639332 -0.223247 -0.053175 -0.056215 0.057628 0.348971 0.060393 0.204291 -0.536895 -0.276173 0.098978 -0.068553 0.538439 0.098668 0.422787 -0.817058 -0.248832 -0.383907 -0.008466 0.684655 0.080481 -0.301672 -0.394633 -1.185118 -0.105818 -0.376563 0.937253 -0.240410 -0.085865 -0.042328 -0.032023 0.050940 0.666715 0.427971 -0.009700 -0.124186 0.017853 -0.308791 0.036377 0.042082 0.176402 0.797507 -0.356724 -0.339230 0.564467 0.133596 0.339221
no 0.066463 0.012167 -0.124058 0.456418 0.600219 0.531354 -0.173645 0.083665 -0.475830 0.799889 -1.079247 0.084104 0.476243 0.641748 -0.146303 -0.382867 -0.047503 -0.518300 0.381996 -0.063082 0.980734 0.323111 0.502534 -0.119272 0.029172 -0.336195 -0.298636 1.031362 -0.299054 0.004017 0.186175 0.992215 0.622323 1.381450 -0.227709 0.506960 0.310304 0.062543 0.241600 -0.726584 -0.777709 0.825660 0.725417 0.601653 -0.112094 -0.199996 -0.783789 -0.751205 0.467877 0.382466 -0.489595 0.184425 0.222825 -0.258773 0.620864 0.144914 0.464203 -0.505824 0.398844 -0.759226 0.616743 0.497285 0.003993 0.904291 0.422609 -0.091387 -1.016820 -0.079761 -0.289424 0.501093 0.518099 -0.031893 0.613395 -0.662133 -0.254009 -0.242615 0.256579 -0.386026 -0.135279 0.672573 -1.025831 0.281141 0.949534 1.301302 -0.008643 0.022082 0.764290 -0.669546 -0.389911 0.215591 -0.001249 0.015190 -0.027046 0.098340 -0.154810 0.157279 -1.123101 0.419439 0.618599 -0.209833
elements 0.828793 -0.660205 -0.264760 0.200059 0.418919 0.268075 -0.091312 0.867145 -0.360522 -0.002347 -0.494791 0.599765 1.052205 0.669507 -0.932972 -0.124366 0.162155 0.369210 -0.630225 -0.032111 0.823568 1.129152 -0.047296 -0.123102 -0.227691 0.027273 0.601638 -0.334746 -0.227598 0.087415 -0.562259 -0.155467 -0.111095 -0.753298 0.028383 0.198718 -0.330941 0.859789 0.143956 -0.654085 -0.242408 0.245560 -0.338662 0.468468 0.452955 -0.805185 -0.123985 -1.232058 -0.153032 0.707250 -0.431376 -0.572122 0.364727 -0.130116 0.567016 -0.275011 -0.172843 0.471680 0.005582 0.344917 0.354670 0.530565 0.197439 -0.286324 0.078198 -0.052333 -0.232735 -0.334103 -0.763692 0.526385 -0.184464 -0.233222 0.230294 0.118141 -0.213000 0.028789 -0.727842 -0.018056 0.354710 0.666205 0.168651 0.364559 0.516851 0.748297 0.208451 0.823991 0.707711 -0.351897 -0.914645 -0.938840 0.553614 0.309580 -0.211978 0.308698 -1.304800 0.870400 -0.026787 0.169655 0.323071 0.657591
find -0.460314 0.081912 -0.112276 0.215610 0.456791 -0.370721 -0.054241 0.256302 0.404085 0.447208 -1.099445 -0.131153 0.272250 0.199436 -0.232672 -0.204799 0.474991 0.165699 0.836779 -0.245036 0.799911 0.441144 -0.595949 -0.389685 0.174172 0.282212 0.316792 -0.021231 0.198012 -0.266140 -0.681641 1.082506 0.357688 0.567204 -0.190731 0.087150 -0.062351 0.227227 -1.005437 0.502221 -0.360783 0.318753 -0.523413 -0.551089 -0.520445 -0.489889 0.506424 -0.246721 -0.773052 0.900251 -0.471974 -0.087836 0.253202 0.254715 0.092876 0.459720 -0.220057 -0.468471 0.485288 -0.558809 0.410461 -0.330569 -0.010069 -0.668654 -0.197819 0.127261 -0.453795 0.349083 -1.379902 0.483920 0.373044 -0.044118 0.509196 -0.342896 0.097323 -0.241760 -0.090737 0.125912 -0.078590 0.373064 -0.065273 0.009620 0.433531 -0.315841 -0.019370 -0.570284 0.373877 -0.494435 -0.837284 -0.885163 -0.116237 -0.198940 -0.009715 0.327568 0.093950 -0.046617 -0.723653 0.509773 -0.102291 -0.520638
following -0.113365 -0.795417 -0.274059 0.134618 0.737501 -0.576644 0.579883 0.614947 1.656163 0.386298 -0.670812 0.812797 0.722108 0.307557 -0.350230 -0.064046 0.252571 0.482619 0.402746 0.206687 0.623829 0.078791 0.334964 0.262963 -0.111473 -0.897923 0.506365 0.107265 0.299819 0.538641 -0.363467 0.733810 -0.245302 0.593361 0.489353 -0.546557 -0.757566 0.479534 0.642531 0.248773 -0.522764 -0.589379 -0.760090 -0.207179 -0.106783 -0.519469 0.334103 0.183546 -0.410124 0.282437 -0.106863 -0.068361 1.051628 -0.638987 0.207963 -0.103701 -0.107868 -0.189105 0.528110 -0.227535 0.962556 -0.256401 -0.092119 -0.312650 0.020144 -0.403872 0.160796 0.651634 0.084349 -0.645495 0.556312 -0.484856 0.480534 -0.136323 -0.360096 0.139571 0.239518 -0.117348 0.637616 0.562412 -0.668429 -0.400899 -0.001471 0.222570 -0.432694 -0.569981 0.323255 -0.934142 0.006081 -0.443381 -0.174204 -0.234978 -0.162403 -0.182071 0.276585 0.234774 -0.395572 0.339385 0.343067 -0.630800
do 0.108035 -0.665855 0.283396 -0.081448 0.960921 0.806419 0.772557 1.065962 0.151410 -0.230533 0.093296 0.911822 0.882404 0.714665 -0.964300 0.487337 0.638937 0.009769 0.201425 -0.962727 0.408283 0.164300 0.026573 -1.087049 0.255650 -0.385796 0.493820 -0.117329 -0.231901 -0.625756 0.079549 0.624175 0.133942 -0.164060 -0.337657 0.014111 -0.569246 0.343002 -0.380917 0.061609 -0.096996 -0.210932 -1.096743 -0.032150 0.509938 -0.429586 -0.043121 -0.742964 -0.080097 0.224382 0.381488 -0.992638 0.162972 0.162647 -0.778500 0.038533 0.210086 -0.199929 0.506749 -0.700023 -0.434056 -1.082396 -0.488754 -0.878789 0.805159 -0.523065 -0.079525 0.011054 -0.566725 -0.259392 0.820278 0.812860 1.298554 0.435943 -0.017974 0.054033 0.384644 -0.213040 -0.224862 -0.235807 -0.338875 -0.090964 -0.317372 0.387891 0.465007 0.230441 0.172976 -0.244424 -0.355533 0.113471 0.223790 -0.072519 0.100691 0.131532 -0.139148 -0.013543 -0.483020 0.237005 0.308648 -0.085093
but 0.802877 -1.482178 -0.230633 0.536632 0.622932 0.959624 0.350940 0.462027 -0.393169 0.501207 0.194597 -0.179779 0.374406 0.331879 -0.320352 0.014813 -0.043805 -0.208986 0.002525 0.592991 0.700025 0.827138 0.336150 0.188359 0.234150 0.635623 0.458422 0.258258 -0.528066 -0.320474 -0.451720 0.844053 -0.029628 0.174604 -0.532560 0.850841 0.145492 0.213270 0.333128 -0.470894 0.077237 1.085305 -0.624053 -0.081628 -0.120167 0.464277 -0.146425 0.242852 0.367210 0.412935 -0.008550 -0.743630 0.323810 0.005971 -0.105922 -0.367421 0.231862 -0.262196 -0.043071 -0.491749 0.041784 -0.318766 -0.007195 -0.172842 0.153281 0.059381 0.496113 0.096151 -0.429142 0.195749 0.407546 0.519179 0.452605 -0.227463 0.002575 -0.274075 0.200655 0.344586 0.100707 -0.524555 -0.415917 -0.116533 0.024821 0.031050 -0.407167 0.040202 0.059740 0.045849 -0.250431 -0.027511 -0.175631 -0.086662 -0.332716 -0.105531 0.118945 0.589290 -0.232642 1.258919 0.660993 -0.252332
has 0.051953 -0.660512 -1.049171 0.975864 0.425589 0.241281 0.842385 0.025039 0.288345 0.267932 -0.327032 0.439834 0.156301 0.178856 -0.676238 -0.508294 0.270435 -0.408925 -0.053736 0.776274 -0.207923 0.216004 -0.532504 0.509730 0.640269 -0.104900 -0.231328 0.044738 -0.496525 0.853261 -0.235135 0.557409 -0.512795 0.483065 -0.741119 0.508485 0.427012 0.038307 1.038012 -1.087214 0.129899 0.735073 -0.308539 0.286728 0.136586 0.452324 -0.143670 -0.767850 -0.181011 0.298803 -0.242951 -0.344637 0.020486 -0.097390 0.035679 0.276114 0.575051 -0.442612 -0.148021 -0.129231 0.543338 -0.265545 -0.091882 0.468755 0.067979 -0.480599 -0.799115 0.535857 -0.048759 0.326805 0.467394 -0.095222 0.841798 0.678909 -0.303492 0.071137 -0.355293 0.082391 -0.618923 0.396364 -0.791042 -0.352159 0.928911 0.109245 0.416068 0.687258 0.677021 -0.042076 -0.044968 -0.005698 -0.364148 0.052765 -0.450610 0.085186 -0.204965 -0.235288 -0.370031 0.126991 1.092566 -0.031405
array 0.551979 -0.763252 -0.013376 0.509026 0.170151 0.318954 0.302148 0.567064 -0.136571 -0.095161 0.536641 0.151865 0.653687 0.406757 -0.933004 0.595569 -0.618316 0.605328 -0.085200 -0.432668 0.661884 0.478028 -0.338690 -0.179583 -0.240913 -0.178780 0.127924 0.061320 -0.226868 0.485163 -0.842556 -0.279111 -1.059830 -0.667308 -0.055137 0.555313 -0.404151 0.228495 -0.025312 -0.716173 -0.577930 -0.018406 -0.282031 0.170215 0.166327 -0.841196 -0.035999 -0.408745 -0.168053 0.704863 -0.293601 -0.838986 0.281103 0.020420 0.478293 -0.248143 -0.027682 0.356717 -0.321854 0.010056 0.116729 0.533435 0.386065 -0.760645 0.066837 0.368283 -0.240082 0.558437 -0.611616 -0.196285 -0.138195 -0.444392 0.821733 0.690508 -0.548927 0.629064 -0.803768 -0.837441 -0.222876 0.905568 0.423216 -0.329836 0.488144 0.000034 -0.113569 0.339564 0.636560 -0.746829 -1.075696 -0.826749 0.158727 0.458716 -0.543003 0.173538 -0.728176 0.354726 0.367866 0.152035 -0.563925 0.353471
some -0.060443 -0.451075 0.016936 0.948577 -0.049366 0.299191 0.256382 0.232129 -0.406925 0.810232 -0.209589 0.061314 0.798853 0.844018 -0.672758 0.055717 -0.024643 -0.689508 0.506446 0.318099 -0.031814 0.184787 -0.037144 0.322714 0.321133 -0.317783 0.342242 0.057321 0.488393 0.521927 -0.551962 1.072549 0.009609 0.059029 -0.286600 0.420911 -1.739364 -0.357321 -0.536699 0.131993 -0.066314 0.063146 0.418554 0.284464 0.055770 0.513284 -0.827307 -0.611720 -0.363259 0.341845 -0.230275 -0.264533 -0.122514 -0.351080 -0.359213 -0.648064 0.323578 -0.298303 0.440341 -0.019314 0.225983 0.363910 -0.199612 0.467639 0.121388 0.967736 0.747230 0.082539 -0.582784 -0.176993 0.520392 0.369969 -0.246875 -0.136807 0.004292 -0.330670 -0.239953 -0.822684 -0.402034 -0.557873 -0.190121 -0.106036 -0.384310 0.384642 0.233919 -0.078958 0.246946 -0.142266 0.168298 0.511198 0.276668 0.154729 -0.583486 -0.357178 0.392693 0.851724 -0.571886 0.302465 0.432705 0.115615
e -0.100092 0.074828 0.019333 0.083121 0.546581 -0.080543 0.901135 1.076739 -0.607648 0.276425 -0.181422 0.830546 0.337480 0.388011 -0.411602 -0.145174 -0.726966 -0.254365 -0.725063 -0.894947 -0.371172 -0.617329 -0.682074 -0.023365 1.021598 -0.302029 -0.797308 -0.058674 -0.136345 0.765937 -0.152347 0.449668 -0.983095 0.801840 -0.095126 -0.504446 0.509790 0.179211 0.399568 0.614822 -0.595037 0.204156 0.067163 -0.176919 -0.187822 -0.121310 -0.186730 0.573803 0.517108 0.751827 -0.357476 -0.428678 -0.017890 -0.458891 -0.034291 -0.112550 -0.042378 0.200450 0.332423 -0.550479 1.273706 -0.161954 0.131088 -1.195835 0.160019 -0.289136 -0.029265 1.066853 -0.664481 0.103613 0.330494 -0.466388 1.314081 0.411023 0.263932 -0.491184 0.152467 -0.860912 0.538625 0.770079 -0.183239 -0.503848 -0.557402 0.632409 -0.383585 -0.440245 -0.552583 -0.510064 -0.118553 0.341346 0.211835 -0.340021 -0.492528 0.118144 0.600705 -0.481454 -0.568747 -0.029124 0.063908 0.251575
other 0.381930 -1.176740 -0.282985 0.518518 0.819834 -0.151331 -0.378331 0.572465 -0.529086 0.198849 -0.927110 0.150674 0.615499 0.337342 -0.412013 -0.403283 0.019551 -0.476441 0.524220 -0.400494 0.619900 0.590750 -0.150689 0.238635 -0.108909 -0.027460 0.542732 0.290966 -0.548067 0.201232 0.279950 0.644655 0.043538 0.428177 0.452798 -0.201325 -0.358819 -0.235760 0.082810 0.469105 -0.733316 0.003628 0.292854 -0.081200 -0.277306 0.298034 -0.692581 -0.353794 -0.657499 -0.117768 -0.215762 -0.457871 0.451300 0.443678 0.038635 -0.099303 0.078081 -0.710378 0.022294 -0.156777 0.704392 -0.090260 -0.463058 0.308453 0.559954 0.693610 0.321991 0.505135 0.118439 0.431065 1.407107 -0.155363 0.000479 0.315055 -0.169537 0.010782 -0.520673 -0.733607 0.196036 -0.134361 -0.126340 0.264664 0.200693 1.059901 0.026388 0.385479 0.242450 -0.222276 0.453215 0.222806 0.186292 -0.333683 -0.356083 -0.808964 0.152094 0.799999 -0.406612 0.439765 0.313463 -0.068523
s 0.356080 0.189940 0.278814 0.441439 0.732949 0.085658 0.566413 1.112608 -0.980601 0.622671 -0.834303 0.257124 1.581107 0.330008 -0.091655 0.018896 -0.766100 0.254373 -0.192674 -0.698140 0.048816 0.963263 -0.398028 -0.458136 0.232465 0.179417 0.159079 -0.958183 -0.887916 0.654810 -0.624051 0.332093 -0.594037 -0.919944 0.026563 -0.502470 -0.169587 0.165566 -0.568128 0.250193 -0.478368 -0.004603 -0.681088 -0.042518 -0.036961 -0.700884 -0.843213 -0.008756 0.150637 0.265896 0.095288 0.125018 0.387512 -0.951264 -0.215136 -0.302038 -0.687718 0.258795 0.134558 -0.377152 0.384757 -0.269352 0.244311 -0.519393 -0.108243 -0.030838 -0.402792 0.479676 -1.538952 -0.098005 -0.196910 -0.502664 0.689641 -0.093378 -0.077262 0.316040 0.288566 -0.529241 -0.811551 0.849022 -0.024272 -0.069462 0.032306 0.192352 -0.273408 0.583469 -0.036059 -0.461756 0.385330 -0.036384 0.074401 -0.879658 -0.704588 0.583838 0.192461 -0.087503 -0.695092 -0.339955 -0.330281 0.120680
points -0.089297 0.044913 -0.554110 0.903721 1.134649 -0.523853 0.966564 -0.243046 -0.528821 0.046564 -0.903073 0.159127 1.110339 -0.050596 0.008088 -0.810892 -0.584274 0.538389 0.449874 -0.422742 0.651077 0.858458 -0.547047 -0.344907 -0.021120 0.052282 1.000110 0.241210 -0.630790 0.067773 0.116167 0.124807 0.263186 -0.589965 -0.015096 0.037458 0.347394 -0.427584 -0.829703 0.108966 -1.259141 -0.354326 -0.483380 0.399167 0.397265 -0.709039 -0.689494 -0.179948 -0.323692 -0.076941 0.049885 0.020683 1.003785 -0.877898 -0.094687 0.046949 0.107671 -0.328817 0.239463 0.025199 -0.306401 -0.264040 -0.476153 1.206756 0.608771 0.318317 0.090254 0.092033 -0.021713 -0.524719 -0.528345 -0.390683 0.716491 0.111845 0.551737 0.284346 -1.288203 0.015892 -0.007669 0.501330 0.033492 0.043870 -0.210524 0.070608 0.342689 -0.003148 0.538870 -0.330839 0.321292 -0.948633 -0.366283 0.198412 0.199651 -0.284820 -0.374507 0.250742 -0.717776 0.415698 0.370339 -0.094268
called -0.058991 -0.222915 -0.251956 0.959169 -0.201344 0.168866 -0.023492 -0.072067 0.270300 0.168728 -0.842994 0.559470 0.065507 0.186640 0.176513 0.022180 0.430093 -0.511994 -0.487808 0.742449 -0.148387 0.168311 -0.212084 0.559960 -0.275337 -0.370680 0.553802 0.130095 -0.309832 0.117756 -0.686317 0.381587 -0.724538 0.463624 -0.352442 0.219474 -0.639042 0.177788 0.129356 0.453445 -0.711449 0.355777 -0.405811 0.252447 -0.369190 -0.265921 -0.235632 0.341175 -0.145625 0.585550 -0.560041 -1.085952 1.623819 0.421168 0.164818 -0.193419 -0.355445 -0.475375 0.218799 0.400442 0.251461 -0.054870 -0.367823 -0.170732 0.565237 0.292705 -0.394233 -0.649102 0.136539 -0.264838 0.488999 -0.484204 0.036802 -0.137458 -0.489382 0.072420 -0.738215 0.435798 0.420094 0.457860 -0.046108 0.037741 -0.519392 -0.257623 -0.388476 -0.653950 0.576098 -0.322130 0.885204 0.309293 -0.163813 0.093487 -0.348273 -0.224356 0.226190 0.278029 0.074141 0.575747 0.194568 0.382371
numbers 0.553190 0.010552 -0.427884 0.262459 -0.102914 0.229634 1.051969 0.156740 0.158182 -0.460995 -0.669943 0.816198 0.766720 0.728988 -0.795962 0.715703 -0.577197 -0.218224 0.014125 0.633111 0.667865 0.818842 -0.146706 0.484123 -0.012758 -0.278270 0.994569 0.079535 0.320213 0.035044 -0.340435 0.177391 -0.271977 -0.290105 -0.274969 0.261879 -0.468738 0.713360 -0.295887 0.446460 0.061827 0.017372 -0.425401 0.419378 0.755247 -0.329397 0.178770 -0.534698 -0.398285 0.305447 -0.669043 -0.147202 -0.407572 -0.297156 0.115700 -0.158230 -0.172249 -0.139023 0.154422 0.248129 -0.091943 0.335024 0.422553 0.233622 0.119343 -0.165228 1.003361 0.215078 -0.811684 0.035702 0.969355 0.483605 0.665772 0.087222 0.072147 0.438120 -0.457729 0.561062 0.372414 -0.195341 0.056623 -0.017163 1.140687 0.157535 0.374659 0.122687 -0.048935 -0.190660 -1.532993 -0.105302 0.185511 0.436885 -0.240055 0.133219 0.524236 0.322493 -0.764816 0.677581 -0.040068 0.247149
any -0.557469 -0.043310 -0.011509 0.566075 0.865789 0.374940 0.002369 -0.030552 0.205907 0.382956 -0.726606 -0.667528 0.475526 -0.032114 -0.544774 -0.352630 0.008837 -0.672139 0.184887 -0.466734 0.850177 0.192878 -0.766616 -0.302265 -0.080139 -0.280392 0.340670 -0.024884 -0.509325 -0.490490 -0.097447 0.803125 -0.132332 -0.102161 -0.319801 -0.579440 -0.488893 -0.045412 -0.253118 -0.756634 -0.996522 0.020339 -0.046697 0.435152 0.384134 -0.570443 -0.293590 -0.690967 -0.114457 0.589368 -1.137720 0.068133 0.529066 -0.753857 -0.390707 -0.021641 0.507425 -0.279248 0.413174 -0.615835 0.240964 -0.123909 0.122524 -0.242925 -0.026484 0.177508 -0.372900 -0.229819 -0.659929 -0.353963 0.686968 -0.020438 0.351635 0.378045 -0.334243 0.239175 -1.100354 -0.750682 -0.907915 0.206887 -0.085969 -0.720902 0.079659 -0.084613 -0.164433 -0.262663 0.487874 -0.986763 0.031341 0.322832 -0.548001 -0.235568 0.331654 0.040567 -0.141305 0.159206 0.155045 0.186598 0.275863 -0.075384
their -0.134781 -0.400396 -0.893021 0.254479 1.067834 -0.418237 0.564316 0.161429 0.952598 -0.613224 -0.417840 -0.174085 -0.018991 0.370663 0.257473 0.391699 0.252316 0.058699 -0.311192 -0.675423 0.000257 0.617682 0.255841 0.040517 0.832475 -0.361368 0.127685 0.273950 0.557007 0.215433 -0.135603 0.940669 0.305641 -0.409755 0.072463 0.041881 -0.152619 -0.674403 0.567261 -0.532323 -0.523250 0.097759 -0.473926 0.170648 0.071210 -0.341988 -0.640310 -0.602942 -0.168576 0.356881 -0.524792 -0.695411 -0.078488 -0.795534 -0.203622 -0.065850 0.251139 -0.302434 0.413639 0.694815 0.521450 0.026880 -0.202590 -0.902298 0.708192 0.470401 -0.087815 0.348095 0.468801 0.567209 0.222325 1.056427 0.144946 -0.273690 0.372541 0.059064 -0.590266 0.264535 -0.168765 -0.019363 -0.237551 -0.426685 0.608932 1.196639 0.100322 0.635692 -0.332567 -0.902243 0.170603 -0.467073 -0.139244 0.620177 0.442797 -0.021945 -0.170738 0.311567 -0.245234 0.613921 0.509329 0.522242
order -0.598722 0.350618 -0.352627 0.882390 1.397270 0.377371 0.917949 0.715659 0.926677 -0.351887 -0.242415 -0.839791 0.006832 0.354222 -0.817543 -0.019658 -0.602685 0.237608 -0.196350 -0.585417 0.716330 0.032146 0.080256 0.012368 0.625056 -0.440748 0.138855 0.057183 0.770256 0.171927 0.460599 0.393472 -0.856949 0.333584 -0.030161 0.259057 -0.545687 0.135005 -0.140345 -0.332521 0.451543 0.290261 -0.202150 0.185313 0.506761 0.040674 0.314509 -0.478193 -0.413856 1.120744 0.297034 -0.957220 0.252240 -0.987489 -0.307354 -0.275738 -0.338636 -0.177501 0.040452 0.189837 0.492684 -0.334305 -0.312494 -1.193024 0.265949 -0.261898 -0.362482 0.222049 0.056665 0.619884 0.145382 0.321597 0.249282 -0.283275 0.441178 0.257577 -0.063683 -0.372433 -0.114965 -0.128269 -0.001513 -0.180005 0.667758 -0.006179 -0.331275 -0.351879 0.421759 -0.890260 0.054428 -1.059917 0.338473 0.655632 -0.001482 -0.325641 -0.281401 0.242128 -0.285337 0.540248 0.791288 0.187079
size 0.023438 -0.923523 0.209648 0.492108 0.614022 0.198269 0.103270 0.426027 -0.177169 0.462638 0.443469 -0.688679 1.024250 0.996658 -0.463363 0.488977 -0.084499 0.424901 0.813033 -0.335242 -0.018025 0.241445 0.295861 0.690926 0.029388 -0.541354 -0.078185 0.430054 -0.621776 0.448503 0.276413 0.328239 -0.006711 -0.036047 -0.722589 -0.224238 -0.896910 0.333056 0.796813 -0.025122 0.026616 0.214067 -0.136944 -0.900315 -0.382228 -0.632845 -0.080602 0.061755 -0.182050 0.744440 -0.145150 -0.317134 0.213679 0.310324 0.728473 -0.191834 0.091038 -0.218373 -0.035424 0.012114 0.287834 0.017688 0.023093 -1.013610 -0.141489 1.223592 -0.511266 0.039540 -0.330381 -0.431186 0.138530 0.185574 0.394678 0.006596 -0.300807 -0.072404 0.186913 -0.499756 -0.890564 -0.976317 0.386570 -0.068935 0.003145 0.630509 0.002767 0.748744 -0.010272 -0.110454 -0.556048 -0.829451 -0.009496 0.579625 -0.477898 -0.243614 0.145592 0.030596 0.307354 1.084929 0.510635 0.068135
see 0.427527 -0.774717 -0.695113 0.632959 0.457434 0.581230 0.279601 0.897949 0.420726 0.693868 0.156313 0.724845 1.102288 0.308590 -0.089191 -0.516077 0.079699 -0.012799 0.546424 0.529894 -0.079376 0.269899 0.441037 -0.681943 0.562580 -0.145211 0.079532 0.529094 0.053833 -0.124759 -0.621688 0.712296 -0.394587 0.009351 0.292128 0.682024 0.145847 -0.395185 -0.986977 0.002174 0.106720 -0.466587 -0.192199 0.279150 -0.078130 -0.279488 0.136692 0.427015 -0.372632 0.224156 -0.468109 -0.128891 0.325193 -0.327211 0.291006 -0.322313 -0.042469 -0.325293 0.145259 -0.705411 0.347455 -0.561948 -0.096669 0.108906 0.668615 0.610758 0.192260 -0.498367 -0.534579 -0.342636 0.879426 0.109715 -0.140828 0.283923 -0.171059 -0.513176 -0.627139 0.620347 -0.453049 -0.364468 -0.296419 0.404370 0.087311 0.429014 -0.521757 -0.144567 -0.091208 0.325565 0.214806 -0.200685 -0.482152 0.001443 -0.114540 -0.426724 0.541134 0.852694 -0.359518 0.418152 -0.426178 -0.141054
matrix 0.331819 -0.699055 -0.715140 -0.536851 0.170516 -0.158206 -0.205796 0.204712 0.291526 -0.009376 -0.145167 0.347664 0.782587 -0.118029 -0.423479 -0.458644 0.241426 -0.347539 -0.723133 -0.290023 0.537990 0.429610 0.165048 0.475442 0.278471 -0.500010 -1.086367 -0.262434 0.775042 -0.023852 0.455155 0.711717 -0.304784 -0.854790 -0.127815 -0.385627 -0.123375 0.366200 -0.199396 -0.034983 -0.244910 0.184463 -0.306622 1.154959 -0.084799 0.053989 0.320633 0.682993 0.378443 0.359117 -0.307367 -0.948479 0.552395 0.134064 0.727263 0.427317 0.596726 0.367271 0.132648 0.391803 0.666415 0.337984 0.504586 -1.344681 0.372811 0.293543 -0.966689 0.268303 0.040047 -0.279872 0.340220 -0.146024 0.355213 0.367076 -0.223752 -0.299521 -0.385099 0.405197 0.997503 0.424877 -1.125946 0.220627 0.142116 0.655957 0.257498 -0.481210 -0.304530 -0.431130 -0.745869 -0.061089 0.565497 0.450286 -0.760763 -0.640024 -1.176569 0.334759 -0.031931 0.211110 0.859173 -0.103944
only 1.124653 -0.635003 -0.539993 0.311716 0.730492 0.042614 0.168368 -0.002339 -0.102293 0.482428 -0.279681 -0.520739 0.668334 0.973804 -0.340901 0.559334 -0.175552 -0.582617 0.227592 0.236251 0.394391 0.993948 -0.759026 0.062750 0.021613 0.754605 0.758757 -0.379065 -0.280955 0.324863 -0.848898 0.543336 0.387320 -0.138697 -0.103127 0.364715 -0.196585 0.392314 0.625397 -0.650780 0.120588 0.475157 0.008666 -0.120793 0.425031 -0.024448 -0.072403 -0.034183 0.135303 -0.005328 -0.409914 -0.089515 0.459178 -0.098525 0.727237 0.174555 0.587136 -0.255716 0.722594 0.066835 -0.253071 0.158533 0.151694 -0.082440 -0.017654 -0.511200 0.301721 -0.490627 0.285643 0.096688 0.677956 0.079959 0.051586 0.253509 -0.542221 0.504572 0.189333 0.144413 -0.193105 0.101111 -1.010402 -0.158451 -0.033639 0.045896 -0.251378 0.287533 -0.094765 -0.610842 -0.155313 0.277872 -0.285661 0.177977 -0.219556 0.458236 -0.205325 0.339938 -0.226366 1.077687 0.617791 0.141051
element 0.248462 0.066351 0.446323 -0.510258 0.041779 0.182188 0.152903 0.665937 -0.455185 0.092368 -0.667373 0.232115 -0.095393 0.086116 -1.024009 -0.324709 0.287393 -0.067905 0.420989 0.023698 0.726148 0.957046 -0.000561 -0.370260 -0.209367 0.641183 0.094217 -0.357011 -0.375101 0.805256 -0.859212 0.259296 -0.364734 -0.628760 -0.080866 0.292165 -0.347839 -0.323743 -0.455341 -0.147695 -0.165846 1.054656 -0.267226 0.818893 0.528422 -0.754349 0.033620 -0.705528 -0.694063 0.592755 -0.611224 0.015264 0.333115 0.295153 0.869923 -0.454421 0.008364 0.424758 -0.047380 -0.191550 -0.008892 0.666496 0.133386 -0.885176 0.526196 0.169073 -0.926504 0.740843 -1.166816 0.007855 -0.437873 0.049126 -0.249992 -0.439282 -0.369185 -0.088211 -0.436254 -0.119349 0.037351 0.309958 -0.183901 -0.351858 -0.165269 -0.016269 0.409529 1.037364 0.334227 -0.169337 -0.689316 -0.200569 0.222128 0.021131 -0.490160 0.214843 -0.851387 1.294374 -0.428853 0.113807 -0.151451 0.082081
how 0.073337 -1.200232 -0.266597 0.076913 0.211628 -0.178689 0.291787 0.867574 0.419304 -0.056852 -0.429432 0.811840 0.983900 0.034987 -0.720468 -0.208981 0.240021 0.694592 1.095283 -0.174131 0.726298 -0.082058 -0.245551 -0.623698 0.800650 1.010685 0.321562 0.627344 0.470273 -0.967087 -0.033485 0.011782 0.004908 0.150470 -0.153503 0.372552 -0.407906 0.364688 -0.374008 -0.147118 -0.381036 -0.185565 -0.528880 -1.520038 -0.247190 -0.058827 0.539802 0.336507 0.440616 0.670050 -0.030869 0.209408 -0.250981 -0.115458 0.690744 0.395749 0.287854 -0.220129 0.401182 -0.358257 0.610787 -0.537755 -0.069720 -0.227314 0.100583 0.503787 -0.947665 0.036020 -0.361019 -0.284903 1.554957 0.536582 0.201891 -0.254487 -0.445156 -0.688569 -0.354390 0.277544 -0.293144 -0.437973 -0.028074 0.323890 0.690825 0.446727 -0.431932 -0.709160 0.352976 -0.023360 -0.288490 0.008917 0.081029 -0.437252 -0.555117 -0.131633 0.265098 -0.060881 -0.046694 0.195844 0.310958 -0.006502
input 0.726266 -0.608508 0.307407 0.721405 0.417938 0.418822 0.263567 0.121248 0.124508 0.533941 0.787147 -0.207855 1.118212 0.420156 -0.713845 0.446673 -0.106327 0.958240 0.026292 -0.379504 0.135575 0.120598 -0.509727 0.584963 0.073288 -0.842950 0.267604 0.639776 0.117308 0.536374 -0.532437 0.714548 0.224415 -0.256096 0.013916 0.410390 -0.865122 0.319974 0.332246 -0.257456 -0.166439 -0.247735 -0.343826 0.588686 -0.181156 -0.119167 0.044063 -0.378806 -0.127421 0.678353 -0.482654 -0.779621 0.467587 0.224136 -0.111770 -0.040127 0.201719 0.696713 -0.069644 -0.339952 0.409555 -0.163552 0.292367 -0.684114 -0.527100 0.560966 0.171937 0.012855 -0.706914 -0.523802 0.220365 -0.181317 0.823157 0.266372 0.424659 0.286882 -0.733290 -0.650140 -0.278799 0.089440 0.013024 -0.532073 0.057580 0.294640 -0.125024 0.105025 -0.034404 -0.832861 -0.707898 -0.967846 0.401822 1.206641 -0.533626 -0.323698 -0.517285 0.501169 0.314516 0.545465 -0.073522 -0.213430
so -0.151295 -1.398448 0.083769 0.605609 0.486832 0.358887 0.374402 1.138045 -0.166112 0.678517 -0.677227 0.234043 0.698256 0.634180 0.153821 -0.414921 -0.013601 -0.171488 0.183699 -0.236682 0.457450 0.513572 0.284338 -0.630209 0.814337 -0.192304 -0.035596 0.022450 0.053369 0.229203 -0.284550 0.109290 0.216131 -0.336738 -0.288366 0.222503 -0.536845 -0.020242 0.179279 -0.609963 0.245568 -0.033120 0.129981 -0.220842 0.299250 0.146980 -0.212330 -1.086446 0.509613 -0.124885 0.100403 -0.224557 -0.527101 -0.016663 1.017627 0.333699 0.658277 0.100242 0.767371 0.667313 0.785258 -0.391659 0.733063 0.371591 0.219843 -0.754739 -0.616869 -0.264573 -0.894537 -0.528430 0.749476 -0.214491 -0.134236 0.191543 -0.675589 0.327605 -0.421103 -0.354937 -0.151067 -0.461467 -0.013678 0.562842 0.187521 0.238331 0.422337 -0.532171 0.250709 0.054860 -0.660989 -0.247533 -0.091037 0.121739 -0.449009 0.233444 -0.326117 0.031713 -0.979913 0.620154 0.802851 -0.050270
important 0.099043 -1.920806 -0.418013 0.637315 0.426610 0.415251 0.650162 0.609161 0.455336 -0.087704 -0.651970 0.567254 -0.457639 -0.130246 0.155465 0.115346 1.039150 -0.727017 0.811487 0.584785 0.540053 0.394667 -0.632674 -0.093699 0.209275 -0.125025 0.526215 0.455041 -0.187570 0.377933 -0.298861 0.864241 -0.473094 0.093321 -0.407082 0.845654 -0.829804 -0.425750 0.114714 -0.267527 -0.642906 0.245540 -0.209239 0.091113 -0.470043 -0.233862 -0.311481 -0.279119 -0.104345 0.337599 0.101347 -0.175134 0.257307 0.144570 -0.245412 -0.066594 0.407177 -1.212121 0.288452 0.384565 0.683677 -0.220384 -0.333539 0.713632 0.349425 0.164739 1.308032 0.851497 0.576852 0.147475 1.072074 -0.038405 0.179236 0.145520 -0.280132 0.302811 -0.705732 0.136907 -0.107985 0.557918 -0.302889 0.336894 0.019829 -0.173339 -0.319344 0.428445 0.558257 0.610299 0.369223 0.107307 -0.533756 0.133497 0.100184 0.304157 -0.144032 0.418878 0.362193 0.253307 0.103986 0.173619
key 0.180028 0.082541 0.649166 0.632943 -0.142007 0.468971 -0.354329 0.278430 0.030823 -0.529693 0.041721 0.545462 0.118369 0.390270 -0.948584 -0.469754 -0.217823 -0.297066 0.345314 -0.227670 -0.511756 1.028286 -0.395061 0.497800 0.399897 0.524677 0.161476 0.284526 -0.021071 0.249060 -0.527267 -0.125428 -0.413858 0.316145 -0.004156 0.230380 -0.478829 0.102917 0.505159 -1.103213 -0.050396 0.119566 0.002076 -0.242460 0.320058 -0.411654 0.189793 -0.373380 -0.424155 1.384594 -0.940521 -0.201154 0.138404 -0.038993 0.482228 -0.408159 0.179733 -0.463187 0.245713 -0.340745 0.735432 0.063656 -0.025315 -0.239753 -0.284949 0.232233 -0.898298 0.007794 -1.156018 -0.035892 -0.116038 0.643535 -0.942548 -0.397703 -0.383469 0.623003 0.263456 0.173828 0.350442 -0.151571 -0.180635 -0.845392 0.083673 -0.333992 -0.041377 0.429629 0.910157 -0.485161 -1.150114 -0.816542 -0.923651 -0.298971 -0.346789 0.730857 0.043749 0.491881 0.163784 0.126289 -0.873470 -0.641975
does 0.484225 -0.817213 -0.160358 0.128631 0.211852 1.104200 0.155897 0.198245 0.328464 0.652758 0.239844 -0.120406 1.451501 0.279990 -0.615061 -0.698860 0.358679 0.646589 0.296856 0.005166 -0.131902 0.124647 -0.470997 -0.488893 0.386932 0.612847 0.184902 0.400035 0.226541 -0.546271 0.000781 0.879443 0.736981 0.018464 -0.153127 0.600637 -0.184121 0.389760 0.162019 -0.481438 -0.383196 -0.106350 -0.678494 -0.305100 -0.175312 0.478666 -0.362173 -0.158894 -0.418556 0.690080 -0.416741 -0.451809 0.579067 -0.163823 0.260400 0.164076 0.758320 0.168451 -0.363774 -0.652338 -0.955111 -0.383135 -0.017204 -0.208633 0.395833 -0.022629 -0.005307 -0.323476 0.015623 -0.475476 0.966558 0.493606 0.597171 0.432699 0.026300 0.351200 -0.596187 0.184021 -0.510980 0.149893 -0.482370 -0.453731 0.303984 0.135082 -0.026167 -0.967134 0.283306 -0.676577 -0.416769 0.059503 0.258628 0.419579 -0.239671 0.463049 -0.133209 -0.222063 0.058362 -0.128621 0.227656 -0.258072
these -0.613296 -0.450006 0.254389 1.153518 0.837839 -0.658041 1.122300 0.523294 0.445844 -1.032748 -0.804965 0.544972 -0.036456 0.628775 0.015530 0.111838 -0.006824 0.073012 -0.084953 0.048073 0.530080 0.851857 0.204739 0.054027 0.542024 -0.655431 0.489592 0.197376 0.086903 -0.143339 -0.513361 0.968039 0.174039 0.494093 0.442071 -0.097463 -0.433923 -0.023593 0.003827 0.078182 -0.087918 -0.452621 -0.601987 -0.230160 -0.031662 0.389376 -0.062968 -0.063466 -0.192747 0.081985 -0.154608 -0.534700 0.175342 -0.411969 0.041481 -0.064639 -0.240724 -0.177118 0.610396 0.239474 0.115822 -0.507728 -0.147199 0.341849 0.225472 0.455927 0.683974 0.229015 -0.063470 0.319715 0.859250 -0.025613 0.209713 -0.445976 -0.368132 -0.044486 0.056721 0.151342 -0.072775 -0.202959 -0.065266 -0.467198 0.097698 0.559726 -0.286316 -0.406560 0.718007 0.074798 -0.495441 0.216475 0.498802 0.102093 0.116508 0.031336 0.120503 0.514248 -0.848802 0.303160 0.278548 0.281074
method 0.200722 -1.571855 -0.721500 0.704662 -0.212675 -0.047587 0.137832 -0.251961 -0.056761 0.779481 -0.058177 0.213210 0.687224 -0.053946 -0.395986 -0.557386 -0.147983 0.025466 -0.327552 1.252936 0.366213 -0.054654 0.210753 0.911811 0.650963 -0.223731 0.135842 0.522986 -0.241771 -0.653894 -1.418575 -0.267992 0.514001 -0.449866 -0.552133 0.964652 0.071479 0.036899 -0.527926 -0.042171 -1.026012 0.236151 -0.187892 -0.112681 -0.196281 -0.495328 0.211154 0.353081 -0.268223 0.470452 -0.245440 -0.385132 0.524217 0.518605 0.132561 0.322802 0.156005 -0.573617 0.547985 -0.692399 0.123353 -0.477714 -0.317010 0.081101 -0.522483 -0.618619 0.006166 -0.947052 -0.181541 -0.549978 0.227718 -0.532346 0.048096 0.930317 -0.209036 0.611132 0.117621 1.039811 -0.208098 0.617318 -0.363446 -0.455604 -0.336118 -0.410866 0.765048 -0.237973 -0.119490 0.567308 0.182414 0.389763 -0.364585 0.306664 -0.541432 0.210235 -0.152468 -0.184962 -0.384425 -0.055570 -0.361132 -0.466889
